net
{
     node_size = (0 0);
     name = "New BN";
     UnBBayes_Color_Probabilistic_Description = "-256";
     UnBBayes_Color_Probabilistic_Explanation = "-16711936";
}

node CrossSiteIdentification
{
     label = "C1";
     position = (255 152);
     states = ("Success" "Failure");
}

node Country
{
     label = "C2";
     position = (109 46);
     states = ("Japan" "USA" "France" "Canada" "Australia" "India");
}

node NoOfEmployees
{
     label = "C3";
     position = (210 30);
     states = ("1-250" "251-500" "501-1500" "1500+");
}

node OS
{
     label = "C4";
     position = (394 30);
     states = ("Windows" "Linux" "Mac" "Android");
}

node Industry
{
     label = "C5";
     position = (493 72);
     states = ("Mining" "Finance" "Administration");
}

node NoOfEmployees_1
{
     label = "C7";
     position = (832 44);
     states = ("250" "500" "1500" "2500");
}

node OS_1
{
     label = "C8";
     position = (1016 17);
     states = ("Windows" "Linux" "Mac" "Android");
}

node Industry_1
{
     label = "C9";
     position = (1115 60);
     states = ("Mining" "Finance" "Administration");
}

node Country_1
{
     label = "C10";
     position = (680 34);
     states = ("Japan" "USA" "France" "Canada" "Australia" "India");
}

node SessionSidejacking
{
     label = "C11";
     position = (809 155);
     states = ("Success" "Failure");
}

node NoOfEmployees_2
{
     label = "C12";
     position = (1344 32);
     states = ("1-250" "251-500" "501-1500" "1500+");
}

node OS_2
{
     label = "C13";
     position = (1528 32);
     states = ("Windows" "Linux" "Mac" "Android");
}

node Industry_2
{
     label = "C14";
     position = (1627 74);
     states = ("Mining" "Finance" "Administration");
}

node Country_2
{
     label = "C15";
     position = (1243 48);
     states = ("Japan" "USA" "France" "Canada" "Australia" "India");
}

node CrossSiteTracing
{
     label = "C16";
     position = (1302 154);
     states = ("Success" "Failure");
}

node NoOfEmployees_3
{
     label = "C17";
     position = (221 316);
     states = ("1-250" "251-500" "501-1500" "1500+");
}

node OS_3
{
     label = "C18";
     position = (405 316);
     states = ("Windows" "Linux" "Mac" "Android");
}

node Industry_3
{
     label = "C19";
     position = (504 358);
     states = ("Mining" "Finance" "Administration");
}

node Country_3
{
     label = "C20";
     position = (120 332);
     states = ("Japan" "USA" "France" "Canada" "Australia" "India");
}

node UnauthorizedUseOfDeviceResources
{
     label = "C21";
     position = (153 438);
     states = ("Success" "Failure");
}

node NoOfEmployees_4
{
     label = "C22";
     position = (780 317);
     states = ("1-250" "251-500" "501-1500" "1500+");
}

node OS_4
{
     label = "C23";
     position = (964 317);
     states = ("Windows" "Linux" "Mac" "Android");
}

node Industry_4
{
     label = "C24";
     position = (1063 359);
     states = ("Mining" "Finance" "Administration");
}

node Country_4
{
     label = "C25";
     position = (679 333);
     states = ("Japan" "USA" "France" "Canada" "Australia" "India");
}

node ForcefulBrowsing
{
     label = "C26";
     position = (715 439);
     states = ("Success" "Failure");
}

potential (CrossSiteIdentification | Industry NoOfEmployees OS Country)
{
 data = ((((( 0.6 0.4 )
( 0.8 0.19999999 )
( 0.7 0.3 )
( 0.6 0.39999998 )
( 0.5 0.5 )
( 0.6 0.39999998 ))
(( 0.1 0.9 )
( 0.3 0.7 )
( 0.2 0.8 )
( 0.2 0.8 )
( 0.15 0.85 )
( 0.15 0.85 ))
(( 0.6 0.39999998 )
( 0.8 0.19999999 )
( 0.75 0.25 )
( 0.6 0.39999998 )
( 0.65 0.35000002 )
( 0.7 0.3 ))
(( 0.4 0.6 )
( 0.6 0.39999998 )
( 0.5 0.5 )
( 0.45 0.55 )
( 0.6 0.39999998 )
( 0.7 0.3 )))
((( 0.7 0.3 )
( 0.75 0.25 )
( 0.65 0.35000002 )
( 0.6 0.39999998 )
( 0.4 0.6 )
( 0.4 0.6 ))
(( 0.15 0.85 )
( 0.35 0.65 )
( 0.2 0.8 )
( 0.2 0.8 )
( 0.4 0.6 )
( 0.3 0.7 ))
(( 0.6 0.39999998 )
( 0.8 0.19999999 )
( 0.55 0.45 )
( 0.4 0.6 )
( 0.7 0.3 )
( 0.7 0.3 ))
(( 0.3 0.7 )
( 0.5 0.5 )
( 0.2 0.8 )
( 0.15 0.85 )
( 0.4 0.6 )
( 0.35 0.65 )))
((( 0.7 0.3 )
( 0.88 0.120000005 )
( 0.65 0.35000002 )
( 0.45 0.55 )
( 0.7 0.3 )
( 0.75 0.25 ))
(( 0.2 0.8 )
( 0.5 0.5 )
( 0.3 0.7 )
( 0.35 0.65 )
( 0.4 0.6 )
( 0.45 0.55 ))
(( 0.8 0.19999999 )
( 0.85 0.14999998 )
( 0.6 0.39999998 )
( 0.5 0.5 )
( 0.65 0.35000002 )
( 0.7 0.3 ))
(( 0.7 0.3 )
( 0.8 0.19999999 )
( 0.5 0.5 )
( 0.4 0.6 )
( 0.66 0.33999997 )
( 0.65 0.35000002 )))
((( 0.8 0.19999999 )
( 0.9 0.100000024 )
( 0.75 0.25 )
( 0.6 0.39999998 )
( 0.7 0.3 )
( 0.75 0.25 ))
(( 0.3 0.7 )
( 0.5 0.5 )
( 0.15 0.85 )
( 0.4 0.6 )
( 0.45 0.55 )
( 0.45 0.55 ))
(( 0.75 0.25 )
( 0.9 0.100000024 )
( 0.6 0.39999998 )
( 0.65 0.35000002 )
( 0.7 0.3 )
( 0.7 0.3 ))
(( 0.6 0.39999998 )
( 0.4 0.6 )
( 0.5 0.5 )
( 0.55 0.45 )
( 0.4 0.6 )
( 0.3 0.7 ))))
(((( 0.7 0.3 )
( 0.8 0.19999999 )
( 0.6 0.39999998 )
( 0.5 0.5 )
( 0.65 0.35000002 )
( 0.7 0.3 ))
(( 0.2 0.8 )
( 0.3 0.7 )
( 0.2 0.8 )
( 0.3 0.7 )
( 0.2 0.8 )
( 0.35 0.65 ))
(( 0.6 0.39999998 )
( 0.7 0.3 )
( 0.6 0.39999998 )
( 0.55 0.45 )
( 0.56 0.44 )
( 0.7 0.3 ))
(( 0.5 0.5 )
( 0.6 0.39999998 )
( 0.6 0.39999998 )
( 0.7 0.3 )
( 0.55 0.45 )
( 0.65 0.35000002 )))
((( 0.7 0.3 )
( 0.85 0.14999998 )
( 0.65 0.35000002 )
( 0.5 0.5 )
( 0.75 0.25 )
( 0.75 0.25 ))
(( 0.25 0.75 )
( 0.35 0.65 )
( 0.25 0.75 )
( 0.3 0.7 )
( 0.4 0.6 )
( 0.4 0.6 ))
(( 0.77 0.23000002 )
( 0.9 0.100000024 )
( 0.67 0.32999998 )
( 0.75 0.25 )
( 0.8 0.19999999 )
( 0.85 0.14999998 ))
(( 0.7 0.3 )
( 0.65 0.35000002 )
( 0.5 0.5 )
( 0.7 0.3 )
( 0.4 0.6 )
( 0.75 0.25 )))
((( 0.8 0.19999999 )
( 0.92 0.07999998 )
( 0.7 0.3 )
( 0.77 0.23000002 )
( 0.8 0.19999999 )
( 0.85 0.14999998 ))
(( 0.3 0.7 )
( 0.5 0.5 )
( 0.4 0.6 )
( 0.45 0.55 )
( 0.45 0.55 )
( 0.5 0.5 ))
(( 0.8 0.19999999 )
( 0.92 0.07999998 )
( 0.7 0.3 )
( 0.75 0.25 )
( 0.8 0.19999999 )
( 0.8 0.19999999 ))
(( 0.7 0.3 )
( 0.6 0.39999998 )
( 0.7 0.3 )
( 0.7 0.3 )
( 0.8 0.19999999 )
( 0.8 0.19999999 )))
((( 0.6 0.39999998 )
( 0.7 0.3 )
( 0.65 0.35000002 )
( 0.65 0.35000002 )
( 0.7 0.3 )
( 0.75 0.25 ))
(( 0.25 0.75 )
( 0.3 0.7 )
( 0.2 0.8 )
( 0.25 0.75 )
( 0.3 0.7 )
( 0.33 0.66999996 ))
(( 0.75 0.25 )
( 0.8 0.19999999 )
( 0.7 0.3 )
( 0.7 0.3 )
( 0.85 0.14999998 )
( 0.8 0.19999999 ))
(( 0.4 0.6 )
( 0.6 0.39999998 )
( 0.7 0.3 )
( 0.5 0.5 )
( 0.7 0.3 )
( 0.75 0.25 ))))
(((( 0.6 0.39999998 )
( 0.7 0.3 )
( 0.7 0.3 )
( 0.8 0.19999999 )
( 0.75 0.25 )
( 0.6 0.39999998 ))
(( 0.1 0.9 )
( 0.3 0.7 )
( 0.2 0.8 )
( 0.15 0.85 )
( 0.15 0.85 )
( 0.32 0.68 ))
(( 0.7 0.3 )
( 0.7 0.3 )
( 0.8 0.19999999 )
( 0.6 0.39999998 )
( 0.6 0.39999998 )
( 0.75 0.25 ))
(( 0.6 0.39999998 )
( 0.54 0.45999998 )
( 0.7 0.3 )
( 0.5 0.5 )
( 0.68 0.32 )
( 0.66 0.33999997 )))
((( 0.7 0.3 )
( 0.77 0.23000002 )
( 0.8 0.19999999 )
( 0.56 0.44 )
( 0.66 0.33999997 )
( 0.75 0.25 ))
(( 0.2 0.8 )
( 0.3 0.7 )
( 0.3 0.7 )
( 0.25 0.75 )
( 0.35 0.65 )
( 0.4 0.6 ))
(( 0.8 0.19999999 )
( 0.85 0.14999998 )
( 0.7 0.3 )
( 0.8 0.19999999 )
( 0.6 0.39999998 )
( 0.75 0.25 ))
(( 0.4 0.6 )
( 0.55 0.45 )
( 0.6 0.39999998 )
( 0.4 0.6 )
( 0.45 0.55 )
( 0.55 0.45 )))
((( 0.8 0.19999999 )
( 0.85 0.14999998 )
( 0.9 0.100000024 )
( 0.85 0.14999998 )
( 0.7 0.3 )
( 0.75 0.25 ))
(( 0.2 0.8 )
( 0.5 0.5 )
( 0.4 0.6 )
( 0.35 0.65 )
( 0.5 0.5 )
( 0.5 0.5 ))
(( 0.8 0.19999999 )
( 0.85 0.14999998 )
( 0.7 0.3 )
( 0.68 0.32 )
( 0.75 0.25 )
( 0.85 0.14999998 ))
(( 0.5 0.5 )
( 0.4 0.6 )
( 0.7 0.3 )
( 0.6 0.39999998 )
( 0.5 0.5 )
( 0.55 0.45 )))
((( 0.7 0.3 )
( 0.75 0.25 )
( 0.6 0.39999998 )
( 0.44 0.56 )
( 0.7 0.3 )
( 0.8 0.19999999 ))
(( 0.3 0.7 )
( 0.25 0.75 )
( 0.4 0.6 )
( 0.25 0.75 )
( 0.3 0.7 )
( 0.3 0.7 ))
(( 0.7 0.3 )
( 0.8 0.19999999 )
( 0.85 0.14999998 )
( 0.6 0.39999998 )
( 0.7 0.3 )
( 0.85 0.14999998 ))
(( 0.4 0.6 )
( 0.55 0.45 )
( 0.44 0.56 )
( 0.6 0.39999998 )
( 0.5 0.5 )
( 0.55 0.45 )))));
}

potential (Country)
{
 data = ( 0.05 0.7 0.05 0.04 0.08 0.08 );
}

potential (NoOfEmployees)
{
 data = ( 0.15 0.25 0.35 0.25 );
}

potential (OS)
{
 data = ( 0.6 0.1 0.2 0.1 );
}

potential (Industry)
{
 data = ( 0.33333334 0.33333334 0.33333334 );
}

potential (NoOfEmployees_1)
{
 data = ( 0.15 0.25 0.35 0.25 );
}

potential (OS_1)
{
 data = ( 0.6 0.1 0.2 0.1 );
}

potential (Industry_1)
{
 data = ( 0.33333334 0.33333334 0.33333334 );
}

potential (Country_1)
{
 data = ( 0.05 0.7 0.05 0.04 0.08 0.08 );
}

potential (SessionSidejacking | Country_1 NoOfEmployees_1 OS_1 Industry_1)
{
 data = ((((( 0.7 0.3 )
( 0.6 0.39999998 )
( 0.7 0.3 ))
(( 0.2 0.8 )
( 0.2 0.8 )
( 0.3 0.7 ))
(( 0.7 0.3 )
( 0.8 0.19999999 )
( 0.75 0.25 ))
(( 0.5 0.5 )
( 0.6 0.39999998 )
( 0.55 0.45 )))
((( 0.72 0.27999997 )
( 0.77 0.23000002 )
( 0.7 0.3 ))
(( 0.25 0.75 )
( 0.3 0.7 )
( 0.3 0.7 ))
(( 0.75 0.25 )
( 0.8 0.19999999 )
( 0.88 0.120000005 ))
(( 0.4 0.6 )
( 0.6 0.39999998 )
( 0.3 0.7 )))
((( 0.8 0.19999999 )
( 0.8 0.19999999 )
( 0.9 0.100000024 ))
(( 0.35 0.65 )
( 0.24 0.76 )
( 0.35 0.65 ))
(( 0.8 0.19999999 )
( 0.85 0.14999998 )
( 0.9 0.100000024 ))
(( 0.85 0.14999998 )
( 0.7 0.3 )
( 0.6 0.39999998 )))
((( 0.75 0.25 )
( 0.6 0.39999998 )
( 0.85 0.14999998 ))
(( 0.2 0.8 )
( 0.2 0.8 )
( 0.15 0.85 ))
(( 0.75 0.25 )
( 0.75 0.25 )
( 0.7 0.3 ))
(( 0.4 0.6 )
( 0.4 0.6 )
( 0.55 0.45 ))))
(((( 0.65 0.35000002 )
( 0.65 0.35000002 )
( 0.8 0.19999999 ))
(( 0.1 0.9 )
( 0.15 0.85 )
( 0.2 0.8 ))
(( 0.4 0.6 )
( 0.6 0.39999998 )
( 0.6 0.39999998 ))
(( 0.5 0.5 )
( 0.5 0.5 )
( 0.5 0.5 )))
((( 0.8 0.19999999 )
( 0.85 0.14999998 )
( 0.7 0.3 ))
(( 0.3 0.7 )
( 0.2 0.8 )
( 0.25 0.75 ))
(( 0.7 0.3 )
( 0.85 0.14999998 )
( 0.85 0.14999998 ))
(( 0.4 0.6 )
( 0.4 0.6 )
( 0.4 0.6 )))
((( 0.85 0.14999998 )
( 0.88 0.120000005 )
( 0.88 0.120000005 ))
(( 0.3 0.7 )
( 0.35 0.65 )
( 0.35 0.65 ))
(( 0.85 0.14999998 )
( 0.88 0.120000005 )
( 0.87 0.13 ))
(( 0.75 0.25 )
( 0.8 0.19999999 )
( 0.87 0.13 )))
((( 0.7 0.3 )
( 0.75 0.25 )
( 0.75 0.25 ))
(( 0.25 0.75 )
( 0.2 0.8 )
( 0.35 0.65 ))
(( 0.75 0.25 )
( 0.88 0.120000005 )
( 0.8 0.19999999 ))
(( 0.6 0.39999998 )
( 0.5 0.5 )
( 0.55 0.45 ))))
(((( 0.7 0.3 )
( 0.6 0.39999998 )
( 0.65 0.35000002 ))
(( 0.2 0.8 )
( 0.25 0.75 )
( 0.2 0.8 ))
(( 0.7 0.3 )
( 0.72 0.27999997 )
( 0.75 0.25 ))
(( 0.4 0.6 )
( 0.5 0.5 )
( 0.44 0.56 )))
((( 0.75 0.25 )
( 0.8 0.19999999 )
( 0.8 0.19999999 ))
(( 0.25 0.75 )
( 0.22 0.78 )
( 0.3 0.7 ))
(( 0.77 0.23000002 )
( 0.7 0.3 )
( 0.78 0.22000003 ))
(( 0.6 0.39999998 )
( 0.57 0.43 )
( 0.65 0.35000002 )))
((( 0.8 0.19999999 )
( 0.82 0.18 )
( 0.87 0.13 ))
(( 0.3 0.7 )
( 0.3 0.7 )
( 0.35 0.65 ))
(( 0.8 0.19999999 )
( 0.85 0.14999998 )
( 0.7 0.3 ))
(( 0.5 0.5 )
( 0.5 0.5 )
( 0.6 0.39999998 )))
((( 0.7 0.3 )
( 0.8 0.19999999 )
( 0.57 0.43 ))
(( 0.3 0.7 )
( 0.2 0.8 )
( 0.22 0.78 ))
(( 0.8 0.19999999 )
( 0.7 0.3 )
( 0.8 0.19999999 ))
(( 0.5 0.5 )
( 0.5 0.5 )
( 0.44 0.56 ))))
(((( 0.6 0.39999998 )
( 0.55 0.45 )
( 0.7 0.3 ))
(( 0.2 0.8 )
( 0.1 0.9 )
( 0.15 0.85 ))
(( 0.8 0.19999999 )
( 0.7 0.3 )
( 0.8 0.19999999 ))
(( 0.6 0.39999998 )
( 0.2 0.8 )
( 0.35 0.65 )))
((( 0.75 0.25 )
( 0.8 0.19999999 )
( 0.7 0.3 ))
(( 0.25 0.75 )
( 0.25 0.75 )
( 0.3 0.7 ))
(( 0.8 0.19999999 )
( 0.7 0.3 )
( 0.75 0.25 ))
(( 0.3 0.7 )
( 0.4 0.6 )
( 0.5 0.5 )))
((( 0.8 0.19999999 )
( 0.9 0.100000024 )
( 0.85 0.14999998 ))
(( 0.3 0.7 )
( 0.5 0.5 )
( 0.35 0.65 ))
(( 0.8 0.19999999 )
( 0.7 0.3 )
( 0.75 0.25 ))
(( 0.6 0.39999998 )
( 0.3 0.7 )
( 0.35 0.65 )))
((( 0.7 0.3 )
( 0.6 0.39999998 )
( 0.66 0.33999997 ))
(( 0.2 0.8 )
( 0.15 0.85 )
( 0.35 0.65 ))
(( 0.7 0.3 )
( 0.6 0.39999998 )
( 0.8 0.19999999 ))
(( 0.4 0.6 )
( 0.45 0.55 )
( 0.55 0.45 ))))
(((( 0.7 0.3 )
( 0.5 0.5 )
( 0.6 0.39999998 ))
(( 0.2 0.8 )
( 0.25 0.75 )
( 0.25 0.75 ))
(( 0.74 0.26 )
( 0.85 0.14999998 )
( 0.8 0.19999999 ))
(( 0.4 0.6 )
( 0.4 0.6 )
( 0.6 0.39999998 )))
((( 0.7 0.3 )
( 0.75 0.25 )
( 0.8 0.19999999 ))
(( 0.2 0.8 )
( 0.15 0.85 )
( 0.35 0.65 ))
(( 0.4 0.6 )
( 0.6 0.39999998 )
( 0.55 0.45 ))
(( 0.5 0.5 )
( 0.55 0.45 )
( 0.45 0.55 )))
((( 0.7 0.3 )
( 0.8 0.19999999 )
( 0.85 0.14999998 ))
(( 0.3 0.7 )
( 0.35 0.65 )
( 0.25 0.75 ))
(( 0.8 0.19999999 )
( 0.7 0.3 )
( 0.75 0.25 ))
(( 0.6 0.39999998 )
( 0.6 0.39999998 )
( 0.44 0.56 )))
((( 0.7 0.3 )
( 0.65 0.35000002 )
( 0.78 0.22000003 ))
(( 0.5 0.5 )
( 0.3 0.7 )
( 0.34 0.65999997 ))
(( 0.8 0.19999999 )
( 0.85 0.14999998 )
( 0.7 0.3 ))
(( 0.6 0.39999998 )
( 0.4 0.6 )
( 0.5 0.5 ))))
(((( 0.6 0.39999998 )
( 0.65 0.35000002 )
( 0.7 0.3 ))
(( 0.2 0.8 )
( 0.2 0.8 )
( 0.15 0.85 ))
(( 0.7 0.3 )
( 0.85 0.14999998 )
( 0.8 0.19999999 ))
(( 0.6 0.39999998 )
( 0.6 0.39999998 )
( 0.35 0.65 )))
((( 0.7 0.3 )
( 0.8 0.19999999 )
( 0.8 0.19999999 ))
(( 0.3 0.7 )
( 0.35 0.65 )
( 0.35 0.65 ))
(( 0.4 0.6 )
( 0.87 0.13 )
( 0.7 0.3 ))
(( 0.7 0.3 )
( 0.7 0.3 )
( 0.8 0.19999999 )))
((( 0.8 0.19999999 )
( 0.85 0.14999998 )
( 0.7 0.3 ))
(( 0.35 0.65 )
( 0.35 0.65 )
( 0.4 0.6 ))
(( 0.7 0.3 )
( 0.88 0.120000005 )
( 0.9 0.100000024 ))
(( 0.6 0.39999998 )
( 0.7 0.3 )
( 0.75 0.25 )))
((( 0.7 0.3 )
( 0.8 0.19999999 )
( 0.85 0.14999998 ))
(( 0.5 0.5 )
( 0.34 0.65999997 )
( 0.35 0.65 ))
(( 0.8 0.19999999 )
( 0.87 0.13 )
( 0.85 0.14999998 ))
(( 0.7 0.3 )
( 0.75 0.25 )
( 0.67 0.32999998 )))));
}

potential (NoOfEmployees_2)
{
 data = ( 0.15 0.25 0.35 0.25 );
}

potential (OS_2)
{
 data = ( 0.6 0.1 0.2 0.1 );
}

potential (Industry_2)
{
 data = ( 0.33333334 0.33333334 0.33333334 );
}

potential (Country_2)
{
 data = ( 0.05 0.7 0.05 0.04 0.08 0.08 );
}

potential (CrossSiteTracing | Country_2 NoOfEmployees_2 OS_2 Industry_2)
{
 data = ((((( 0.7 0.3 )
( 0.7 0.3 )
( 0.8 0.19999999 ))
(( 0.3 0.7 )
( 0.4 0.6 )
( 0.1 0.9 ))
(( 0.7 0.3 )
( 0.885 0.11500001 )
( 0.75 0.25 ))
(( 0.6 0.39999998 )
( 0.4 0.6 )
( 0.55 0.45 )))
((( 0.75 0.25 )
( 0.8 0.19999999 )
( 0.88 0.120000005 ))
(( 0.4 0.6 )
( 0.3 0.7 )
( 0.35 0.65 ))
(( 0.8 0.19999999 )
( 0.85 0.14999998 )
( 0.85 0.14999998 ))
(( 0.6 0.39999998 )
( 0.6 0.39999998 )
( 0.56 0.44 )))
((( 0.78 0.22000003 )
( 0.85 0.14999998 )
( 0.87 0.13 ))
(( 0.1 0.9 )
( 0.25 0.75 )
( 0.35 0.65 ))
(( 0.4 0.6 )
( 0.8 0.19999999 )
( 0.8 0.19999999 ))
(( 0.6 0.39999998 )
( 0.4 0.6 )
( 0.3 0.7 )))
((( 0.8 0.19999999 )
( 0.95 0.050000012 )
( 0.9 0.100000024 ))
(( 0.15 0.85 )
( 0.25 0.75 )
( 0.25 0.75 ))
(( 0.85 0.14999998 )
( 0.87 0.13 )
( 0.85 0.14999998 ))
(( 0.5 0.5 )
( 0.34 0.65999997 )
( 0.35 0.65 ))))
(((( 0.6 0.39999998 )
( 0.5 0.5 )
( 0.7 0.3 ))
(( 0.3 0.7 )
( 0.5 0.5 )
( 0.4 0.6 ))
(( 0.88 0.120000005 )
( 0.6 0.39999998 )
( 0.75 0.25 ))
(( 0.6 0.39999998 )
( 0.6 0.39999998 )
( 0.65 0.35000002 )))
((( 0.85 0.14999998 )
( 0.85 0.14999998 )
( 0.76 0.24000001 ))
(( 0.35 0.65 )
( 0.25 0.75 )
( 0.2 0.8 ))
(( 0.6 0.39999998 )
( 0.8 0.19999999 )
( 0.75 0.25 ))
(( 0.36 0.64 )
( 0.5 0.5 )
( 0.45 0.55 )))
((( 0.8 0.19999999 )
( 0.8 0.19999999 )
( 0.75 0.25 ))
(( 0.8 0.19999999 )
( 0.78 0.22000003 )
( 0.6 0.39999998 ))
(( 0.8 0.19999999 )
( 0.8 0.19999999 )
( 0.8 0.19999999 ))
(( 0.63 0.37 )
( 0.45 0.55 )
( 0.55 0.45 )))
((( 0.78 0.22000003 )
( 0.8 0.19999999 )
( 0.9 0.100000024 ))
(( 0.7 0.3 )
( 0.3 0.7 )
( 0.5 0.5 ))
(( 0.7 0.3 )
( 0.88 0.120000005 )
( 0.76 0.24000001 ))
(( 0.47 0.53 )
( 0.5 0.5 )
( 0.44 0.56 ))))
(((( 0.6 0.39999998 )
( 0.66 0.33999997 )
( 0.7 0.3 ))
(( 0.5 0.5 )
( 0.7 0.3 )
( 0.3 0.7 ))
(( 0.88 0.120000005 )
( 0.6 0.39999998 )
( 0.7 0.3 ))
(( 0.6 0.39999998 )
( 0.3 0.7 )
( 0.55 0.45 )))
((( 0.7 0.3 )
( 0.6 0.39999998 )
( 0.55 0.45 ))
(( 0.3 0.7 )
( 0.2 0.8 )
( 0.22 0.78 ))
(( 0.8 0.19999999 )
( 0.9 0.100000024 )
( 0.88 0.120000005 ))
(( 0.5 0.5 )
( 0.3 0.7 )
( 0.5 0.5 )))
((( 0.8 0.19999999 )
( 0.6 0.39999998 )
( 0.7 0.3 ))
(( 0.6 0.39999998 )
( 0.4 0.6 )
( 0.44 0.56 ))
(( 0.8 0.19999999 )
( 0.6 0.39999998 )
( 0.7 0.3 ))
(( 0.3 0.7 )
( 0.4 0.6 )
( 0.44 0.56 )))
((( 0.9 0.100000024 )
( 0.6 0.39999998 )
( 0.7 0.3 ))
(( 0.55 0.45 )
( 0.65 0.35000002 )
( 0.35 0.65 ))
(( 0.9 0.100000024 )
( 0.7 0.3 )
( 0.88 0.120000005 ))
(( 0.6 0.39999998 )
( 0.3 0.7 )
( 0.33 0.66999996 ))))
(((( 0.6 0.39999998 )
( 0.5 0.5 )
( 0.66 0.33999997 ))
(( 0.7 0.3 )
( 0.3 0.7 )
( 0.25 0.75 ))
(( 0.4 0.6 )
( 0.78 0.22000003 )
( 0.9 0.100000024 ))
(( 0.6 0.39999998 )
( 0.5 0.5 )
( 0.66 0.33999997 )))
((( 0.7 0.3 )
( 0.8 0.19999999 )
( 0.6 0.39999998 ))
(( 0.3 0.7 )
( 0.25 0.75 )
( 0.15 0.85 ))
(( 0.6 0.39999998 )
( 0.8 0.19999999 )
( 0.68 0.32 ))
(( 0.6 0.39999998 )
( 0.66 0.33999997 )
( 0.7 0.3 )))
((( 0.7 0.3 )
( 0.77 0.23000002 )
( 0.68 0.32 ))
(( 0.15 0.85 )
( 0.25 0.75 )
( 0.21 0.79 ))
(( 1.0 0.0 )
( 0.8 0.19999999 )
( 0.7 0.3 ))
(( 0.4 0.6 )
( 0.57 0.43 )
( 0.7 0.3 )))
((( 0.6 0.39999998 )
( 0.6 0.39999998 )
( 0.7 0.3 ))
(( 0.7 0.3 )
( 0.25 0.75 )
( 0.23 0.77 ))
(( 0.6 0.39999998 )
( 0.65 0.35000002 )
( 0.8 0.19999999 ))
(( 0.2 0.8 )
( 0.25 0.75 )
( 0.4 0.6 ))))
(((( 0.58 0.42000002 )
( 0.68 0.32 )
( 0.55 0.45 ))
(( 0.25 0.75 )
( 0.35 0.65 )
( 0.22 0.78 ))
(( 0.8 0.19999999 )
( 0.7 0.3 )
( 0.77 0.23000002 ))
(( 0.4 0.6 )
( 0.5 0.5 )
( 0.44 0.56 )))
((( 0.9 0.100000024 )
( 0.8 0.19999999 )
( 0.88 0.120000005 ))
(( 0.25 0.75 )
( 0.15 0.85 )
( 0.1 0.9 ))
(( 0.88 0.120000005 )
( 0.6 0.39999998 )
( 0.78 0.22000003 ))
(( 0.4 0.6 )
( 0.47 0.53 )
( 0.58 0.42000002 )))
((( 0.8 0.19999999 )
( 0.88 0.120000005 )
( 0.87 0.13 ))
(( 0.35 0.65 )
( 0.5 0.5 )
( 0.4 0.6 ))
(( 0.9 0.100000024 )
( 0.9 0.100000024 )
( 0.8 0.19999999 ))
(( 0.45 0.55 )
( 0.7 0.3 )
( 0.6 0.39999998 )))
((( 0.6 0.39999998 )
( 0.66 0.33999997 )
( 0.8 0.19999999 ))
(( 0.3 0.7 )
( 0.35 0.65 )
( 0.4 0.6 ))
(( 0.7 0.3 )
( 0.88 0.120000005 )
( 0.9 0.100000024 ))
(( 0.3 0.7 )
( 0.7 0.3 )
( 0.5 0.5 ))))
(((( 0.6 0.39999998 )
( 0.55 0.45 )
( 0.8 0.19999999 ))
(( 0.1 0.9 )
( 0.5 0.5 )
( 0.3 0.7 ))
(( 0.3 0.7 )
( 0.87 0.13 )
( 0.7 0.3 ))
(( 0.5 0.5 )
( 0.4 0.6 )
( 0.6 0.39999998 )))
((( 0.7 0.3 )
( 0.55 0.45 )
( 0.67 0.32999998 ))
(( 0.3 0.7 )
( 0.5 0.5 )
( 0.4 0.6 ))
(( 0.88 0.120000005 )
( 0.7 0.3 )
( 0.68 0.32 ))
(( 0.8 0.19999999 )
( 0.6 0.39999998 )
( 0.6 0.39999998 )))
((( 0.8 0.19999999 )
( 0.85 0.14999998 )
( 0.7 0.3 ))
(( 0.3 0.7 )
( 0.3 0.7 )
( 0.3 0.7 ))
(( 0.8 0.19999999 )
( 0.85 0.14999998 )
( 0.67 0.32999998 ))
(( 0.8 0.19999999 )
( 0.8 0.19999999 )
( 0.68 0.32 )))
((( 0.7 0.3 )
( 0.76 0.24000001 )
( 0.6 0.39999998 ))
(( 0.2 0.8 )
( 0.25 0.75 )
( 0.25 0.75 ))
(( 0.78 0.22000003 )
( 0.68 0.32 )
( 0.87 0.13 ))
(( 0.6 0.39999998 )
( 0.6 0.39999998 )
( 0.7 0.3 )))));
}

potential (NoOfEmployees_3)
{
 data = ( 0.15 0.25 0.35 0.25 );
}

potential (OS_3)
{
 data = ( 0.6 0.1 0.2 0.1 );
}

potential (Industry_3)
{
 data = ( 0.33333334 0.33333334 0.33333334 );
}

potential (Country_3)
{
 data = ( 0.05 0.7 0.05 0.04 0.08 0.08 );
}

potential (UnauthorizedUseOfDeviceResources | Country_3 NoOfEmployees_3 OS_3 Industry_3)
{
 data = ((((( 0.75 0.25 )
( 0.8 0.19999999 )
( 0.6 0.39999998 ))
(( 0.2 0.8 )
( 0.23 0.77 )
( 0.25 0.75 ))
(( 0.9 0.100000024 )
( 0.8 0.19999999 )
( 0.68 0.32 ))
(( 0.6 0.39999998 )
( 0.6 0.39999998 )
( 0.4 0.6 )))
((( 0.5 0.5 )
( 0.7 0.3 )
( 0.55 0.45 ))
(( 0.3 0.7 )
( 0.63 0.37 )
( 0.35 0.65 ))
(( 0.8 0.19999999 )
( 0.8 0.19999999 )
( 0.77 0.23000002 ))
(( 0.6 0.39999998 )
( 0.5 0.5 )
( 0.55 0.45 )))
((( 0.8 0.19999999 )
( 0.7 0.3 )
( 0.77 0.23000002 ))
(( 0.25 0.75 )
( 0.25 0.75 )
( 0.3 0.7 ))
(( 0.7 0.3 )
( 0.75 0.25 )
( 0.72 0.27999997 ))
(( 0.63 0.37 )
( 0.54 0.45999998 )
( 0.5 0.5 )))
((( 0.7 0.3 )
( 0.66 0.33999997 )
( 0.68 0.32 ))
(( 0.2 0.8 )
( 0.15 0.85 )
( 0.15 0.85 ))
(( 0.3 0.7 )
( 0.8 0.19999999 )
( 0.68 0.32 ))
(( 0.6 0.39999998 )
( 0.64 0.36 )
( 0.35 0.65 ))))
(((( 0.6 0.39999998 )
( 0.5 0.5 )
( 0.7 0.3 ))
(( 0.2 0.8 )
( 0.35 0.65 )
( 0.35 0.65 ))
(( 0.78 0.22000003 )
( 0.8 0.19999999 )
( 0.6 0.39999998 ))
(( 0.7 0.3 )
( 0.5 0.5 )
( 0.6 0.39999998 )))
((( 0.45 0.55 )
( 0.5 0.5 )
( 0.9 0.100000024 ))
(( 0.4 0.6 )
( 0.6 0.39999998 )
( 0.5 0.5 ))
(( 0.55 0.45 )
( 0.68 0.32 )
( 0.78 0.22000003 ))
(( 0.7 0.3 )
( 0.56 0.44 )
( 0.48 0.52 )))
((( 0.25 0.75 )
( 0.8 0.19999999 )
( 0.87 0.13 ))
(( 0.5 0.5 )
( 0.6 0.39999998 )
( 0.44 0.56 ))
(( 0.48 0.52 )
( 0.9 0.100000024 )
( 0.84 0.16000003 ))
(( 0.3 0.7 )
( 0.4 0.6 )
( 0.54 0.45999998 )))
((( 0.7 0.3 )
( 0.7 0.3 )
( 0.67 0.32999998 ))
(( 0.5 0.5 )
( 0.4 0.6 )
( 0.5 0.5 ))
(( 0.2 0.8 )
( 0.4 0.6 )
( 0.77 0.23000002 ))
(( 0.64 0.36 )
( 0.49 0.51 )
( 0.48 0.52 ))))
(((( 0.67 0.32999998 )
( 0.15 0.85 )
( 0.48 0.52 ))
(( 0.67 0.32999998 )
( 0.58 0.42000002 )
( 0.14 0.86 ))
(( 0.4 0.6 )
( 0.7 0.3 )
( 0.558 0.44199997 ))
(( 0.6 0.39999998 )
( 0.14 0.86 )
( 0.5 0.5 )))
((( 0.5 0.5 )
( 0.64 0.36 )
( 0.85 0.14999998 ))
(( 0.67 0.32999998 )
( 0.25 0.75 )
( 0.49 0.51 ))
(( 0.68 0.32 )
( 0.8 0.19999999 )
( 0.64 0.36 ))
(( 0.67 0.32999998 )
( 0.6 0.39999998 )
( 0.26 0.74 )))
((( 0.35 0.65 )
( 0.95 0.050000012 )
( 0.6 0.39999998 ))
(( 0.44 0.56 )
( 0.35 0.65 )
( 0.15 0.85 ))
(( 0.48 0.52 )
( 0.85 0.14999998 )
( 0.75 0.25 ))
(( 0.76 0.24000001 )
( 0.35 0.65 )
( 0.36 0.64 )))
((( 0.54 0.45999998 )
( 0.54 0.45999998 )
( 0.67 0.32999998 ))
(( 0.64 0.36 )
( 0.48 0.52 )
( 0.67 0.32999998 ))
(( 0.58 0.42000002 )
( 0.8 0.19999999 )
( 0.78 0.22000003 ))
(( 0.54 0.45999998 )
( 0.35 0.65 )
( 0.32 0.68 ))))
(((( 0.8 0.19999999 )
( 0.56 0.44 )
( 0.47 0.53 ))
(( 0.64 0.36 )
( 0.7 0.3 )
( 0.25 0.75 ))
(( 0.6 0.39999998 )
( 0.48 0.52 )
( 0.657 0.343 ))
(( 0.57 0.43 )
( 0.67 0.32999998 )
( 0.21 0.79 )))
((( 0.34 0.65999997 )
( 0.14 0.86 )
( 0.34 0.65999997 ))
(( 0.84 0.16000003 )
( 0.5 0.5 )
( 0.15 0.85 ))
(( 0.7 0.3 )
( 0.84 0.16000003 )
( 0.547 0.453 ))
(( 0.7 0.3 )
( 0.25 0.75 )
( 0.94 0.060000002 )))
((( 0.547 0.453 )
( 0.45 0.55 )
( 0.7 0.3 ))
(( 0.3 0.7 )
( 0.25 0.75 )
( 0.15 0.85 ))
(( 0.48 0.52 )
( 0.68 0.32 )
( 0.48 0.52 ))
(( 0.84 0.16000003 )
( 0.47 0.53 )
( 0.68 0.32 )))
((( 0.62 0.38 )
( 0.83 0.17000002 )
( 0.48 0.52 ))
(( 0.2 0.8 )
( 0.15 0.85 )
( 0.4 0.6 ))
(( 0.64 0.36 )
( 0.57 0.43 )
( 0.52 0.48000002 ))
(( 0.53 0.47000003 )
( 0.8 0.19999999 )
( 0.57 0.43 ))))
(((( 0.54 0.45999998 )
( 0.67 0.32999998 )
( 0.85 0.14999998 ))
(( 0.4 0.6 )
( 0.7 0.3 )
( 0.6 0.39999998 ))
(( 0.8 0.19999999 )
( 0.8 0.19999999 )
( 0.8 0.19999999 ))
(( 0.67 0.32999998 )
( 0.18 0.82 )
( 0.47 0.53 )))
((( 0.7 0.3 )
( 0.47 0.53 )
( 0.95 0.050000012 ))
(( 0.84 0.16000003 )
( 0.5 0.5 )
( 0.4 0.6 ))
(( 0.64 0.36 )
( 0.587 0.413 )
( 0.64 0.36 ))
(( 0.4 0.6 )
( 0.64 0.36 )
( 0.25 0.75 )))
((( 0.385 0.615 )
( 0.8 0.19999999 )
( 0.78 0.22000003 ))
(( 0.6 0.39999998 )
( 0.15 0.85 )
( 0.35 0.65 ))
(( 0.48 0.52 )
( 0.84 0.16000003 )
( 0.84 0.16000003 ))
(( 0.6 0.39999998 )
( 0.47 0.53 )
( 0.25 0.75 )))
((( 0.48 0.52 )
( 0.67 0.32999998 )
( 0.5 0.5 ))
(( 0.8 0.19999999 )
( 0.8 0.19999999 )
( 0.3 0.7 ))
(( 0.9 0.100000024 )
( 0.1 0.9 )
( 0.4 0.6 ))
(( 0.6 0.39999998 )
( 0.8 0.19999999 )
( 0.4 0.6 ))))
(((( 0.6 0.39999998 )
( 0.67 0.32999998 )
( 0.56 0.44 ))
(( 0.2 0.8 )
( 0.3 0.7 )
( 0.15 0.85 ))
(( 0.85 0.14999998 )
( 0.67 0.32999998 )
( 0.47 0.53 ))
(( 0.6 0.39999998 )
( 0.14 0.86 )
( 0.45 0.55 )))
((( 0.47 0.53 )
( 0.8 0.19999999 )
( 0.7 0.3 ))
(( 0.2 0.8 )
( 0.6 0.39999998 )
( 0.35 0.65 ))
(( 0.58 0.42000002 )
( 0.84 0.16000003 )
( 0.78 0.22000003 ))
(( 0.9 0.100000024 )
( 0.47 0.53 )
( 0.65 0.35000002 )))
((( 0.47 0.53 )
( 0.58 0.42000002 )
( 0.84 0.16000003 ))
(( 0.2 0.8 )
( 0.2 0.8 )
( 0.23 0.77 ))
(( 0.7 0.3 )
( 0.15 0.85 )
( 0.65 0.35000002 ))
(( 0.6 0.39999998 )
( 0.45 0.55 )
( 0.58 0.42000002 )))
((( 0.7 0.3 )
( 0.67 0.32999998 )
( 0.48 0.52 ))
(( 0.6 0.39999998 )
( 0.2 0.8 )
( 0.35 0.65 ))
(( 0.8 0.19999999 )
( 0.8 0.19999999 )
( 0.9 0.100000024 ))
(( 0.6 0.39999998 )
( 0.66 0.33999997 )
( 0.63 0.37 )))));
}

potential (NoOfEmployees_4)
{
 data = ( 0.15 0.25 0.35 0.25 );
}

potential (OS_4)
{
 data = ( 0.6 0.1 0.2 0.1 );
}

potential (Industry_4)
{
 data = ( 0.33333334 0.33333334 0.33333334 );
}

potential (Country_4)
{
 data = ( 0.05 0.7 0.05 0.04 0.08 0.08 );
}

potential (ForcefulBrowsing | Country_4 NoOfEmployees_4 OS_4 Industry_4)
{
 data = ((((( 0.7 0.2 )
( 0.95 0.050000012 )
( 0.68 0.32 ))
(( 0.48 0.52 )
( 0.487 0.513 )
( 0.254 0.746 ))
(( 0.68 0.32 )
( 0.4 0.6 )
( 0.874 0.12599999 ))
(( 0.58 0.42000002 )
( 0.67 0.32999998 )
( 0.47 0.53 )))
((( 0.67 0.32999998 )
( 0.14 0.86 )
( 0.8 0.19999999 ))
(( 0.49 0.51 )
( 0.67 0.32999998 )
( 0.37 0.63 ))
(( 0.48 0.52 )
( 0.67 0.32999998 )
( 0.47 0.53 ))
(( 0.68 0.32 )
( 0.64 0.36 )
( 0.25 0.75 )))
((( 0.47 0.53 )
( 0.58 0.42000002 )
( 0.85 0.14999998 ))
(( 0.3 0.7 )
( 0.2 0.8 )
( 0.15 0.85 ))
(( 0.7 0.3 )
( 0.8 0.19999999 )
( 0.87 0.13 ))
(( 0.4 0.6 )
( 0.5 0.5 )
( 0.55 0.45 )))
((( 0.48 0.52 )
( 0.68 0.32 )
( 0.64 0.36 ))
(( 0.47 0.53 )
( 0.354 0.646 )
( 0.45 0.55 ))
(( 0.8 0.19999999 )
( 0.6 0.39999998 )
( 0.88 0.120000005 ))
(( 0.47 0.53 )
( 0.35 0.65 )
( 0.45 0.55 ))))
(((( 0.6 0.39999998 )
( 0.48 0.52 )
( 0.57 0.43 ))
(( 0.6 0.39999998 )
( 0.2 0.8 )
( 0.25 0.75 ))
(( 0.5 0.5 )
( 0.57 0.43 )
( 0.84 0.16000003 ))
(( 0.47 0.53 )
( 0.67 0.32999998 )
( 0.67 0.32999998 )))
((( 0.8 0.19999999 )
( 0.85 0.14999998 )
( 0.75 0.25 ))
(( 0.3 0.7 )
( 0.5 0.5 )
( 0.25 0.75 ))
(( 0.7 0.3 )
( 0.75 0.25 )
( 0.67 0.32999998 ))
(( 0.5 0.5 )
( 0.48 0.52 )
( 0.56 0.44 )))
((( 0.7 0.3 )
( 0.77 0.23000002 )
( 0.79 0.20999998 ))
(( 0.2 0.8 )
( 0.6 0.39999998 )
( 0.4 0.6 ))
(( 0.68 0.32 )
( 0.85 0.14999998 )
( 0.76 0.24000001 ))
(( 0.5 0.5 )
( 0.5 0.5 )
( 0.6 0.39999998 )))
((( 0.4 0.6 )
( 0.8 0.19999999 )
( 0.9 0.100000024 ))
(( 0.15 0.85 )
( 0.15 0.85 )
( 0.25 0.75 ))
(( 0.7 0.3 )
( 0.8 0.19999999 )
( 0.85 0.14999998 ))
(( 0.3 0.7 )
( 0.33 0.66999996 )
( 0.62 0.38 ))))
(((( 0.8 0.19999999 )
( 0.7 0.3 )
( 0.58 0.42000002 ))
(( 0.5 0.5 )
( 0.26 0.74 )
( 0.35 0.65 ))
(( 0.4 0.6 )
( 0.8 0.19999999 )
( 0.47 0.53 ))
(( 0.6 0.39999998 )
( 0.5 0.5 )
( 0.4 0.6 )))
((( 0.5 0.5 )
( 0.7 0.3 )
( 0.8 0.19999999 ))
(( 0.1 0.9 )
( 0.015 0.985 )
( 0.25 0.75 ))
(( 0.4 0.6 )
( 0.4 0.6 )
( 0.8 0.19999999 ))
(( 0.6 0.39999998 )
( 0.55 0.45 )
( 0.54 0.45999998 )))
((( 0.7 0.3 )
( 0.8 0.19999999 )
( 0.92 0.07999998 ))
(( 0.354 0.646 )
( 0.32 0.68 )
( 0.4 0.6 ))
(( 0.5 0.5 )
( 0.85 0.14999998 )
( 0.67 0.32999998 ))
(( 0.6 0.39999998 )
( 0.4 0.6 )
( 0.22 0.78 )))
((( 0.8 0.19999999 )
( 0.7 0.3 )
( 0.75 0.25 ))
(( 0.6 0.39999998 )
( 0.5 0.5 )
( 0.2 0.8 ))
(( 0.45 0.55 )
( 0.82 0.18 )
( 0.37 0.63 ))
(( 0.6 0.39999998 )
( 0.6 0.39999998 )
( 0.35 0.65 ))))
(((( 0.67 0.32999998 )
( 0.47 0.53 )
( 0.58 0.42000002 ))
(( 0.67 0.32999998 )
( 0.2 0.8 )
( 0.54 0.45999998 ))
(( 0.8 0.19999999 )
( 0.4 0.6 )
( 0.78 0.22000003 ))
(( 0.6 0.39999998 )
( 0.4 0.6 )
( 0.5 0.5 )))
((( 0.87 0.13 )
( 0.7 0.3 )
( 0.83 0.17000002 ))
(( 0.3 0.7 )
( 0.25 0.75 )
( 0.25 0.75 ))
(( 0.34 0.65999997 )
( 0.67 0.32999998 )
( 0.58 0.42000002 ))
(( 0.6 0.39999998 )
( 0.32 0.68 )
( 0.25 0.75 )))
((( 0.76 0.24000001 )
( 0.67 0.32999998 )
( 0.94 0.060000002 ))
(( 0.68 0.32 )
( 0.1 0.9 )
( 0.35 0.65 ))
(( 0.25 0.75 )
( 0.7 0.3 )
( 0.85 0.14999998 ))
(( 0.6 0.39999998 )
( 0.25 0.75 )
( 0.64 0.36 )))
((( 0.67 0.32999998 )
( 0.58 0.42000002 )
( 0.84 0.16000003 ))
(( 0.35 0.65 )
( 0.25 0.75 )
( 0.36 0.64 ))
(( 0.8 0.19999999 )
( 0.87 0.13 )
( 0.85 0.14999998 ))
(( 0.34 0.65999997 )
( 0.48 0.52 )
( 0.5 0.5 ))))
(((( 0.6 0.39999998 )
( 0.65 0.35000002 )
( 0.67 0.32999998 ))
(( 0.1 0.9 )
( 0.25 0.75 )
( 0.15 0.85 ))
(( 0.48 0.52 )
( 0.56 0.44 )
( 0.48 0.52 ))
(( 0.67 0.32999998 )
( 0.48 0.52 )
( 0.25 0.75 )))
((( 0.78 0.22000003 )
( 0.84 0.16000003 )
( 0.64 0.36 ))
(( 0.15 0.85 )
( 0.25 0.75 )
( 0.35 0.65 ))
(( 0.78 0.22000003 )
( 0.58 0.42000002 )
( 0.67 0.32999998 ))
(( 0.48 0.52 )
( 0.67 0.32999998 )
( 0.34 0.65999997 )))
((( 0.9 0.100000024 )
( 0.67 0.32999998 )
( 0.84 0.16000003 ))
(( 0.657 0.343 )
( 0.3 0.7 )
( 0.154 0.846 ))
(( 0.84 0.16000003 )
( 0.785 0.21499997 )
( 0.85 0.14999998 ))
(( 0.68 0.32 )
( 0.48 0.52 )
( 0.58 0.42000002 )))
((( 0.78 0.22000003 )
( 0.75 0.25 )
( 0.73 0.26999998 ))
(( 0.3 0.7 )
( 0.24 0.76 )
( 0.21 0.79 ))
(( 0.6 0.39999998 )
( 0.48 0.52 )
( 0.58 0.42000002 ))
(( 0.87 0.13 )
( 0.46 0.53999996 )
( 0.53 0.47000003 ))))
(((( 0.58 0.42000002 )
( 0.67 0.32999998 )
( 0.84 0.16000003 ))
(( 0.48 0.52 )
( 0.35 0.65 )
( 0.27 0.73 ))
(( 0.8 0.19999999 )
( 0.8 0.19999999 )
( 0.9 0.100000024 ))
(( 0.48 0.52 )
( 0.49 0.51 )
( 0.28 0.72 )))
((( 0.84 0.16000003 )
( 0.57 0.43 )
( 0.68 0.32 ))
(( 0.64 0.36 )
( 0.62 0.38 )
( 0.3 0.7 ))
(( 0.9 0.100000024 )
( 0.84 0.16000003 )
( 0.87 0.13 ))
(( 0.6 0.39999998 )
( 0.6 0.39999998 )
( 0.64 0.36 )))
((( 0.8 0.19999999 )
( 0.85 0.14999998 )
( 0.85 0.14999998 ))
(( 0.3 0.7 )
( 0.25 0.75 )
( 0.15 0.85 ))
(( 0.7 0.3 )
( 0.48 0.52 )
( 0.67 0.32999998 ))
(( 0.6 0.39999998 )
( 0.48 0.52 )
( 0.58 0.42000002 )))
((( 0.7 0.3 )
( 0.84 0.16000003 )
( 0.67 0.32999998 ))
(( 0.3 0.7 )
( 0.5 0.5 )
( 0.54 0.45999998 ))
(( 0.68 0.32 )
( 0.64 0.36 )
( 0.67 0.32999998 ))
(( 0.5 0.5 )
( 0.48 0.52 )
( 0.35 0.65 )))));
}

