net
{
     node_size = (0 0);
     name = "New BN";
     tree = "(C1,C2,C3,C4,C5,C7,C8,C9,C10,C11,C12,C13,C14,C15,C16,C17,C18,C19,C20,C21,C22,C23,C24,C25,C26,C31,C30,C27,C28,C29,C41,C46,C36,C35,C32,C33,C34,C40,C37,C38,C39,C45,C42,C43,C44,C50,C51,C52,C53,C54,C6)";
     UnBBayes_Color_Probabilistic_Description = "-256";
     UnBBayes_Color_Probabilistic_Explanation = "-16711936";
}

node Advanced
{
     label = "C1";
     position = (728 277);
     states = ("YES" "NO");
}

node Aggresive
{
     label = "C2";
     position = (848 284);
     states = ("YES" "NO");
}

node Automated
{
     label = "C3";
     position = (782 345);
     states = ("YES" "NO");
}

node Persistent
{
     label = "C4";
     position = (904 346);
     states = ("YES" "NO");
}

node Stealthy
{
     label = "C5";
     position = (473 389);
     states = ("YES" "NO");
}

node Targeted
{
     label = "C6";
     position = (594 269);
     states = ("YES" "NO");
}

node Duration
{
     label = "C7";
     position = (519 338);
     states = ("SHORT" "MEDIUM" "LONG");
}

node CrossSiteIdentification
{
     label = "C9";
     position = (25 298);
     states = ("Y" "N");
}

node SessionSidejacking
{
     label = "C10";
     position = (48 189);
     states = ("Y" "N");
}

node CrossSiteTracing
{
     label = "C11";
     position = (147 130);
     states = ("Y" "N");
}

node ForcefulBrowsing
{
     label = "C12";
     position = (295 85);
     states = ("Y" "N");
}

node CreateMaliciousClient
{
     label = "C13";
     position = (430 90);
     states = ("Y" "N");
}

node RemovalOfFilters
{
     label = "C14";
     position = (587 88);
     states = ("Y" "N");
}

node ManipulationHiddenFields
{
     label = "C15";
     position = (743 87);
     states = ("Y" "N");
}

node ForceUseOfCorruptedFiles
{
     label = "C16";
     position = (911 106);
     states = ("Y" "N");
}

node OriginKnown
{
     label = "C19";
     position = (657 334);
     states = ("YES" "NO");
}

node RestfulPrivilegeElevation
{
     label = "C20";
     position = (1115 126);
     states = ("Y" "N");
}

node ModifySharedFiles
{
     label = "C21";
     position = (1199 178);
     states = ("Y" "N");
}

node AddMaliciousFileToSharedWebroot
{
     label = "C22";
     position = (1237 236);
     states = ("Y" "N");
}

node CrossZoneScripting
{
     label = "C23";
     position = (1304 291);
     states = ("Y" "N");
}

node HijackingAPrivilegedProcess
{
     label = "C24";
     position = (1354 353);
     states = ("Y" "N");
}

node TargetProgramsWithElevatedPrivileges
{
     label = "C25";
     position = (1290 412);
     states = ("Y" "N");
}

node CredentialStuffing
{
     label = "C26";
     position = (1272 473);
     states = ("Y" "N");
}

node Kerberoasting
{
     label = "C27";
     position = (1224 532);
     states = ("Y" "N");
}

node UseOfCapturedHashes
{
     label = "C28";
     position = (1178 586);
     states = ("Y" "N");
}

node ForcedDeadlock
{
     label = "C29";
     position = (1128 639);
     states = ("Y" "N");
}

node EncryptionBruteForcing
{
     label = "C30";
     position = (1044 685);
     states = ("Y" "N");
}

node DictionaryBasedPasswordAttack
{
     label = "C31";
     position = (924 721);
     states = ("Y" "N");
}

node RainbowTablePasswordCracking
{
     label = "C32";
     position = (801 736);
     states = ("Y" "N");
}

node PasswordSpraying
{
     label = "C33";
     position = (667 736);
     states = ("Y" "N");
}

node FormatStringInjection
{
     label = "C34";
     position = (545 712);
     states = ("Y" "N");
}

node FlashParameterInjection
{
     label = "C35";
     position = (437 731);
     states = ("Y" "N");
}

node ReflectionInjection
{
     label = "C36";
     position = (389 685);
     states = ("Y" "N");
}

node CrossSiteFlashing
{
     label = "C37";
     position = (277 710);
     states = ("Y" "N");
}

node ArgumentInjection
{
     label = "C38";
     position = (224 660);
     states = ("Y" "N");
}

node PHPLocalFileInclusion
{
     label = "C39";
     position = (81 644);
     states = ("Y" "N");
}

node PHPRemoteFileInclusion
{
     label = "C40";
     position = (58 596);
     states = ("Y" "N");
}

node WebviewInjection
{
     label = "C41";
     position = (22 536);
     states = ("Y" "N");
}

node CellularDataInjection
{
     label = "C42";
     position = (30 492);
     states = ("Y" "N");
}

node DOMBasedXSS
{
     label = "C43";
     position = (37 445);
     states = ("Y" "N");
}

node OSCommandInjection
{
     label = "C44";
     position = (39 395);
     states = ("Y" "N");
}

node InstallNewServices
{
     label = "C45";
     position = (24 347);
     states = ("Y" "N");
}

potential (Advanced)
{
 data = ( 0.5 0.5 );
}

potential (Aggresive)
{
 data = ( 0.5 0.5 );
}

potential (Automated)
{
 data = ( 0.5 0.5 );
}

potential (Persistent)
{
 data = ( 0.5 0.5 );
}

potential (Stealthy)
{
 data = ( 0.5 0.5 );
}

potential (Targeted | Duration)
{
 data = (( 0.5 0.5 )
( 0.5 0.5 )
( 0.5 0.5 ));
}

potential (Duration)
{
 data = ( 0.33333334 0.33333334 0.33333334 );
}

potential (CrossSiteIdentification | OriginKnown Persistent Automated Aggresive Advanced Duration Targeted Stealthy)
{
 data = ((((((((( 0.48 0.52 )
( 0.35 0.65 ))
(( 0.46 0.53999996 )
( 0.25 0.75 )))
((( 0.1 0.9 )
( 0.56 0.44 ))
(( 0.648 0.352 )
( 0.48 0.52 )))
((( 1.0 0.0 )
( 0.63 0.37 ))
(( 0.523 0.477 )
( 0.6 0.39999998 ))))
(((( 0.7 0.3 )
( 0.4 0.6 ))
(( 0.4 0.6 )
( 0.8 0.19999999 )))
((( 1.0 0.0 )
( 0.74 0.26 ))
(( 0.86 0.13999999 )
( 0.4 0.6 )))
((( 0.9 0.100000024 )
( 0.6 0.39999998 ))
(( 0.4 0.6 )
( 0.4 0.6 )))))
((((( 0.54 0.45999998 )
( 0.7 0.3 ))
(( 0.6 0.39999998 )
( 0.1 0.9 )))
((( 0.24 0.76 )
( 0.374 0.626 ))
(( 0.47 0.53 )
( 0.85 0.14999998 )))
((( 0.47 0.53 )
( 0.7 0.3 ))
(( 0.64 0.36 )
( 0.47 0.53 ))))
(((( 0.338 0.662 )
( 0.48 0.52 ))
(( 0.84 0.16000003 )
( 0.61 0.39 )))
((( 0.185 0.815 )
( 0.84 0.16000003 ))
(( 0.634 0.366 )
( 0.8 0.19999999 )))
((( 0.48 0.52 )
( 0.57 0.43 ))
(( 0.58 0.42000002 )
( 0.62 0.38 ))))))
(((((( 0.88 0.120000005 )
( 0.67 0.32999998 ))
(( 0.62 0.38 )
( 0.61 0.39 )))
((( 0.858 0.14200002 )
( 1.0 0.0 ))
(( 0.5748 0.4252 )
( 0.637 0.36299998 )))
((( 0.654 0.34600002 )
( 0.27 0.73 ))
(( 0.3325 0.6675 )
( 0.4 0.6 ))))
(((( 0.58 0.42000002 )
( 0.24 0.76 ))
(( 1.0 0.0 )
( 0.33 0.66999996 )))
((( 0.48 0.52 )
( 0.48 0.52 ))
(( 0.67 0.32999998 )
( 0.58 0.42000002 )))
((( 0.67 0.32999998 )
( 0.634 0.366 ))
(( 0.687 0.31300002 )
( 0.18 0.82 )))))
((((( 0.17 0.83 )
( 0.88 0.120000005 ))
(( 0.65 0.35000002 )
( 0.518 0.482 )))
((( 0.65 0.35000002 )
( 0.48 0.52 ))
(( 0.84 0.16000003 )
( 0.4865 0.5135 )))
((( 0.84 0.16000003 )
( 0.33 0.66999996 ))
(( 0.5 0.5 )
( 0.99 0.00999999 ))))
(((( 0.67 0.32999998 )
( 0.54 0.45999998 ))
(( 0.64 0.36 )
( 0.8 0.19999999 )))
((( 0.574 0.426 )
( 0.48 0.52 ))
(( 0.4 0.6 )
( 0.661 0.339 )))
((( 0.43 0.57 )
( 0.16 0.84000003 ))
(( 0.25 0.75 )
( 0.45 0.55 )))))))
((((((( 0.48 0.52 )
( 0.55 0.45 ))
(( 0.185 0.815 )
( 0.88 0.120000005 )))
((( 0.38 0.62 )
( 0.33 0.66999996 ))
(( 0.31 0.69 )
( 0.185 0.815 )))
((( 0.52 0.48000002 )
( 0.584 0.416 ))
(( 0.81 0.19 )
( 0.4 0.6 ))))
(((( 0.47 0.53 )
( 0.25 0.75 ))
(( 0.67 0.32999998 )
( 0.46 0.53999996 )))
((( 0.385 0.615 )
( 0.34 0.65999997 ))
(( 0.22 0.78 )
( 0.6 0.39999998 )))
((( 0.858 0.14200002 )
( 0.8787 0.12129998 ))
(( 0.66 0.33999997 )
( 0.67 0.32999998 )))))
((((( 0.18 0.82 )
( 0.63 0.37 ))
(( 0.851 0.14899999 )
( 0.4 0.6 )))
((( 0.67 0.32999998 )
( 0.97 0.029999971 ))
(( 0.88 0.120000005 )
( 0.48 0.52 )))
((( 0.46 0.53999996 )
( 0.58 0.42000002 ))
(( 0.67 0.32999998 )
( 0.58 0.42000002 ))))
(((( 0.635 0.365 )
( 0.174 0.826 ))
(( 0.64 0.36 )
( 0.165 0.835 )))
((( 0.374 0.626 )
( 0.58 0.42000002 ))
(( 0.22 0.78 )
( 0.54 0.45999998 )))
((( 0.64 0.36 )
( 0.8 0.19999999 ))
(( 0.254 0.746 )
( 0.53 0.47000003 ))))))
(((((( 0.54 0.45999998 )
( 0.66 0.33999997 ))
(( 0.64 0.36 )
( 0.287 0.713 )))
((( 0.85 0.14999998 )
( 0.69 0.31 ))
(( 0.34 0.65999997 )
( 0.48 0.52 )))
((( 0.48 0.52 )
( 0.64 0.36 ))
(( 0.637 0.36299998 )
( 0.88 0.120000005 ))))
(((( 0.48 0.52 )
( 0.87 0.13 ))
(( 0.25 0.75 )
( 0.34 0.65999997 )))
((( 0.47 0.53 )
( 0.64 0.36 ))
(( 0.685 0.315 )
( 0.51 0.49 )))
((( 0.64 0.36 )
( 0.5 0.5 ))
(( 0.5 0.5 )
( 0.8 0.19999999 )))))
((((( 0.81 0.19 )
( 0.58 0.42000002 ))
(( 0.18 0.82 )
( 0.81 0.19 )))
((( 0.55 0.45 )
( 0.298 0.702 ))
(( 0.65 0.35000002 )
( 0.15 0.85 )))
((( 0.624 0.376 )
( 0.61 0.39 ))
(( 0.24 0.76 )
( 0.6 0.39999998 ))))
(((( 0.35 0.65 )
( 0.5 0.5 ))
(( 0.5 0.5 )
( 0.24 0.76 )))
((( 0.18 0.82 )
( 0.5 0.5 ))
(( 0.11 0.89 )
( 0.57 0.43 )))
((( 0.37 0.63 )
( 0.588 0.412 ))
(( 0.23 0.77 )
( 0.487 0.513 ))))))))
(((((((( 0.641 0.35900003 )
( 0.341 0.65900004 ))
(( 0.11 0.89 )
( 0.34 0.65999997 )))
((( 0.27 0.73 )
( 0.58 0.42000002 ))
(( 0.75 0.25 )
( 0.674 0.32599998 )))
((( 0.185 0.815 )
( 0.9 0.100000024 ))
(( 0.48 0.52 )
( 0.488 0.51199996 ))))
(((( 0.48 0.52 )
( 1.0 0.0 ))
(( 0.74 0.26 )
( 0.48 0.52 )))
((( 0.697 0.30299997 )
( 0.48 0.52 ))
(( 0.6 0.39999998 )
( 0.4568 0.5432 )))
((( 0.38 0.62 )
( 0.848 0.15200001 ))
(( 0.186 0.814 )
( 0.5849 0.41509998 )))))
((((( 0.1 0.9 )
( 0.22 0.78 ))
(( 0.54 0.45999998 )
( 0.91 0.089999974 )))
((( 0.8 0.19999999 )
( 0.254 0.746 ))
(( 0.588 0.412 )
( 0.54 0.45999998 )))
((( 0.66 0.33999997 )
( 0.64 0.36 ))
(( 0.48 0.52 )
( 0.57 0.43 ))))
(((( 0.69 0.31 )
( 0.34 0.65999997 ))
(( 0.48 0.52 )
( 0.58 0.42000002 )))
((( 0.5 0.5 )
( 0.4 0.6 ))
(( 0.34 0.65999997 )
( 0.34 0.65999997 )))
((( 0.4 0.6 )
( 0.9 0.100000024 ))
(( 0.18 0.82 )
( 0.48 0.52 ))))))
(((((( 0.9841 0.015900016 )
( 0.64 0.36 ))
(( 0.93 0.06999999 )
( 0.64 0.36 )))
((( 0.324 0.676 )
( 0.61 0.39 ))
(( 0.137 0.86300004 )
( 0.58 0.42000002 )))
((( 0.248 0.752 )
( 0.813 0.18699998 ))
(( 0.57 0.43 )
( 0.6 0.39999998 ))))
(((( 0.64 0.36 )
( 0.64 0.36 ))
(( 0.345 0.655 )
( 0.58 0.42000002 )))
((( 0.525 0.47500002 )
( 0.487 0.513 ))
(( 0.47 0.53 )
( 0.55 0.45 )))
((( 0.2 0.8 )
( 0.64 0.36 ))
(( 0.258 0.742 )
( 0.18 0.82 )))))
((((( 0.648 0.352 )
( 0.234 0.76600003 ))
(( 0.34 0.65999997 )
( 0.4 0.6 )))
((( 0.32 0.68 )
( 0.31 0.69 ))
(( 0.588 0.412 )
( 0.8 0.19999999 )))
((( 0.99 0.00999999 )
( 0.69 0.31 ))
(( 0.4 0.6 )
( 0.55 0.45 ))))
(((( 0.58 0.42000002 )
( 0.2 0.8 ))
(( 0.82 0.18 )
( 0.46 0.53999996 )))
((( 0.858 0.14200002 )
( 0.214 0.786 ))
(( 0.66 0.33999997 )
( 0.13 0.87 )))
((( 0.7 0.3 )
( 0.48 0.52 ))
(( 0.54 0.45999998 )
( 0.58 0.42000002 )))))))
((((((( 0.52 0.48000002 )
( 0.4 0.6 ))
(( 0.5 0.5 )
( 0.64 0.36 )))
((( 0.6 0.39999998 )
( 0.8 0.19999999 ))
(( 0.48 0.52 )
( 0.8 0.19999999 )))
((( 0.48 0.52 )
( 0.25 0.75 ))
(( 0.47 0.53 )
( 0.55 0.45 ))))
(((( 0.44 0.56 )
( 0.4 0.6 ))
(( 0.258 0.742 )
( 0.48 0.52 )))
((( 0.648 0.352 )
( 0.234 0.76600003 ))
(( 0.2 0.8 )
( 0.4 0.6 )))
((( 0.22 0.78 )
( 0.85 0.14999998 ))
(( 0.8 0.19999999 )
( 0.8 0.19999999 )))))
((((( 0.63 0.37 )
( 0.47 0.53 ))
(( 0.4 0.6 )
( 0.85 0.14999998 )))
((( 0.354 0.646 )
( 0.2 0.8 ))
(( 0.48 0.52 )
( 0.46 0.53999996 )))
((( 0.6 0.39999998 )
( 0.2 0.8 ))
(( 0.66 0.33999997 )
( 0.57 0.43 ))))
(((( 0.15 0.85 )
( 0.28 0.72 ))
(( 0.15 0.85 )
( 0.44 0.56 )))
((( 0.48 0.52 )
( 0.634 0.366 ))
(( 0.34 0.65999997 )
( 0.25 0.75 )))
((( 0.8 0.19999999 )
( 0.56 0.44 ))
(( 0.874 0.12599999 )
( 0.48 0.52 ))))))
(((((( 0.547 0.453 )
( 0.63 0.37 ))
(( 0.67 0.32999998 )
( 0.6 0.39999998 )))
((( 0.18 0.82 )
( 0.48 0.52 ))
(( 0.7 0.3 )
( 0.6574 0.3426 )))
((( 0.58 0.42000002 )
( 0.634 0.366 ))
(( 0.89 0.110000014 )
( 0.8 0.19999999 ))))
(((( 0.37 0.63 )
( 0.91 0.089999974 ))
(( 0.48 0.52 )
( 0.44 0.56 )))
((( 0.48 0.52 )
( 0.57 0.43 ))
(( 0.47 0.53 )
( 0.85 0.14999998 )))
((( 0.34 0.65999997 )
( 0.52 0.48000002 ))
(( 0.84 0.16000003 )
( 0.57 0.43 )))))
((((( 0.528 0.472 )
( 0.67 0.32999998 ))
(( 0.64 0.36 )
( 0.354 0.646 )))
((( 0.654 0.34600002 )
( 0.48 0.52 ))
(( 1.0 0.0 )
( 1.0 0.0 )))
((( 0.58 0.42000002 )
( 0.18 0.82 ))
(( 0.94 0.060000002 )
( 0.84 0.16000003 ))))
(((( 1.0 0.0 )
( 0.47 0.53 ))
(( 0.48 0.52 )
( 0.4 0.6 )))
((( 0.387 0.61300004 )
( 0.587 0.413 ))
(( 0.37 0.63 )
( 0.38 0.62 )))
((( 0.48 0.52 )
( 0.46 0.53999996 ))
(( 0.54 0.45999998 )
( 0.5 0.5 )))))))));
}

potential (SessionSidejacking | OriginKnown Persistent Duration Automated Aggresive Targeted Advanced Stealthy)
{
 data = ((((((((( 0.4 0.6 )
( 0.4 0.6 ))
(( 0.8 0.19999999 )
( 1.0 0.0 )))
((( 0.74 0.26 )
( 0.86 0.13999999 ))
(( 0.4 0.6 )
( 0.9 0.100000024 ))))
(((( 0.6 0.39999998 )
( 0.4 0.6 ))
(( 0.4 0.6 )
( 0.54 0.45999998 )))
((( 0.7 0.3 )
( 0.6 0.39999998 ))
(( 0.1 0.9 )
( 0.24 0.76 )))))
((((( 0.374 0.626 )
( 0.47 0.53 ))
(( 0.85 0.14999998 )
( 0.47 0.53 )))
((( 0.7 0.3 )
( 0.64 0.36 ))
(( 0.47 0.53 )
( 0.338 0.662 ))))
(((( 0.54 0.45999998 )
( 0.486 0.514 ))
(( 0.95 0.050000012 )
( 0.48 0.52 )))
((( 0.78 0.22000003 )
( 0.468 0.532 ))
(( 0.574 0.426 )
( 0.654 0.34600002 ))))))
(((((( 0.48 0.52 )
( 0.4 0.6 ))
(( 0.42 0.58000004 )
( 0.674 0.32599998 )))
((( 0.84 0.16000003 )
( 0.61 0.39 ))
(( 0.81 0.19 )
( 0.61 0.39 ))))
(((( 0.81 0.19 )
( 0.84 0.16000003 ))
(( 0.64 0.36 )
( 0.67 0.32999998 )))
((( 0.62 0.38 )
( 0.57 0.43 ))
(( 0.67 0.32999998 )
( 0.62 0.38 )))))
((((( 0.6374 0.36260003 )
( 0.67 0.32999998 ))
(( 0.62 0.38 )
( 0.74 0.26 )))
((( 0.48 0.52 )
( 1.0 0.0 ))
(( 0.17 0.83 )
( 0.637 0.36299998 ))))
(((( 0.345 0.655 )
( 0.27 0.73 ))
(( 0.984 0.015999973 )
( 0.57 0.43 )))
((( 0.67 0.32999998 )
( 0.24 0.76 ))
(( 0.67 0.32999998 )
( 0.33 0.66999996 ))))))
(((((( 0.48 0.52 )
( 0.34 0.65999997 ))
(( 0.67 0.32999998 )
( 0.321 0.679 )))
((( 0.67 0.32999998 )
( 0.71 0.29000002 ))
(( 0.687 0.31300002 )
( 0.58 0.42000002 ))))
(((( 0.17 0.83 )
( 0.81 0.19 ))
(( 0.65 0.35000002 )
( 0.874 0.12599999 )))
((( 0.65 0.35000002 )
( 0.47 0.53 ))
(( 0.647 0.353 )
( 0.4865 0.5135 )))))
((((( 0.57 0.43 )
( 0.987 0.013000011 ))
(( 0.5 0.5 )
( 0.99 0.00999999 )))
((( 0.67 0.32999998 )
( 0.54 0.45999998 ))
(( 0.63 0.37 )
( 0.6574 0.3426 ))))
(((( 0.574 0.426 )
( 0.57 0.43 ))
(( 0.52 0.48000002 )
( 0.661 0.339 )))
((( 0.34 0.65999997 )
( 0.52 0.48000002 ))
(( 0.66 0.33999997 )
( 0.45 0.55 )))))))
((((((( 0.48 0.52 )
( 0.55 0.45 ))
(( 0.58 0.42000002 )
( 0.88 0.120000005 )))
((( 0.52 0.48000002 )
( 0.33 0.66999996 ))
(( 0.31 0.69 )
( 0.52 0.48000002 ))))
(((( 0.52 0.48000002 )
( 0.34 0.65999997 ))
(( 0.81 0.19 )
( 0.83 0.17000002 )))
((( 0.47 0.53 )
( 0.25 0.75 ))
(( 0.67 0.32999998 )
( 0.147 0.853 )))))
((((( 0.385 0.615 )
( 0.385 0.615 ))
(( 0.22 0.78 )
( 0.48 0.52 )))
((( 0.99 0.00999999 )
( 0.91 0.089999974 ))
(( 0.66 0.33999997 )
( 0.67 0.32999998 ))))
(((( 0.15 0.85 )
( 0.68 0.32 ))
(( 0.851 0.14899999 )
( 0.52 0.48000002 )))
((( 0.67 0.32999998 )
( 0.324 0.676 ))
(( 0.356 0.644 )
( 0.48 0.52 ))))))
(((((( 0.324 0.676 )
( 0.58 0.42000002 ))
(( 0.91 0.089999974 )
( 0.33 0.66999996 )))
((( 0.635 0.365 )
( 0.174 0.826 ))
(( 0.24 0.76 )
( 0.165 0.835 ))))
(((( 0.485 0.515 )
( 0.54 0.45999998 ))
(( 0.5364 0.46359998 )
( 0.67 0.32999998 )))
((( 0.148 0.852 )
( 0.486 0.514 ))
(( 0.67 0.32999998 )
( 0.47 0.53 )))))
((((( 1.0 0.0 )
( 0.1749 0.8251 ))
(( 0.57 0.43 )
( 0.18 0.82 )))
((( 0.34 0.65999997 )
( 0.81 0.19 ))
(( 0.0874 0.9126 )
( 0.47 0.53 ))))
(((( 0.697 0.30299997 )
( 0.18 0.82 ))
(( 0.637 0.36299998 )
( 0.88 0.120000005 )))
((( 0.18 0.82 )
( 0.87 0.13 ))
(( 0.156 0.844 )
( 0.34 0.65999997 ))))))
(((((( 0.47 0.53 )
( 0.46 0.53999996 ))
(( 0.685 0.315 )
( 0.51 0.49 )))
((( 0.55 0.45 )
( 0.5 0.5 ))
(( 0.5 0.5 )
( 0.64 0.36 ))))
(((( 0.81 0.19 )
( 0.58 0.42000002 ))
(( 0.3 0.7 )
( 0.31 0.69 )))
((( 0.23 0.77 )
( 0.298 0.702 ))
(( 0.48 0.52 )
( 0.487 0.513 )))))
((((( 0.624 0.376 )
( 0.8 0.19999999 ))
(( 0.24 0.76 )
( 0.4 0.6 )))
((( 0.65 0.35000002 )
( 0.5 0.5 ))
(( 1.0 0.0 )
( 0.24 0.76 ))))
(((( 0.18 0.82 )
( 0.19 0.81 ))
(( 0.11 0.89 )
( 0.57 0.43 )))
((( 0.37 0.63 )
( 0.85 0.14999998 ))
(( 0.984 0.015999973 )
( 0.487 0.513 ))))))))
(((((((( 0.84 0.16000003 )
( 0.83 0.17000002 ))
(( 0.11 0.89 )
( 0.6574 0.3426 )))
((( 0.27 0.73 )
( 0.244 0.756 ))
(( 0.75 0.25 )
( 0.674 0.32599998 ))))
(((( 0.84 0.16000003 )
( 0.657 0.343 ))
(( 0.48 0.52 )
( 0.57 0.43 )))
((( 0.664 0.33600003 )
( 0.57 0.43 ))
(( 0.3 0.7 )
( 0.87 0.13 )))))
((((( 0.4 0.6 )
( 0.8 0.19999999 ))
(( 0.9 0.100000024 )
( 0.77 0.23000002 )))
((( 0.65 0.35000002 )
( 0.54 0.45999998 ))
(( 0.578 0.422 )
( 0.43 0.57 ))))
(((( 0.58 0.42000002 )
( 0.22 0.78 ))
(( 0.54 0.45999998 )
( 0.24 0.76 )))
((( 0.29 0.71000004 )
( 0.254 0.746 ))
(( 0.53 0.47000003 )
( 0.54 0.45999998 ))))))
(((((( 0.66 0.33999997 )
( 0.47 0.53 ))
(( 0.287 0.713 )
( 0.57 0.43 )))
((( 0.57 0.43 )
( 0.34 0.65999997 ))
(( 0.48 0.52 )
( 0.48 0.52 ))))
(((( 0.5 0.5 )
( 0.4 0.6 ))
(( 0.4 0.6 )
( 0.34 0.65999997 )))
((( 0.4 0.6 )
( 0.9 0.100000024 ))
(( 0.47 0.53 )
( 0.48 0.52 )))))
((((( 0.9841 0.015900016 )
( 0.34 0.65999997 ))
(( 0.93 0.06999999 )
( 0.47 0.53 )))
((( 0.324 0.676 )
( 0.48 0.52 ))
(( 0.137 0.86300004 )
( 0.48 0.52 ))))
(((( 0.248 0.752 )
( 0.813 0.18699998 ))
(( 0.57 0.43 )
( 0.6 0.39999998 )))
((( 0.66 0.33999997 )
( 0.64 0.36 ))
(( 0.345 0.655 )
( 0.58 0.42000002 ))))))
(((((( 0.84 0.16000003 )
( 0.487 0.513 ))
(( 0.47 0.53 )
( 0.55 0.45 )))
((( 0.44 0.56 )
( 0.64 0.36 ))
(( 0.258 0.742 )
( 0.48 0.52 ))))
(((( 0.483 0.51699996 )
( 0.234 0.76600003 ))
(( 0.36 0.64 )
( 0.33 0.66999996 )))
((( 0.32 0.68 )
( 0.31 0.69 ))
(( 0.4 0.6 )
( 0.8 0.19999999 )))))
((((( 0.99 0.00999999 )
( 0.47 0.53 ))
(( 0.84 0.16000003 )
( 0.55 0.45 )))
((( 0.354 0.646 )
( 0.48 0.52 ))
(( 0.82 0.18 )
( 0.46 0.53999996 ))))
(((( 0.52 0.48000002 )
( 0.214 0.786 ))
(( 0.66 0.33999997 )
( 0.57 0.43 )))
((( 0.63 0.37 )
( 0.48 0.52 ))
(( 0.54 0.45999998 )
( 0.63 0.37 )))))))
((((((( 0.52 0.48000002 )
( 0.55 0.45 ))
(( 0.5 0.5 )
( 0.69 0.31 )))
((( 0.374 0.626 )
( 0.8 0.19999999 ))
(( 0.5 0.5 )
( 0.3 0.7 ))))
(((( 0.48 0.52 )
( 0.287 0.713 ))
(( 0.574 0.426 )
( 0.854 0.14600003 )))
((( 0.574 0.426 )
( 0.671 0.329 ))
(( 0.48 0.52 )
( 0.247 0.753 )))))
((((( 0.57 0.43 )
( 0.457 0.543 ))
(( 0.84 0.16000003 )
( 0.713 0.287 )))
((( 0.67 0.32999998 )
( 0.18 0.82 ))
(( 0.287 0.713 )
( 0.46 0.53999996 ))))
(((( 0.528 0.472 )
( 0.24 0.76 ))
(( 0.94 0.060000002 )
( 0.48 0.52 )))
((( 0.565 0.435 )
( 0.375 0.625 ))
(( 0.87 0.13 )
( 0.48 0.52 ))))))
(((((( 0.28 0.72 )
( 0.37 0.63 ))
(( 0.48 0.52 )
( 0.66 0.33999997 )))
((( 0.38 0.62 )
( 0.28 0.72 ))
(( 0.71 0.29000002 )
( 0.44 0.56 ))))
(((( 0.48 0.52 )
( 0.67 0.32999998 ))
(( 0.34 0.65999997 )
( 0.24 0.76 )))
((( 0.1 0.9 )
( 0.8 0.19999999 ))
(( 0.874 0.12599999 )
( 0.4 0.6 )))))
((((( 1.0 0.0 )
( 0.63 0.37 ))
(( 0.3 0.7 )
( 0.6 0.39999998 )))
((( 0.84 0.16000003 )
( 0.48 0.52 ))
(( 0.7 0.3 )
( 0.52 0.48000002 ))))
(((( 0.58 0.42000002 )
( 0.634 0.366 ))
(( 0.24 0.76 )
( 0.14 0.86 )))
((( 0.37 0.63 )
( 0.8 0.19999999 ))
(( 0.58 0.42000002 )
( 0.44 0.56 ))))))
(((((( 0.85 0.14999998 )
( 0.354 0.646 ))
(( 0.47 0.53 )
( 0.58 0.42000002 )))
((( 0.67 0.32999998 )
( 0.52 0.48000002 ))
(( 0.48 0.52 )
( 0.57 0.43 ))))
(((( 0.77 0.23000002 )
( 0.67 0.32999998 ))
(( 0.64 0.36 )
( 0.57 0.43 )))
((( 0.3 0.7 )
( 0.7 0.3 ))
(( 1.0 0.0 )
( 0.571 0.42900002 )))))
((((( 0.698 0.302 )
( 0.18 0.82 ))
(( 0.94 0.060000002 )
( 0.48 0.52 )))
((( 1.0 0.0 )
( 0.47 0.53 ))
(( 0.44 0.56 )
( 0.3 0.7 ))))
(((( 0.15 0.85 )
( 0.48 0.52 ))
(( 0.67 0.32999998 )
( 0.38 0.62 )))
((( 0.2 0.8 )
( 0.8 0.19999999 ))
(( 0.54 0.45999998 )
( 0.5 0.5 )))))))));
}

potential (CrossSiteTracing | OriginKnown Persistent Automated Duration Aggresive Targeted Advanced Stealthy)
{
 data = ((((((((( 0.85 0.14999998 )
( 0.4 0.6 ))
(( 0.874 0.12599999 )
( 0.8578 0.1422 )))
((( 0.74 0.26 )
( 0.86 0.13999999 ))
(( 0.4 0.6 )
( 0.874 0.12599999 ))))
(((( 0.84 0.16000003 )
( 0.843 0.157 ))
(( 0.4 0.6 )
( 0.54 0.45999998 )))
((( 0.7 0.3 )
( 0.6 0.39999998 ))
(( 0.1 0.9 )
( 0.4187 0.5813 )))))
((((( 0.67 0.32999998 )
( 0.47 0.53 ))
(( 0.85 0.14999998 )
( 0.657 0.343 )))
((( 0.27 0.73 )
( 0.64 0.36 ))
(( 0.47 0.53 )
( 0.57 0.43 ))))
(((( 0.54 0.45999998 )
( 0.486 0.514 ))
(( 0.57 0.43 )
( 0.548 0.45200002 )))
((( 0.78 0.22000003 )
( 0.468 0.532 ))
(( 0.574 0.426 )
( 0.48 0.52 )))))
((((( 0.48 0.52 )
( 0.658 0.342 ))
(( 0.5 0.5 )
( 0.674 0.32599998 )))
((( 0.84 0.16000003 )
( 0.61 0.39 ))
(( 0.48 0.52 )
( 0.61 0.39 ))))
(((( 0.81 0.19 )
( 0.64 0.36 ))
(( 87.0 -86.0 )
( 0.88 0.120000005 )))
((( 0.62 0.38 )
( 0.57 0.43 ))
(( 0.67 0.32999998 )
( 0.62 0.38 ))))))
(((((( 0.18 0.82 )
( 0.67 0.32999998 ))
(( 0.5 0.5 )
( 0.57 0.43 )))
((( 0.48 0.52 )
( 1.0 0.0 ))
(( 0.17 0.83 )
( 0.637 0.36299998 ))))
(((( 0.345 0.655 )
( 0.27 0.73 ))
(( 0.57 0.43 )
( 0.37 0.63 )))
((( 0.67 0.32999998 )
( 0.24 0.76 ))
(( 0.67 0.32999998 )
( 0.33 0.66999996 )))))
((((( 0.57 0.43 )
( 0.522 0.478 ))
(( 0.374 0.626 )
( 0.57 0.43 )))
((( 0.9 0.100000024 )
( 0.71 0.29000002 ))
(( 0.687 0.31300002 )
( 0.58 0.42000002 ))))
(((( 0.17 0.83 )
( 0.81 0.19 ))
(( 0.65 0.35000002 )
( 0.874 0.12599999 )))
((( 0.65 0.35000002 )
( 0.47 0.53 ))
(( 0.647 0.353 )
( 0.57 0.43 )))))
((((( 0.37 0.63 )
( 0.94 0.060000002 ))
(( 0.27 0.73 )
( 0.64 0.36 )))
((( 0.67 0.32999998 )
( 0.54 0.45999998 ))
(( 0.63 0.37 )
( 0.6574 0.3426 ))))
(((( 0.574 0.426 )
( 0.57 0.43 ))
(( 0.52 0.48000002 )
( 0.357 0.643 )))
((( 0.27 0.73 )
( 0.52 0.48000002 ))
(( 0.66 0.33999997 )
( 0.45 0.55 )))))))
((((((( 0.48 0.52 )
( 0.5744 0.4256 ))
(( 0.58 0.42000002 )
( 0.58 0.42000002 )))
((( 0.52 0.48000002 )
( 0.33 0.66999996 ))
(( 0.31 0.69 )
( 0.52 0.48000002 ))))
(((( 0.52 0.48000002 )
( 0.2854 0.71459997 ))
(( 0.81 0.19 )
( 0.83 0.17000002 )))
((( 0.47 0.53 )
( 0.57 0.43 ))
(( 0.57 0.43 )
( 0.147 0.853 )))))
((((( 0.385 0.615 )
( 0.385 0.615 ))
(( 0.22 0.78 )
( 0.48 0.52 )))
((( 0.34 0.65999997 )
( 0.27 0.73 ))
(( 0.66 0.33999997 )
( 0.5 0.5 ))))
(((( 0.15 0.85 )
( 0.68 0.32 ))
(( 0.851 0.14899999 )
( 0.52 0.48000002 )))
((( 0.67 0.32999998 )
( 0.324 0.676 ))
(( 0.356 0.644 )
( 0.48 0.52 )))))
((((( 0.58 0.42000002 )
( 0.58 0.42000002 ))
(( 0.67 0.32999998 )
( 0.24 0.76 )))
((( 0.635 0.365 )
( 0.174 0.826 ))
(( 0.24 0.76 )
( 0.165 0.835 ))))
(((( 0.34 0.65999997 )
( 0.54 0.45999998 ))
(( 0.15 0.85 )
( 0.274 0.726 )))
((( 0.274 0.726 )
( 0.486 0.514 ))
(( 0.67 0.32999998 )
( 0.47 0.53 ))))))
(((((( 1.0 0.0 )
( 0.1749 0.8251 ))
(( 0.57 0.43 )
( 0.18 0.82 )))
((( 0.81 0.19 )
( 0.81 0.19 ))
(( 0.47 0.53 )
( 0.47 0.53 ))))
(((( 0.57 0.43 )
( 0.18 0.82 ))
(( 0.637 0.36299998 )
( 0.88 0.120000005 )))
((( 0.18 0.82 )
( 0.87 0.13 ))
(( 0.156 0.844 )
( 0.214 0.786 )))))
((((( 0.47 0.53 )
( 0.27 0.73 ))
(( 0.685 0.315 )
( 0.51 0.49 )))
((( 0.55 0.45 )
( 0.5 0.5 ))
(( 0.5 0.5 )
( 0.64 0.36 ))))
(((( 0.27 0.73 )
( 0.58 0.42000002 ))
(( 0.28 0.72 )
( 0.31 0.69 )))
((( 0.23 0.77 )
( 0.298 0.702 ))
(( 0.48 0.52 )
( 0.394 0.606 )))))
((((( 0.624 0.376 )
( 0.8 0.19999999 ))
(( 0.47 0.53 )
( 0.4 0.6 )))
((( 0.587 0.413 )
( 0.5 0.5 ))
(( 1.0 0.0 )
( 0.24 0.76 ))))
(((( 0.18 0.82 )
( 0.19 0.81 ))
(( 0.11 0.89 )
( 0.67 0.32999998 )))
((( 0.37 0.63 )
( 0.27 0.73 ))
(( 0.984 0.015999973 )
( 0.487 0.513 ))))))))
(((((((( 0.84 0.16000003 )
( 0.83 0.17000002 ))
(( 0.11 0.89 )
( 0.24 0.76 )))
((( 0.27 0.73 )
( 0.244 0.756 ))
(( 0.2487 0.7513 )
( 0.674 0.32599998 ))))
(((( 0.84 0.16000003 )
( 0.657 0.343 ))
(( 0.48 0.52 )
( 0.238 0.76199996 )))
((( 0.664 0.33600003 )
( 0.478 0.522 ))
(( 0.3 0.7 )
( 0.87 0.13 )))))
((((( 0.4 0.6 )
( 0.8 0.19999999 ))
(( 0.9 0.100000024 )
( 0.77 0.23000002 )))
((( 0.65 0.35000002 )
( 0.54 0.45999998 ))
(( 0.578 0.422 )
( 0.43 0.57 ))))
(((( 0.348 0.652 )
( 0.22 0.78 ))
(( 0.527 0.473 )
( 0.24 0.76 )))
((( 0.28 0.72 )
( 0.4 0.6 ))
(( 0.53 0.47000003 )
( 0.548 0.45200002 )))))
((((( 0.66 0.33999997 )
( 0.47 0.53 ))
(( 0.287 0.713 )
( 0.57 0.43 )))
((( 0.64 0.36 )
( 0.34 0.65999997 ))
(( 0.528 0.472 )
( 0.48 0.52 ))))
(((( 0.5 0.5 )
( 0.4 0.6 ))
(( 0.4 0.6 )
( 0.34 0.65999997 )))
((( 0.548 0.45200002 )
( 0.9 0.100000024 ))
(( 0.47 0.53 )
( 0.48 0.52 ))))))
(((((( 0.9841 0.015900016 )
( 0.6348 0.36519998 ))
(( 0.93 0.06999999 )
( 0.47 0.53 )))
((( 0.324 0.676 )
( 0.48 0.52 ))
(( 0.247 0.753 )
( 0.48 0.52 ))))
(((( 0.5484 0.45160002 )
( 0.813 0.18699998 ))
(( 0.57 0.43 )
( 0.6 0.39999998 )))
((( 0.66 0.33999997 )
( 0.64 0.36 ))
(( 0.18 0.82 )
( 0.58 0.42000002 )))))
((((( 0.48 0.52 )
( 0.487 0.513 ))
(( 0.647 0.353 )
( 0.55 0.45 )))
((( 0.44 0.56 )
( 0.64 0.36 ))
(( 0.258 0.742 )
( 0.48 0.52 ))))
(((( 0.564 0.436 )
( 0.234 0.76600003 ))
(( 0.36 0.64 )
( 0.58 0.42000002 )))
((( 0.32 0.68 )
( 0.31 0.69 ))
(( 0.58 0.42000002 )
( 0.8 0.19999999 )))))
((((( 0.99 0.00999999 )
( 0.47 0.53 ))
(( 0.84 0.16000003 )
( 0.55 0.45 )))
((( 0.354 0.646 )
( 0.48 0.52 ))
(( 0.1843 0.8157 )
( 0.46 0.53999996 ))))
(((( 0.48 0.52 )
( 0.214 0.786 ))
(( 0.28 0.72 )
( 0.57 0.43 )))
((( 0.63 0.37 )
( 0.48 0.52 ))
(( 0.54 0.45999998 )
( 0.63 0.37 )))))))
((((((( 0.52 0.48000002 )
( 0.648 0.352 ))
(( 0.5 0.5 )
( 0.48 0.52 )))
((( 0.374 0.626 )
( 0.588 0.412 ))
(( 0.5 0.5 )
( 0.3 0.7 ))))
(((( 0.48 0.52 )
( 0.287 0.713 ))
(( 0.574 0.426 )
( 0.854 0.14600003 )))
((( 0.574 0.426 )
( 0.671 0.329 ))
(( 0.48 0.52 )
( 0.247 0.753 )))))
((((( 0.57 0.43 )
( 0.6348 0.36519998 ))
(( 0.84 0.16000003 )
( 0.713 0.287 )))
((( 0.48 0.52 )
( 0.18 0.82 ))
(( 0.287 0.713 )
( 0.548 0.45200002 ))))
(((( 0.528 0.472 )
( 0.24 0.76 ))
(( 0.48 0.52 )
( 0.48 0.52 )))
((( 0.565 0.435 )
( 0.375 0.625 ))
(( 0.648 0.352 )
( 0.48 0.52 )))))
((((( 0.28 0.72 )
( 0.548 0.45200002 ))
(( 0.48 0.52 )
( 0.66 0.33999997 )))
((( 0.38 0.62 )
( 0.48 0.52 ))
(( 0.15 0.85 )
( 0.44 0.56 ))))
(((( 0.87 0.13 )
( 0.67 0.32999998 ))
(( 0.34 0.65999997 )
( 0.24 0.76 )))
((( 0.1 0.9 )
( 0.8 0.19999999 ))
(( 0.64 0.36 )
( 0.4 0.6 ))))))
(((((( 0.18 0.82 )
( 0.48 0.52 ))
(( 0.3 0.7 )
( 0.54 0.45999998 )))
((( 0.8 0.19999999 )
( 0.48 0.52 ))
(( 0.7 0.3 )
( 0.52 0.48000002 ))))
(((( 0.58 0.42000002 )
( 0.634 0.366 ))
(( 0.24 0.76 )
( 0.14 0.86 )))
((( 0.54 0.45999998 )
( 0.87 0.13 ))
(( 0.58 0.42000002 )
( 0.418 0.582 )))))
((((( 0.85 0.14999998 )
( 0.354 0.646 ))
(( 0.47 0.53 )
( 0.58 0.42000002 )))
((( 0.64 0.36 )
( 0.52 0.48000002 ))
(( 0.48 0.52 )
( 0.18 0.82 ))))
(((( 0.77 0.23000002 )
( 0.67 0.32999998 ))
(( 0.048 0.952 )
( 0.57 0.43 )))
((( 0.3 0.7 )
( 0.874 0.12599999 ))
(( 1.0 0.0 )
( 0.571 0.42900002 )))))
((((( 0.485 0.515 )
( 0.18 0.82 ))
(( 0.94 0.060000002 )
( 0.84 0.16000003 )))
((( 1.0 0.0 )
( 0.54 0.45999998 ))
(( 0.44 0.56 )
( 0.84 0.16000003 ))))
(((( 0.15 0.85 )
( 0.4 0.6 ))
(( 0.67 0.32999998 )
( 0.98 0.01999998 )))
((( 0.2 0.8 )
( 0.4 0.6 ))
(( 0.54 0.45999998 )
( 0.841 0.15899998 )))))))));
}

potential (ForcefulBrowsing | OriginKnown Persistent Duration Automated Aggresive Targeted Advanced Stealthy)
{
 data = ((((((((( 0.45984 0.54016 )
( 0.488 0.51199996 ))
(( 0.48 0.52 )
( 1.0 0.0 )))
((( 0.74 0.26 )
( 0.48 0.52 ))
(( 0.697 0.30299997 )
( 0.48 0.52 ))))
(((( 0.6 0.39999998 )
( 0.4568 0.5432 ))
(( 0.38 0.62 )
( 0.848 0.15200001 )))
((( 0.186 0.814 )
( 0.58486 0.41513997 ))
(( 0.1 0.9 )
( 0.24 0.76 )))))
((((( 0.374 0.626 )
( 0.47 0.53 ))
(( 0.546 0.454 )
( 0.468 0.532 )))
((( 0.14 0.86 )
( 0.64 0.36 ))
(( 0.47 0.53 )
( 0.338 0.662 ))))
(((( 0.54 0.45999998 )
( 0.486 0.514 ))
(( 0.95 0.050000012 )
( 0.348 0.652 )))
((( 0.78 0.22000003 )
( 0.468 0.532 ))
(( 0.574 0.426 )
( 0.48 0.52 ))))))
(((((( 0.88 0.120000005 )
( 0.7 0.3 ))
(( 0.42 0.58000004 )
( 0.48 0.52 )))
((( 0.06 0.94 )
( 0.57 0.43 ))
(( 0.81 0.19 )
( 0.61 0.39 ))))
(((( 0.81 0.19 )
( 0.84 0.16000003 ))
(( 0.58 0.42000002 )
( 0.48 0.52 )))
((( 0.34 0.65999997 )
( 0.57 0.43 ))
(( 0.67 0.32999998 )
( 0.62 0.38 )))))
((((( 0.6374 0.36260003 )
( 0.18 0.82 ))
(( 0.28 0.72 )
( 0.748 0.25199997 )))
((( 0.48 0.52 )
( 1.0 0.0 ))
(( 0.17 0.83 )
( 0.64 0.36 ))))
(((( 0.884 0.116 )
( 0.27 0.73 ))
(( 0.18 0.82 )
( 0.64 0.36 )))
((( 0.67 0.32999998 )
( 0.24 0.76 ))
(( 0.67 0.32999998 )
( 0.33 0.66999996 ))))))
(((((( 0.48 0.52 )
( 0.34 0.65999997 ))
(( 0.48 0.52 )
( 0.37 0.63 )))
((( 0.8 0.19999999 )
( 0.84 0.16000003 ))
(( 0.687 0.31300002 )
( 0.657 0.343 ))))
(((( 0.44 0.56 )
( 0.81 0.19 ))
(( 0.65 0.35000002 )
( 0.874 0.12599999 )))
((( 0.65 0.35000002 )
( 0.34 0.65999997 ))
(( 0.18 0.82 )
( 0.58 0.42000002 )))))
((((( 0.57 0.43 )
( 0.8 0.19999999 ))
(( 0.5 0.5 )
( 0.99 0.00999999 )))
((( 0.67 0.32999998 )
( 0.54 0.45999998 ))
(( 0.478 0.522 )
( 0.58 0.42000002 ))))
(((( 0.34 0.65999997 )
( 0.48 0.52 ))
(( 0.52 0.48000002 )
( 0.661 0.339 )))
((( 0.34 0.65999997 )
( 0.52 0.48000002 ))
(( 0.66 0.33999997 )
( 0.85 0.14999998 )))))))
((((((( 0.64 0.36 )
( 0.84 0.16000003 ))
(( 0.15 0.85 )
( 0.88 0.120000005 )))
((( 0.52 0.48000002 )
( 0.33 0.66999996 ))
(( 0.31 0.69 )
( 0.48 0.52 ))))
(((( 0.345 0.655 )
( 0.84 0.16000003 ))
(( 0.67 0.32999998 )
( 0.83 0.17000002 )))
((( 0.47 0.53 )
( 0.25 0.75 ))
(( 0.67 0.32999998 )
( 0.147 0.853 )))))
((((( 0.385 0.615 )
( 0.481 0.519 ))
(( 0.22 0.78 )
( 0.48 0.52 )))
((( 0.99 0.00999999 )
( 0.91 0.089999974 ))
(( 0.48 0.52 )
( 0.67 0.32999998 ))))
(((( 0.15 0.85 )
( 0.28 0.72 ))
(( 0.54 0.45999998 )
( 0.52 0.48000002 )))
((( 0.67 0.32999998 )
( 0.324 0.676 ))
(( 0.356 0.644 )
( 0.48 0.52 ))))))
(((((( 0.324 0.676 )
( 0.58 0.42000002 ))
(( 0.48 0.52 )
( 0.33 0.66999996 )))
((( 0.67 0.32999998 )
( 0.174 0.826 ))
(( 0.58 0.42000002 )
( 0.165 0.835 ))))
(((( 0.485 0.515 )
( 0.54 0.45999998 ))
(( 0.5364 0.46359998 )
( 0.67 0.32999998 )))
((( 0.148 0.852 )
( 0.486 0.514 ))
(( 0.648 0.352 )
( 0.47 0.53 )))))
((((( 0.478 0.522 )
( 0.1749 0.8251 ))
(( 0.57 0.43 )
( 0.18 0.82 )))
((( 0.34 0.65999997 )
( 0.34 0.65999997 ))
(( 0.18 0.82 )
( 0.47 0.53 ))))
(((( 0.697 0.30299997 )
( 0.18 0.82 ))
(( 0.637 0.36299998 )
( 0.47 0.53 )))
((( 0.18 0.82 )
( 0.87 0.13 ))
(( 0.164 0.83599997 )
( 0.34 0.65999997 ))))))
(((((( 0.47 0.53 )
( 0.54 0.45999998 ))
(( 0.685 0.315 )
( 0.51 0.49 )))
((( 0.82 0.18 )
( 0.5 0.5 ))
(( 0.5 0.5 )
( 0.64 0.36 ))))
(((( 0.81 0.19 )
( 0.58 0.42000002 ))
(( 0.3 0.7 )
( 0.31 0.69 )))
((( 0.23 0.77 )
( 0.298 0.702 ))
(( 0.48 0.52 )
( 0.84 0.16000003 )))))
((((( 0.624 0.376 )
( 0.8 0.19999999 ))
(( 0.67 0.32999998 )
( 0.4 0.6 )))
((( 0.58 0.42000002 )
( 0.5 0.5 ))
(( 1.0 0.0 )
( 0.24 0.76 ))))
(((( 0.18 0.82 )
( 0.19 0.81 ))
(( 0.86 0.13999999 )
( 0.57 0.43 )))
((( 0.37 0.63 )
( 0.85 0.14999998 ))
(( 0.648 0.352 )
( 0.487 0.513 ))))))))
(((((((( 0.84 0.16000003 )
( 0.34 0.65999997 ))
(( 0.11 0.89 )
( 0.6574 0.3426 )))
((( 0.27 0.73 )
( 0.84 0.16000003 ))
(( 0.75 0.25 )
( 0.674 0.32599998 ))))
(((( 0.84 0.16000003 )
( 0.657 0.343 ))
(( 0.57 0.43 )
( 0.57 0.43 )))
((( 0.664 0.33600003 )
( 0.57 0.43 ))
(( 0.3 0.7 )
( 0.87 0.13 )))))
((((( 0.4 0.6 )
( 0.8 0.19999999 ))
(( 0.348 0.652 )
( 0.77 0.23000002 )))
((( 0.65 0.35000002 )
( 0.54 0.45999998 ))
(( 0.578 0.422 )
( 0.84 0.16000003 ))))
(((( 0.58 0.42000002 )
( 0.22 0.78 ))
(( 0.54 0.45999998 )
( 0.24 0.76 )))
((( 0.29 0.71000004 )
( 0.487 0.513 ))
(( 0.53 0.47000003 )
( 0.54 0.45999998 ))))))
(((((( 0.66 0.33999997 )
( 0.4 0.6 ))
(( 0.63 0.37 )
( 0.57 0.43 )))
((( 0.57 0.43 )
( 0.34 0.65999997 ))
(( 0.48 0.52 )
( 0.48 0.52 ))))
(((( 0.48 0.52 )
( 0.4 0.6 ))
(( 0.4 0.6 )
( 0.34 0.65999997 )))
((( 0.4 0.6 )
( 0.523 0.477 ))
(( 0.47 0.53 )
( 0.48 0.52 )))))
((((( 0.9841 0.015900016 )
( 0.57 0.43 ))
(( 0.93 0.06999999 )
( 0.47 0.53 )))
((( 0.324 0.676 )
( 0.48 0.52 ))
(( 0.137 0.86300004 )
( 0.48 0.52 ))))
(((( 0.67 0.32999998 )
( 0.813 0.18699998 ))
(( 0.57 0.43 )
( 0.6 0.39999998 )))
((( 0.66 0.33999997 )
( 0.358 0.64199996 ))
(( 0.345 0.655 )
( 0.58 0.42000002 ))))))
(((((( 0.48 0.52 )
( 0.487 0.513 ))
(( 0.47 0.53 )
( 0.55 0.45 )))
((( 0.41 0.59000003 )
( 0.64 0.36 ))
(( 0.258 0.742 )
( 0.48 0.52 ))))
(((( 0.483 0.51699996 )
( 0.584 0.416 ))
(( 0.36 0.64 )
( 0.33 0.66999996 )))
((( 0.32 0.68 )
( 0.67 0.32999998 ))
(( 0.4 0.6 )
( 0.8 0.19999999 )))))
((((( 0.51 0.49 )
( 0.47 0.53 ))
(( 0.84 0.16000003 )
( 0.84 0.16000003 )))
((( 0.354 0.646 )
( 0.48 0.52 ))
(( 0.82 0.18 )
( 0.46 0.53999996 ))))
(((( 0.52 0.48000002 )
( 0.58 0.42000002 ))
(( 0.66 0.33999997 )
( 0.57 0.43 )))
((( 0.63 0.37 )
( 0.48 0.52 ))
(( 0.54 0.45999998 )
( 0.63 0.37 )))))))
((((((( 0.64 0.36 )
( 0.55 0.45 ))
(( 0.5 0.5 )
( 0.69 0.31 )))
((( 0.374 0.626 )
( 0.48 0.52 ))
(( 0.5 0.5 )
( 0.3 0.7 ))))
(((( 0.46 0.53999996 )
( 0.287 0.713 ))
(( 0.574 0.426 )
( 0.43 0.57 )))
((( 0.574 0.426 )
( 0.671 0.329 ))
(( 0.48 0.52 )
( 0.247 0.753 )))))
((((( 0.847 0.153 )
( 0.457 0.543 ))
(( 0.84 0.16000003 )
( 0.81 0.19 )))
((( 0.67 0.32999998 )
( 0.18 0.82 ))
(( 0.69 0.31 )
( 0.46 0.53999996 ))))
(((( 0.528 0.472 )
( 0.94 0.060000002 ))
(( 0.94 0.060000002 )
( 0.48 0.52 )))
((( 0.565 0.435 )
( 0.375 0.625 ))
(( 0.87 0.13 )
( 0.48 0.52 ))))))
(((((( 0.487 0.513 )
( 0.37 0.63 ))
(( 0.48 0.52 )
( 0.66 0.33999997 )))
((( 0.436 0.564 )
( 0.28 0.72 ))
(( 0.71 0.29000002 )
( 0.44 0.56 ))))
(((( 0.64 0.36 )
( 0.67 0.32999998 ))
(( 0.34 0.65999997 )
( 0.24 0.76 )))
((( 0.1 0.9 )
( 0.8 0.19999999 ))
(( 0.64 0.36 )
( 0.4 0.6 )))))
((((( 1.0 0.0 )
( 0.52 0.48000002 ))
(( 0.3 0.7 )
( 0.6 0.39999998 )))
((( 0.5 0.5 )
( 0.48 0.52 ))
(( 0.7 0.3 )
( 0.52 0.48000002 ))))
(((( 0.58 0.42000002 )
( 0.34 0.65999997 ))
(( 0.24 0.76 )
( 0.14 0.86 )))
((( 0.37 0.63 )
( 0.8 0.19999999 ))
(( 0.58 0.42000002 )
( 0.48 0.52 ))))))
(((((( 0.85 0.14999998 )
( 0.354 0.646 ))
(( 0.47 0.53 )
( 0.58 0.42000002 )))
((( 0.5 0.5 )
( 0.52 0.48000002 ))
(( 0.48 0.52 )
( 0.57 0.43 ))))
(((( 0.77 0.23000002 )
( 0.67 0.32999998 ))
(( 0.64 0.36 )
( 0.7 0.3 )))
((( 0.3 0.7 )
( 0.7 0.3 ))
(( 0.8 0.19999999 )
( 0.571 0.42900002 )))))
((((( 0.698 0.302 )
( 0.55 0.45 ))
(( 0.94 0.060000002 )
( 0.48 0.52 )))
((( 1.0 0.0 )
( 0.6 0.39999998 ))
(( 0.44 0.56 )
( 0.3 0.7 ))))
(((( 0.15 0.85 )
( 0.48 0.52 ))
(( 0.67 0.32999998 )
( 0.38 0.62 )))
((( 0.36 0.64 )
( 0.8 0.19999999 ))
(( 0.54 0.45999998 )
( 0.58 0.42000002 )))))))));
}

potential (CreateMaliciousClient | OriginKnown Persistent Automated Duration Aggresive Targeted Advanced Stealthy)
{
 data = ((((((((( 0.8 0.19999999 )
( 0.61 0.39 ))
(( 0.8 0.19999999 )
( 1.0 0.0 )))
((( 0.74 0.26 )
( 0.48 0.52 ))
(( 0.4 0.6 )
( 0.85 0.14999998 ))))
(((( 0.6 0.39999998 )
( 0.4 0.6 ))
(( 0.4 0.6 )
( 0.54 0.45999998 )))
((( 0.185 0.815 )
( 0.48 0.52 ))
(( 0.1 0.9 )
( 0.24 0.76 )))))
((((( 0.374 0.626 )
( 0.47 0.53 ))
(( 0.648 0.352 )
( 0.47 0.53 )))
((( 0.7 0.3 )
( 0.48 0.52 ))
(( 0.47 0.53 )
( 0.3285 0.67149997 ))))
(((( 0.54 0.45999998 )
( 0.486 0.514 ))
(( 0.185 0.815 )
( 0.48 0.52 )))
((( 0.548 0.45200002 )
( 0.468 0.532 ))
(( 0.48 0.52 )
( 0.68 0.32 )))))
((((( 0.48 0.52 )
( 0.4 0.6 ))
(( 0.42 0.58000004 )
( 0.674 0.32599998 )))
((( 0.648 0.352 )
( 0.61 0.39 ))
(( 0.48 0.52 )
( 0.61 0.39 ))))
(((( 0.285 0.71500003 )
( 0.432 0.56799996 ))
(( 0.48 0.52 )
( 0.67 0.32999998 )))
((( 0.62 0.38 )
( 0.57 0.43 ))
(( 0.67 0.32999998 )
( 0.18 0.82 ))))))
(((((( 0.6374 0.36260003 )
( 0.28 0.72 ))
(( 0.62 0.38 )
( 0.74 0.26 )))
((( 0.48 0.52 )
( 1.0 0.0 ))
(( 0.188 0.81200004 )
( 0.637 0.36299998 ))))
(((( 0.48 0.52 )
( 0.27 0.73 ))
(( 0.984 0.015999973 )
( 0.57 0.43 )))
((( 0.67 0.32999998 )
( 1.0 0.0 ))
(( 0.67 0.32999998 )
( 0.33 0.66999996 )))))
((((( 0.48 0.52 )
( 0.95 0.050000012 ))
(( 0.67 0.32999998 )
( 0.321 0.679 )))
((( 0.67 0.32999998 )
( 0.71 0.29000002 ))
(( 0.687 0.31300002 )
( 0.58 0.42000002 ))))
(((( 0.94 0.060000002 )
( 0.81 0.19 ))
(( 0.65 0.35000002 )
( 0.48 0.52 )))
((( 0.65 0.35000002 )
( 0.47 0.53 ))
(( 0.647 0.353 )
( 0.4865 0.5135 )))))
((((( 0.57 0.43 )
( 0.48 0.52 ))
(( 0.5 0.5 )
( 0.99 0.00999999 )))
((( 0.852 0.148 )
( 0.54 0.45999998 ))
(( 0.63 0.37 )
( 0.64 0.36 ))))
(((( 0.574 0.426 )
( 0.57 0.43 ))
(( 0.52 0.48000002 )
( 0.661 0.339 )))
((( 0.34 0.65999997 )
( 0.52 0.48000002 ))
(( 0.91 0.089999974 )
( 0.45 0.55 )))))))
((((((( 0.48 0.52 )
( 0.55 0.45 ))
(( 0.58 0.42000002 )
( 0.88 0.120000005 )))
((( 0.9 0.100000024 )
( 0.33 0.66999996 ))
(( 0.31 0.69 )
( 0.52 0.48000002 ))))
(((( 0.52 0.48000002 )
( 0.48 0.52 ))
(( 0.81 0.19 )
( 0.83 0.17000002 )))
((( 0.67 0.32999998 )
( 0.25 0.75 ))
(( 0.67 0.32999998 )
( 0.147 0.853 )))))
((((( 0.385 0.615 )
( 0.385 0.615 ))
(( 0.58 0.42000002 )
( 0.48 0.52 )))
((( 0.99 0.00999999 )
( 0.91 0.089999974 ))
(( 0.65 0.35000002 )
( 0.67 0.32999998 ))))
(((( 0.15 0.85 )
( 0.68 0.32 ))
(( 0.4 0.6 )
( 0.52 0.48000002 )))
((( 0.67 0.32999998 )
( 0.324 0.676 ))
(( 0.356 0.644 )
( 0.48 0.52 )))))
((((( 0.48 0.52 )
( 0.58 0.42000002 ))
(( 0.91 0.089999974 )
( 0.1 0.9 )))
((( 0.635 0.365 )
( 0.174 0.826 ))
(( 0.24 0.76 )
( 0.44 0.56 ))))
(((( 0.485 0.515 )
( 0.54 0.45999998 ))
(( 0.5364 0.46359998 )
( 0.67 0.32999998 )))
((( 0.48 0.52 )
( 0.486 0.514 ))
(( 0.67 0.32999998 )
( 0.57 0.43 ))))))
(((((( 1.0 0.0 )
( 0.1749 0.8251 ))
(( 0.57 0.43 )
( 0.91 0.089999974 )))
((( 0.34 0.65999997 )
( 0.81 0.19 ))
(( 0.0874 0.9126 )
( 0.47 0.53 ))))
(((( 0.697 0.30299997 )
( 0.48 0.52 ))
(( 0.637 0.36299998 )
( 0.88 0.120000005 )))
((( 0.18 0.82 )
( 0.674 0.32599998 ))
(( 0.156 0.844 )
( 0.34 0.65999997 )))))
((((( 0.47 0.53 )
( 0.46 0.53999996 ))
(( 0.433 0.56700003 )
( 0.51 0.49 )))
((( 0.55 0.45 )
( 0.5 0.5 ))
(( 0.5 0.5 )
( 0.34 0.65999997 ))))
(((( 0.81 0.19 )
( 0.58 0.42000002 ))
(( 0.3 0.7 )
( 0.31 0.69 )))
((( 0.48 0.52 )
( 0.298 0.702 ))
(( 0.48 0.52 )
( 0.64 0.36 )))))
((((( 0.624 0.376 )
( 0.8 0.19999999 ))
(( 0.69 0.31 )
( 0.4 0.6 )))
((( 0.65 0.35000002 )
( 0.5 0.5 ))
(( 1.0 0.0 )
( 0.24 0.76 ))))
(((( 0.4877 0.5123 )
( 0.19 0.81 ))
(( 0.11 0.89 )
( 0.76 0.24000001 )))
((( 0.37 0.63 )
( 0.85 0.14999998 ))
(( 0.984 0.015999973 )
( 0.73 0.26999998 ))))))))
(((((((( 0.84 0.16000003 )
( 0.83 0.17000002 ))
(( 0.11 0.89 )
( 0.6574 0.3426 )))
((( 0.27 0.73 )
( 0.64 0.36 ))
(( 0.75 0.25 )
( 0.674 0.32599998 ))))
(((( 0.84 0.16000003 )
( 0.657 0.343 ))
(( 0.63 0.37 )
( 0.57 0.43 )))
((( 0.664 0.33600003 )
( 0.57 0.43 ))
(( 0.3 0.7 )
( 0.87 0.13 )))))
((((( 0.25 0.75 )
( 0.8 0.19999999 ))
(( 0.9 0.100000024 )
( 0.77 0.23000002 )))
((( 0.65 0.35000002 )
( 0.54 0.45999998 ))
(( 0.774 0.22600001 )
( 0.43 0.57 ))))
(((( 0.58 0.42000002 )
( 0.22 0.78 ))
(( 0.54 0.45999998 )
( 0.24 0.76 )))
((( 0.6 0.39999998 )
( 0.254 0.746 ))
(( 0.53 0.47000003 )
( 0.54 0.45999998 )))))
((((( 0.11 0.89 )
( 0.47 0.53 ))
(( 0.48 0.52 )
( 0.57 0.43 )))
((( 0.57 0.43 )
( 0.43 0.57 ))
(( 0.48 0.52 )
( 0.48 0.52 ))))
(((( 0.64 0.36 )
( 0.4 0.6 ))
(( 0.33 0.66999996 )
( 0.34 0.65999997 )))
((( 0.4 0.6 )
( 0.9 0.100000024 ))
(( 0.47 0.53 )
( 0.48 0.52 ))))))
(((((( 0.647 0.353 )
( 0.34 0.65999997 ))
(( 0.93 0.06999999 )
( 0.63 0.37 )))
((( 0.324 0.676 )
( 0.48 0.52 ))
(( 0.61 0.39 )
( 0.48 0.52 ))))
(((( 0.248 0.752 )
( 0.813 0.18699998 ))
(( 0.57 0.43 )
( 0.6 0.39999998 )))
((( 0.99 0.00999999 )
( 0.64 0.36 ))
(( 0.345 0.655 )
( 0.58 0.42000002 )))))
((((( 0.84 0.16000003 )
( 0.487 0.513 ))
(( 0.637 0.36299998 )
( 0.55 0.45 )))
((( 0.44 0.56 )
( 0.64 0.36 ))
(( 0.68 0.32 )
( 0.48 0.52 ))))
(((( 0.483 0.51699996 )
( 0.234 0.76600003 ))
(( 0.36 0.64 )
( 0.33 0.66999996 )))
((( 0.55 0.45 )
( 0.31 0.69 ))
(( 0.4 0.6 )
( 0.8 0.19999999 )))))
((((( 0.672 0.328 )
( 0.47 0.53 ))
(( 0.84 0.16000003 )
( 0.55 0.45 )))
((( 0.354 0.646 )
( 0.6 0.39999998 ))
(( 0.82 0.18 )
( 0.46 0.53999996 ))))
(((( 0.52 0.48000002 )
( 0.214 0.786 ))
(( 0.66 0.33999997 )
( 0.6 0.39999998 )))
((( 0.63 0.37 )
( 0.48 0.52 ))
(( 0.54 0.45999998 )
( 0.63 0.37 )))))))
((((((( 0.52 0.48000002 )
( 0.3 0.7 ))
(( 0.5 0.5 )
( 0.69 0.31 )))
((( 0.374 0.626 )
( 0.8 0.19999999 ))
(( 0.5 0.5 )
( 0.3 0.7 ))))
(((( 0.4 0.6 )
( 0.287 0.713 ))
(( 0.574 0.426 )
( 0.854 0.14600003 )))
((( 0.574 0.426 )
( 0.671 0.329 ))
(( 0.48 0.52 )
( 0.5 0.5 )))))
((((( 0.57 0.43 )
( 0.457 0.543 ))
(( 0.84 0.16000003 )
( 0.713 0.287 )))
((( 0.67 0.32999998 )
( 0.48 0.52 ))
(( 0.287 0.713 )
( 0.46 0.53999996 ))))
(((( 0.528 0.472 )
( 0.24 0.76 ))
(( 0.94 0.060000002 )
( 0.41 0.59000003 )))
((( 0.565 0.435 )
( 0.375 0.625 ))
(( 0.87 0.13 )
( 0.48 0.52 )))))
((((( 0.28 0.72 )
( 0.37 0.63 ))
(( 0.71 0.29000002 )
( 0.66 0.33999997 )))
((( 0.38 0.62 )
( 0.28 0.72 ))
(( 0.71 0.29000002 )
( 0.44 0.56 ))))
(((( 0.689 0.311 )
( 0.67 0.32999998 ))
(( 0.34 0.65999997 )
( 0.24 0.76 )))
((( 0.1 0.9 )
( 0.5 0.5 ))
(( 0.874 0.12599999 )
( 0.4 0.6 ))))))
(((((( 1.0 0.0 )
( 0.63 0.37 ))
(( 0.3 0.7 )
( 0.14 0.86 )))
((( 0.84 0.16000003 )
( 0.48 0.52 ))
(( 0.7 0.3 )
( 0.52 0.48000002 ))))
(((( 0.58 0.42000002 )
( 0.4 0.6 ))
(( 0.24 0.76 )
( 0.358 0.64199996 )))
((( 0.37 0.63 )
( 0.8 0.19999999 ))
(( 0.58 0.42000002 )
( 0.44 0.56 )))))
((((( 0.4 0.6 )
( 0.354 0.646 ))
(( 0.47 0.53 )
( 0.58 0.42000002 )))
((( 0.456 0.544 )
( 0.52 0.48000002 ))
(( 0.48 0.52 )
( 0.57 0.43 ))))
(((( 0.56 0.44 )
( 0.67 0.32999998 ))
(( 0.64 0.36 )
( 0.57 0.43 )))
((( 0.3 0.7 )
( 0.7 0.3 ))
(( 0.4 0.6 )
( 0.571 0.42900002 )))))
((((( 0.698 0.302 )
( 0.18 0.82 ))
(( 0.94 0.060000002 )
( 0.544 0.45599997 )))
((( 1.0 0.0 )
( 0.47 0.53 ))
(( 0.44 0.56 )
( 0.3 0.7 ))))
(((( 0.5 0.5 )
( 0.48 0.52 ))
(( 0.67 0.32999998 )
( 0.65 0.35000002 )))
((( 0.2 0.8 )
( 0.8 0.19999999 ))
(( 0.54 0.45999998 )
( 0.5 0.5 )))))))));
}

potential (RemovalOfFilters | Persistent Automated OriginKnown Duration Aggresive Advanced Targeted Stealthy)
{
 data = ((((((((( 0.5 0.5 )
( 0.3 0.7 ))
(( 0.8 0.19999999 )
( 0.478 0.522 )))
((( 0.74 0.26 )
( 0.86 0.13999999 ))
(( 0.4 0.6 )
( 0.9 0.100000024 ))))
(((( 0.48 0.52 )
( 0.4 0.6 ))
(( 0.4 0.6 )
( 0.48 0.52 )))
((( 0.7 0.3 )
( 0.47 0.53 ))
(( 0.1 0.9 )
( 0.24 0.76 )))))
((((( 0.36 0.64 )
( 0.47 0.53 ))
(( 0.3 0.7 )
( 0.47 0.53 )))
((( 0.7 0.3 )
( 0.64 0.36 ))
(( 0.63 0.37 )
( 0.338 0.662 ))))
(((( 0.25 0.75 )
( 0.486 0.514 ))
(( 0.95 0.050000012 )
( 0.48 0.52 )))
((( 0.25 0.75 )
( 0.468 0.532 ))
(( 0.574 0.426 )
( 0.4 0.6 )))))
((((( 0.48 0.52 )
( 0.32 0.68 ))
(( 0.8 0.19999999 )
( 0.674 0.32599998 )))
((( 0.84 0.16000003 )
( 0.48 0.52 ))
(( 0.81 0.19 )
( 0.61 0.39 ))))
(((( 0.7 0.3 )
( 0.84 0.16000003 ))
(( 0.35 0.65 )
( 0.67 0.32999998 )))
((( 0.62 0.38 )
( 0.57 0.43 ))
(( 0.67 0.32999998 )
( 0.62 0.38 ))))))
(((((( 0.45 0.55 )
( 0.67 0.32999998 ))
(( 0.62 0.38 )
( 0.61 0.39 )))
((( 0.48 0.52 )
( 1.0 0.0 ))
(( 0.24 0.76 )
( 0.637 0.36299998 ))))
(((( 0.345 0.655 )
( 0.27 0.73 ))
(( 0.984 0.015999973 )
( 0.4 0.6 )))
((( 0.67 0.32999998 )
( 0.24 0.76 ))
(( 0.3 0.7 )
( 0.33 0.66999996 )))))
((((( 0.48 0.52 )
( 0.34 0.65999997 ))
(( 0.67 0.32999998 )
( 0.5 0.5 )))
((( 0.67 0.32999998 )
( 0.71 0.29000002 ))
(( 0.687 0.31300002 )
( 0.58 0.42000002 ))))
(((( 0.17 0.83 )
( 0.78 0.22000003 ))
(( 0.65 0.35000002 )
( 0.874 0.12599999 )))
((( 0.65 0.35000002 )
( 0.47 0.53 ))
(( 0.6 0.39999998 )
( 0.4865 0.5135 )))))
((((( 0.57 0.43 )
( 0.33 0.66999996 ))
(( 0.5 0.5 )
( 0.99 0.00999999 )))
((( 0.67 0.32999998 )
( 0.54 0.45999998 ))
(( 0.63 0.37 )
( 0.52 0.48000002 ))))
(((( 0.574 0.426 )
( 0.57 0.43 ))
(( 0.4 0.6 )
( 0.661 0.339 )))
((( 0.34 0.65999997 )
( 0.16 0.84000003 ))
(( 0.66 0.33999997 )
( 0.45 0.55 )))))))
((((((( 0.48 0.52 )
( 0.23 0.77 ))
(( 0.58 0.42000002 )
( 0.88 0.120000005 )))
((( 0.38 0.62 )
( 0.33 0.66999996 ))
(( 0.31 0.69 )
( 0.52 0.48000002 ))))
(((( 0.52 0.48000002 )
( 0.99 0.00999999 ))
(( 0.81 0.19 )
( 0.83 0.17000002 )))
((( 0.47 0.53 )
( 0.25 0.75 ))
(( 0.67 0.32999998 )
( 0.64 0.36 )))))
((((( 0.385 0.615 )
( 0.385 0.615 ))
(( 0.22 0.78 )
( 0.48 0.52 )))
((( 0.85 0.14999998 )
( 0.91 0.089999974 ))
(( 0.66 0.33999997 )
( 0.67 0.32999998 ))))
(((( 0.15 0.85 )
( 0.63 0.37 ))
(( 0.851 0.14899999 )
( 0.52 0.48000002 )))
((( 0.67 0.32999998 )
( 0.324 0.676 ))
(( 0.88 0.120000005 )
( 0.48 0.52 )))))
((((( 0.324 0.676 )
( 0.58 0.42000002 ))
(( 0.91 0.089999974 )
( 0.58 0.42000002 )))
((( 0.635 0.365 )
( 0.174 0.826 ))
(( 0.64 0.36 )
( 0.165 0.835 ))))
(((( 0.485 0.515 )
( 0.54 0.45999998 ))
(( 0.63 0.37 )
( 0.67 0.32999998 )))
((( 0.148 0.852 )
( 0.61 0.39 ))
(( 0.67 0.32999998 )
( 0.47 0.53 ))))))
(((((( 0.8 0.19999999 )
( 0.1749 0.8251 ))
(( 0.7 0.3 )
( 0.18 0.82 )))
((( 0.34 0.65999997 )
( 0.81 0.19 ))
(( 0.0874 0.9126 )
( 0.554 0.44599998 ))))
(((( 0.46 0.53999996 )
( 0.18 0.82 ))
(( 0.637 0.36299998 )
( 0.88 0.120000005 )))
((( 0.49 0.51 )
( 0.87 0.13 ))
(( 0.156 0.844 )
( 0.34 0.65999997 )))))
((((( 0.47 0.53 )
( 0.6 0.39999998 ))
(( 0.685 0.315 )
( 0.51 0.49 )))
((( 0.55 0.45 )
( 0.5 0.5 ))
(( 0.5 0.5 )
( 0.88 0.120000005 ))))
(((( 0.81 0.19 )
( 0.58 0.42000002 ))
(( 0.3 0.7 )
( 0.81 0.19 )))
((( 0.23 0.77 )
( 0.298 0.702 ))
(( 0.48 0.52 )
( 0.15 0.85 )))))
((((( 0.624 0.376 )
( 0.8 0.19999999 ))
(( 0.24 0.76 )
( 0.4 0.6 )))
((( 0.35 0.65 )
( 0.5 0.5 ))
(( 0.8 0.19999999 )
( 0.24 0.76 ))))
(((( 0.18 0.82 )
( 0.6 0.39999998 ))
(( 0.11 0.89 )
( 0.57 0.43 )))
((( 0.37 0.63 )
( 0.85 0.14999998 ))
(( 0.23 0.77 )
( 0.487 0.513 ))))))))
(((((((( 0.84 0.16000003 )
( 0.341 0.65900004 ))
(( 0.11 0.89 )
( 0.6574 0.3426 )))
((( 0.27 0.73 )
( 0.74 0.26 ))
(( 0.75 0.25 )
( 0.674 0.32599998 ))))
(((( 0.84 0.16000003 )
( 0.9 0.100000024 ))
(( 0.48 0.52 )
( 0.57 0.43 )))
((( 0.664 0.33600003 )
( 0.63 0.37 ))
(( 0.3 0.7 )
( 0.87 0.13 )))))
((((( 0.4 0.6 )
( 0.8 0.19999999 ))
(( 0.48 0.52 )
( 0.77 0.23000002 )))
((( 0.65 0.35000002 )
( 0.422 0.578 ))
(( 0.578 0.422 )
( 0.851 0.14899999 ))))
(((( 0.58 0.42000002 )
( 0.22 0.78 ))
(( 0.54 0.45999998 )
( 0.24 0.76 )))
((( 0.8 0.19999999 )
( 0.254 0.746 ))
(( 0.53 0.47000003 )
( 0.54 0.45999998 )))))
((((( 0.66 0.33999997 )
( 0.64 0.36 ))
(( 0.287 0.713 )
( 0.57 0.43 )))
((( 0.69 0.31 )
( 0.34 0.65999997 ))
(( 0.48 0.52 )
( 0.48 0.52 ))))
(((( 0.5 0.5 )
( 0.4 0.6 ))
(( 0.8 0.19999999 )
( 0.34 0.65999997 )))
((( 0.4 0.6 )
( 0.9 0.100000024 ))
(( 0.4 0.6 )
( 0.48 0.52 ))))))
(((((( 0.9841 0.015900016 )
( 0.64 0.36 ))
(( 0.93 0.06999999 )
( 0.47 0.53 )))
((( 0.324 0.676 )
( 0.61 0.39 ))
(( 0.137 0.86300004 )
( 0.48 0.52 ))))
(((( 0.248 0.752 )
( 0.813 0.18699998 ))
(( 0.57 0.43 )
( 0.6 0.39999998 )))
((( 0.85 0.14999998 )
( 0.64 0.36 ))
(( 0.345 0.655 )
( 0.58 0.42000002 )))))
((((( 0.84 0.16000003 )
( 0.487 0.513 ))
(( 0.47 0.53 )
( 0.55 0.45 )))
((( 0.44 0.56 )
( 0.64 0.36 ))
(( 0.258 0.742 )
( 0.48 0.52 ))))
(((( 0.648 0.352 )
( 0.234 0.76600003 ))
(( 0.36 0.64 )
( 0.4 0.6 )))
((( 0.32 0.68 )
( 0.31 0.69 ))
(( 0.8 0.19999999 )
( 0.8 0.19999999 )))))
((((( 0.99 0.00999999 )
( 0.47 0.53 ))
(( 0.4 0.6 )
( 0.55 0.45 )))
((( 0.354 0.646 )
( 0.2 0.8 ))
(( 0.82 0.18 )
( 0.46 0.53999996 ))))
(((( 0.6 0.39999998 )
( 0.214 0.786 ))
(( 0.66 0.33999997 )
( 0.57 0.43 )))
((( 0.7 0.3 )
( 0.48 0.52 ))
(( 0.54 0.45999998 )
( 0.63 0.37 )))))))
((((((( 0.52 0.48000002 )
( 0.4 0.6 ))
(( 0.5 0.5 )
( 0.69 0.31 )))
((( 0.6 0.39999998 )
( 0.8 0.19999999 ))
(( 0.5 0.5 )
( 0.8 0.19999999 ))))
(((( 0.48 0.52 )
( 0.287 0.713 ))
(( 0.5 0.5 )
( 0.854 0.14600003 )))
((( 0.4 0.6 )
( 0.671 0.329 ))
(( 0.48 0.52 )
( 0.247 0.753 )))))
((((( 0.57 0.43 )
( 0.64 0.36 ))
(( 0.84 0.16000003 )
( 0.713 0.287 )))
((( 0.8 0.19999999 )
( 0.18 0.82 ))
(( 0.287 0.713 )
( 0.25 0.75 ))))
(((( 0.528 0.472 )
( 0.24 0.76 ))
(( 0.14 0.86 )
( 0.48 0.52 )))
((( 0.565 0.435 )
( 0.4 0.6 ))
(( 0.87 0.13 )
( 0.36 0.64 )))))
((((( 0.28 0.72 )
( 0.37 0.63 ))
(( 0.48 0.52 )
( 0.66 0.33999997 )))
((( 0.38 0.62 )
( 0.28 0.72 ))
(( 0.71 0.29000002 )
( 0.44 0.56 ))))
(((( 0.48 0.52 )
( 0.35 0.65 ))
(( 0.34 0.65999997 )
( 0.25 0.75 )))
((( 0.1 0.9 )
( 0.56 0.44 ))
(( 0.874 0.12599999 )
( 0.48 0.52 ))))))
(((((( 1.0 0.0 )
( 0.63 0.37 ))
(( 0.67 0.32999998 )
( 0.6 0.39999998 )))
((( 0.84 0.16000003 )
( 0.48 0.52 ))
(( 0.7 0.3 )
( 0.6 0.39999998 ))))
(((( 0.58 0.42000002 )
( 0.634 0.366 ))
(( 0.89 0.110000014 )
( 0.14 0.86 )))
((( 0.37 0.63 )
( 0.91 0.089999974 ))
(( 0.58 0.42000002 )
( 0.44 0.56 )))))
((((( 0.48 0.52 )
( 0.354 0.646 ))
(( 0.47 0.53 )
( 0.85 0.14999998 )))
((( 0.67 0.32999998 )
( 0.52 0.48000002 ))
(( 0.84 0.16000003 )
( 0.57 0.43 ))))
(((( 0.77 0.23000002 )
( 0.67 0.32999998 ))
(( 0.64 0.36 )
( 0.354 0.646 )))
((( 0.3 0.7 )
( 0.48 0.52 ))
(( 1.0 0.0 )
( 0.571 0.42900002 )))))
((((( 0.8 0.19999999 )
( 0.18 0.82 ))
(( 0.94 0.060000002 )
( 0.66 0.33999997 )))
((( 1.0 0.0 )
( 0.47 0.53 ))
(( 0.69 0.31 )
( 0.3 0.7 ))))
(((( 0.15 0.85 )
( 0.48 0.52 ))
(( 0.67 0.32999998 )
( 0.38 0.62 )))
((( 0.8 0.19999999 )
( 0.8 0.19999999 ))
(( 0.54 0.45999998 )
( 0.5 0.5 )))))))));
}

potential (ManipulationHiddenFields | Persistent Automated OriginKnown Duration Aggresive Advanced Targeted Stealthy)
{
 data = ((((((((( 0.485 0.515 )
( 0.465 0.53499997 ))
(( 0.34 0.65999997 )
( 0.69 0.31 )))
((( 0.74 0.26 )
( 0.5 0.5 ))
(( 0.4 0.6 )
( 0.9 0.100000024 ))))
(((( 0.48 0.52 )
( 0.4 0.6 ))
(( 0.4 0.6 )
( 0.15 0.85 )))
((( 0.7 0.3 )
( 0.63 0.37 ))
(( 0.1 0.9 )
( 0.24 0.76 )))))
((((( 0.48 0.52 )
( 0.47 0.53 ))
(( 0.3 0.7 )
( 0.47 0.53 )))
((( 0.7 0.3 )
( 0.64 0.36 ))
(( 0.63 0.37 )
( 0.138 0.862 ))))
(((( 0.25 0.75 )
( 0.486 0.514 ))
(( 0.95 0.050000012 )
( 0.48 0.52 )))
((( 0.25 0.75 )
( 0.5285 0.47149998 ))
(( 0.574 0.426 )
( 0.4 0.6 )))))
((((( 0.48 0.52 )
( 0.4185 0.5815 ))
(( 0.8 0.19999999 )
( 0.674 0.32599998 )))
((( 0.84 0.16000003 )
( 0.48 0.52 ))
(( 0.81 0.19 )
( 0.61 0.39 ))))
(((( 0.64 0.36 )
( 0.84 0.16000003 ))
(( 0.35 0.65 )
( 0.67 0.32999998 )))
((( 0.62 0.38 )
( 0.57 0.43 ))
(( 0.48 0.52 )
( 0.62 0.38 ))))))
(((((( 0.45 0.55 )
( 0.67 0.32999998 ))
(( 0.62 0.38 )
( 0.61 0.39 )))
((( 0.48 0.52 )
( 0.42 0.58000004 ))
(( 0.24 0.76 )
( 0.637 0.36299998 ))))
(((( 0.345 0.655 )
( 0.27 0.73 ))
(( 0.984 0.015999973 )
( 0.4 0.6 )))
((( 0.85 0.14999998 )
( 0.24 0.76 ))
(( 0.3 0.7 )
( 0.33 0.66999996 )))))
((((( 0.48 0.52 )
( 0.35 0.65 ))
(( 0.67 0.32999998 )
( 0.5 0.5 )))
((( 0.67 0.32999998 )
( 0.71 0.29000002 ))
(( 0.687 0.31300002 )
( 0.84 0.16000003 ))))
(((( 0.17 0.83 )
( 0.78 0.22000003 ))
(( 0.65 0.35000002 )
( 0.874 0.12599999 )))
((( 0.65 0.35000002 )
( 0.47 0.53 ))
(( 0.34 0.65999997 )
( 0.4865 0.5135 )))))
((((( 0.57 0.43 )
( 0.33 0.66999996 ))
(( 0.5 0.5 )
( 0.99 0.00999999 )))
((( 0.67 0.32999998 )
( 0.15 0.85 ))
(( 0.63 0.37 )
( 0.52 0.48000002 ))))
(((( 0.574 0.426 )
( 0.57 0.43 ))
(( 0.4 0.6 )
( 0.661 0.339 )))
((( 0.48 0.52 )
( 0.16 0.84000003 ))
(( 0.66 0.33999997 )
( 0.45 0.55 )))))))
((((((( 0.48 0.52 )
( 0.23 0.77 ))
(( 0.47 0.53 )
( 0.88 0.120000005 )))
((( 0.38 0.62 )
( 0.33 0.66999996 ))
(( 0.31 0.69 )
( 0.52 0.48000002 ))))
(((( 0.52 0.48000002 )
( 0.99 0.00999999 ))
(( 0.43 0.57 )
( 0.83 0.17000002 )))
((( 0.47 0.53 )
( 0.25 0.75 ))
(( 0.67 0.32999998 )
( 0.64 0.36 )))))
((((( 0.385 0.615 )
( 0.385 0.615 ))
(( 0.65 0.35000002 )
( 0.48 0.52 )))
((( 0.85 0.14999998 )
( 0.91 0.089999974 ))
(( 0.66 0.33999997 )
( 0.67 0.32999998 ))))
(((( 0.99 0.00999999 )
( 0.63 0.37 ))
(( 0.851 0.14899999 )
( 0.52 0.48000002 )))
((( 0.67 0.32999998 )
( 0.324 0.676 ))
(( 0.88 0.120000005 )
( 0.48 0.52 )))))
((((( 0.324 0.676 )
( 0.67 0.32999998 ))
(( 0.91 0.089999974 )
( 0.58 0.42000002 )))
((( 0.635 0.365 )
( 0.174 0.826 ))
(( 0.64 0.36 )
( 0.165 0.835 ))))
(((( 0.485 0.515 )
( 0.48 0.52 ))
(( 0.63 0.37 )
( 0.67 0.32999998 )))
((( 0.148 0.852 )
( 0.61 0.39 ))
(( 0.67 0.32999998 )
( 0.47 0.53 ))))))
(((((( 0.8 0.19999999 )
( 0.1749 0.8251 ))
(( 0.64 0.36 )
( 0.18 0.82 )))
((( 0.34 0.65999997 )
( 0.81 0.19 ))
(( 0.0874 0.9126 )
( 0.554 0.44599998 ))))
(((( 0.46 0.53999996 )
( 0.18 0.82 ))
(( 0.637 0.36299998 )
( 0.88 0.120000005 )))
((( 0.49 0.51 )
( 0.87 0.13 ))
(( 0.156 0.844 )
( 0.34 0.65999997 )))))
((((( 0.34 0.65999997 )
( 0.6 0.39999998 ))
(( 0.685 0.315 )
( 0.51 0.49 )))
((( 0.25 0.75 )
( 0.5 0.5 ))
(( 0.5 0.5 )
( 0.88 0.120000005 ))))
(((( 0.71 0.29000002 )
( 0.58 0.42000002 ))
(( 0.3 0.7 )
( 0.81 0.19 )))
((( 0.23 0.77 )
( 0.298 0.702 ))
(( 0.1 0.9 )
( 0.15 0.85 )))))
((((( 0.624 0.376 )
( 0.8 0.19999999 ))
(( 0.24 0.76 )
( 0.4 0.6 )))
((( 0.35 0.65 )
( 0.5 0.5 ))
(( 0.3 0.7 )
( 0.34 0.65999997 ))))
(((( 0.18 0.82 )
( 0.6 0.39999998 ))
(( 0.11 0.89 )
( 0.57 0.43 )))
((( 0.37 0.63 )
( 0.578 0.422 ))
(( 0.23 0.77 )
( 0.487 0.513 ))))))))
(((((((( 0.84 0.16000003 )
( 0.341 0.65900004 ))
(( 0.5 0.5 )
( 0.6574 0.3426 )))
((( 0.27 0.73 )
( 0.74 0.26 ))
(( 0.32 0.68 )
( 0.674 0.32599998 ))))
(((( 0.84 0.16000003 )
( 0.9 0.100000024 ))
(( 0.48 0.52 )
( 0.3 0.7 )))
((( 0.664 0.33600003 )
( 0.63 0.37 ))
(( 0.3 0.7 )
( 0.87 0.13 )))))
((((( 0.8 0.19999999 )
( 0.8 0.19999999 ))
(( 0.48 0.52 )
( 0.77 0.23000002 )))
((( 0.65 0.35000002 )
( 0.55 0.45 ))
(( 0.578 0.422 )
( 0.851 0.14899999 ))))
(((( 0.58 0.42000002 )
( 0.22 0.78 ))
(( 0.54 0.45999998 )
( 0.64 0.36 )))
((( 0.8 0.19999999 )
( 0.254 0.746 ))
(( 0.53 0.47000003 )
( 0.54 0.45999998 )))))
((((( 0.66 0.33999997 )
( 0.64 0.36 ))
(( 0.287 0.713 )
( 0.85 0.14999998 )))
((( 0.69 0.31 )
( 0.34 0.65999997 ))
(( 0.48 0.52 )
( 0.48 0.52 ))))
(((( 0.5 0.5 )
( 0.4 0.6 ))
(( 0.8 0.19999999 )
( 0.14 0.86 )))
((( 0.4 0.6 )
( 0.9 0.100000024 ))
(( 0.4 0.6 )
( 0.48 0.52 ))))))
(((((( 0.9841 0.015900016 )
( 0.64 0.36 ))
(( 0.48 0.52 )
( 0.47 0.53 )))
((( 0.324 0.676 )
( 0.61 0.39 ))
(( 0.137 0.86300004 )
( 0.48 0.52 ))))
(((( 0.248 0.752 )
( 0.813 0.18699998 ))
(( 0.34 0.65999997 )
( 0.6 0.39999998 )))
((( 0.85 0.14999998 )
( 0.64 0.36 ))
(( 0.345 0.655 )
( 0.58 0.42000002 )))))
((((( 0.84 0.16000003 )
( 0.67 0.32999998 ))
(( 0.47 0.53 )
( 0.55 0.45 )))
((( 0.44 0.56 )
( 0.64 0.36 ))
(( 0.68 0.32 )
( 0.48 0.52 ))))
(((( 0.648 0.352 )
( 0.234 0.76600003 ))
(( 0.36 0.64 )
( 0.4 0.6 )))
((( 0.32 0.68 )
( 0.31 0.69 ))
(( 0.62 0.38 )
( 0.8 0.19999999 )))))
((((( 0.68 0.32 )
( 0.47 0.53 ))
(( 0.4 0.6 )
( 0.55 0.45 )))
((( 0.354 0.646 )
( 0.25 0.75 ))
(( 0.82 0.18 )
( 0.46 0.53999996 ))))
(((( 0.6 0.39999998 )
( 0.214 0.786 ))
(( 0.66 0.33999997 )
( 0.57 0.43 )))
((( 0.3 0.7 )
( 0.48 0.52 ))
(( 0.54 0.45999998 )
( 0.63 0.37 )))))))
((((((( 0.52 0.48000002 )
( 0.4 0.6 ))
(( 0.5 0.5 )
( 0.69 0.31 )))
((( 0.87 0.13 )
( 0.8 0.19999999 ))
(( 0.5 0.5 )
( 0.8 0.19999999 ))))
(((( 0.48 0.52 )
( 0.287 0.713 ))
(( 0.5 0.5 )
( 0.487 0.513 )))
((( 0.4 0.6 )
( 0.671 0.329 ))
(( 0.48 0.52 )
( 0.247 0.753 )))))
((((( 0.57 0.43 )
( 0.44 0.56 ))
(( 0.84 0.16000003 )
( 0.713 0.287 )))
((( 0.8 0.19999999 )
( 0.18 0.82 ))
(( 0.287 0.713 )
( 0.25 0.75 ))))
(((( 0.8 0.19999999 )
( 0.24 0.76 ))
(( 0.14 0.86 )
( 0.48 0.52 )))
((( 0.565 0.435 )
( 0.34 0.65999997 ))
(( 0.87 0.13 )
( 0.36 0.64 )))))
((((( 0.28 0.72 )
( 0.37 0.63 ))
(( 0.31 0.69 )
( 0.66 0.33999997 )))
((( 0.38 0.62 )
( 0.28 0.72 ))
(( 0.71 0.29000002 )
( 0.94 0.060000002 ))))
(((( 0.48 0.52 )
( 0.35 0.65 ))
(( 0.34 0.65999997 )
( 0.25 0.75 )))
((( 0.64 0.36 )
( 0.58 0.42000002 ))
(( 0.874 0.12599999 )
( 0.48 0.52 ))))))
(((((( 0.93 0.06999999 )
( 0.4 0.6 ))
(( 0.67 0.32999998 )
( 0.6 0.39999998 )))
((( 0.84 0.16000003 )
( 0.48 0.52 ))
(( 0.7 0.3 )
( 0.6 0.39999998 ))))
(((( 0.58 0.42000002 )
( 0.5 0.5 ))
(( 0.89 0.110000014 )
( 0.14 0.86 )))
((( 0.37 0.63 )
( 0.24 0.76 ))
(( 0.58 0.42000002 )
( 0.44 0.56 )))))
((((( 0.48 0.52 )
( 0.354 0.646 ))
(( 0.64 0.36 )
( 0.85 0.14999998 )))
((( 0.67 0.32999998 )
( 0.52 0.48000002 ))
(( 0.84 0.16000003 )
( 0.57 0.43 ))))
(((( 0.61 0.39 )
( 0.67 0.32999998 ))
(( 0.64 0.36 )
( 0.354 0.646 )))
((( 0.3 0.7 )
( 0.69 0.31 ))
(( 1.0 0.0 )
( 1.0 0.0 )))))
((((( 0.8 0.19999999 )
( 0.18 0.82 ))
(( 0.94 0.060000002 )
( 0.34 0.65999997 )))
((( 0.8 0.19999999 )
( 0.47 0.53 ))
(( 0.69 0.31 )
( 0.3 0.7 ))))
(((( 0.15 0.85 )
( 0.48 0.52 ))
(( 0.67 0.32999998 )
( 0.38 0.62 )))
((( 0.8 0.19999999 )
( 0.8 0.19999999 ))
(( 0.54 0.45999998 )
( 0.5 0.5 )))))))));
}

potential (ForceUseOfCorruptedFiles | Persistent Automated OriginKnown Duration Aggresive Advanced Targeted Stealthy)
{
 data = ((((((((( 0.34 0.65999997 )
( 0.3 0.7 ))
(( 0.98 0.01999998 )
( 0.478 0.522 )))
((( 0.74 0.26 )
( 0.86 0.13999999 ))
(( 0.48 0.52 )
( 0.9 0.100000024 ))))
(((( 0.48 0.52 )
( 0.4 0.6 ))
(( 0.674 0.32599998 )
( 0.48 0.52 )))
((( 0.7 0.3 )
( 0.47 0.53 ))
(( 0.1 0.9 )
( 0.89 0.110000014 )))))
((((( 0.36 0.64 )
( 0.47 0.53 ))
(( 0.3 0.7 )
( 0.47 0.53 )))
((( 0.58 0.42000002 )
( 0.64 0.36 ))
(( 0.63 0.37 )
( 0.338 0.662 ))))
(((( 0.64 0.36 )
( 0.486 0.514 ))
(( 0.95 0.050000012 )
( 0.48 0.52 )))
((( 0.67 0.32999998 )
( 0.468 0.532 ))
(( 0.574 0.426 )
( 0.4 0.6 )))))
((((( 0.48 0.52 )
( 0.32 0.68 ))
(( 0.34 0.65999997 )
( 0.674 0.32599998 )))
((( 0.84 0.16000003 )
( 0.15 0.85 ))
(( 0.81 0.19 )
( 0.61 0.39 ))))
(((( 0.7 0.3 )
( 0.42 0.58000004 ))
(( 0.35 0.65 )
( 0.67 0.32999998 )))
((( 0.62 0.38 )
( 0.57 0.43 ))
(( 0.48 0.52 )
( 0.62 0.38 ))))))
(((((( 0.45 0.55 )
( 0.67 0.32999998 ))
(( 0.35 0.65 )
( 0.61 0.39 )))
((( 0.48 0.52 )
( 1.0 0.0 ))
(( 0.25 0.75 )
( 0.637 0.36299998 ))))
(((( 0.345 0.655 )
( 0.2 0.8 ))
(( 0.984 0.015999973 )
( 0.4 0.6 )))
((( 0.67 0.32999998 )
( 0.24 0.76 ))
(( 0.3 0.7 )
( 0.48 0.52 )))))
((((( 0.48 0.52 )
( 0.34 0.65999997 ))
(( 0.67 0.32999998 )
( 0.5 0.5 )))
((( 0.67 0.32999998 )
( 0.71 0.29000002 ))
(( 0.5 0.5 )
( 0.58 0.42000002 ))))
(((( 0.17 0.83 )
( 0.78 0.22000003 ))
(( 0.48 0.52 )
( 0.874 0.12599999 )))
((( 0.65 0.35000002 )
( 0.47 0.53 ))
(( 0.74 0.26 )
( 0.4865 0.5135 )))))
((((( 0.57 0.43 )
( 0.33 0.66999996 ))
(( 0.5 0.5 )
( 0.82 0.18 )))
((( 0.67 0.32999998 )
( 0.54 0.45999998 ))
(( 0.63 0.37 )
( 0.52 0.48000002 ))))
(((( 0.6 0.39999998 )
( 0.57 0.43 ))
(( 0.4 0.6 )
( 0.661 0.339 )))
((( 0.852 0.148 )
( 0.16 0.84000003 ))
(( 0.66 0.33999997 )
( 0.45 0.55 )))))))
((((((( 0.48 0.52 )
( 0.46 0.53999996 ))
(( 0.58 0.42000002 )
( 0.88 0.120000005 )))
((( 0.38 0.62 )
( 0.33 0.66999996 ))
(( 0.31 0.69 )
( 0.85 0.14999998 ))))
(((( 0.52 0.48000002 )
( 0.99 0.00999999 ))
(( 0.81 0.19 )
( 0.6 0.39999998 )))
((( 0.47 0.53 )
( 0.25 0.75 ))
(( 0.67 0.32999998 )
( 0.64 0.36 )))))
((((( 0.385 0.615 )
( 0.385 0.615 ))
(( 0.4 0.6 )
( 0.48 0.52 )))
((( 0.85 0.14999998 )
( 0.91 0.089999974 ))
(( 0.4 0.6 )
( 0.67 0.32999998 ))))
(((( 0.15 0.85 )
( 0.63 0.37 ))
(( 0.851 0.14899999 )
( 0.52 0.48000002 )))
((( 0.15 0.85 )
( 0.324 0.676 ))
(( 0.88 0.120000005 )
( 0.48 0.52 )))))
((((( 0.358 0.64199996 )
( 0.58 0.42000002 ))
(( 0.91 0.089999974 )
( 0.58 0.42000002 )))
((( 0.635 0.365 )
( 0.174 0.826 ))
(( 0.58 0.42000002 )
( 0.165 0.835 ))))
(((( 0.485 0.515 )
( 0.54 0.45999998 ))
(( 0.63 0.37 )
( 0.4568 0.5432 )))
((( 0.148 0.852 )
( 0.61 0.39 ))
(( 0.67 0.32999998 )
( 0.485 0.515 ))))))
(((((( 0.8 0.19999999 )
( 0.1749 0.8251 ))
(( 0.7 0.3 )
( 0.18 0.82 )))
((( 0.34 0.65999997 )
( 0.463 0.537 ))
(( 0.0874 0.9126 )
( 0.554 0.44599998 ))))
(((( 0.46 0.53999996 )
( 0.18 0.82 ))
(( 0.3 0.7 )
( 0.88 0.120000005 )))
((( 0.49 0.51 )
( 0.87 0.13 ))
(( 0.156 0.844 )
( 0.34 0.65999997 )))))
((((( 0.5 0.5 )
( 0.6 0.39999998 ))
(( 0.685 0.315 )
( 0.51 0.49 )))
((( 0.55 0.45 )
( 0.5 0.5 ))
(( 0.5 0.5 )
( 0.83 0.17000002 ))))
(((( 0.81 0.19 )
( 0.58 0.42000002 ))
(( 0.3 0.7 )
( 0.15 0.85 )))
((( 0.23 0.77 )
( 0.298 0.702 ))
(( 0.48 0.52 )
( 0.48 0.52 )))))
((((( 0.624 0.376 )
( 0.8 0.19999999 ))
(( 0.24 0.76 )
( 0.64 0.36 )))
((( 0.35 0.65 )
( 0.5 0.5 ))
(( 0.8 0.19999999 )
( 0.24 0.76 ))))
(((( 0.18 0.82 )
( 0.6 0.39999998 ))
(( 0.11 0.89 )
( 0.5 0.5 )))
((( 0.37 0.63 )
( 0.85 0.14999998 ))
(( 0.23 0.77 )
( 0.487 0.513 ))))))))
(((((((( 0.84 0.16000003 )
( 0.46 0.53999996 ))
(( 0.11 0.89 )
( 0.6574 0.3426 )))
((( 0.27 0.73 )
( 0.74 0.26 ))
(( 0.36 0.64 )
( 0.674 0.32599998 ))))
(((( 0.84 0.16000003 )
( 0.9 0.100000024 ))
(( 0.61 0.39 )
( 0.57 0.43 )))
((( 0.664 0.33600003 )
( 0.63 0.37 ))
(( 0.3 0.7 )
( 0.87 0.13 )))))
((((( 0.85 0.14999998 )
( 0.8 0.19999999 ))
(( 0.48 0.52 )
( 0.854 0.14600003 )))
((( 0.65 0.35000002 )
( 0.422 0.578 ))
(( 0.2458 0.7542 )
( 0.851 0.14899999 ))))
(((( 0.58 0.42000002 )
( 0.22 0.78 ))
(( 0.5241 0.4759 )
( 0.24 0.76 )))
((( 0.8 0.19999999 )
( 0.15 0.85 ))
(( 0.53 0.47000003 )
( 0.54 0.45999998 )))))
((((( 0.66 0.33999997 )
( 0.64 0.36 ))
(( 0.287 0.713 )
( 0.57 0.43 )))
((( 0.5 0.5 )
( 0.34 0.65999997 ))
(( 0.48 0.52 )
( 0.185 0.815 ))))
(((( 0.5 0.5 )
( 0.4 0.6 ))
(( 0.8 0.19999999 )
( 0.34 0.65999997 )))
((( 0.4 0.6 )
( 0.9 0.100000024 ))
(( 0.4 0.6 )
( 0.48 0.52 ))))))
(((((( 0.9841 0.015900016 )
( 0.64 0.36 ))
(( 0.93 0.06999999 )
( 0.25 0.75 )))
((( 0.324 0.676 )
( 0.61 0.39 ))
(( 0.48 0.52 )
( 0.48 0.52 ))))
(((( 0.248 0.752 )
( 0.03 0.97 ))
(( 0.15 0.85 )
( 0.6 0.39999998 )))
((( 0.85 0.14999998 )
( 0.64 0.36 ))
(( 0.345 0.655 )
( 0.58 0.42000002 )))))
((((( 0.5 0.5 )
( 0.487 0.513 ))
(( 0.47 0.53 )
( 0.55 0.45 )))
((( 0.3 0.7 )
( 0.64 0.36 ))
(( 0.2 0.8 )
( 0.48 0.52 ))))
(((( 0.648 0.352 )
( 0.234 0.76600003 ))
(( 0.36 0.64 )
( 0.8 0.19999999 )))
((( 0.32 0.68 )
( 0.31 0.69 ))
(( 0.9 0.100000024 )
( 0.8 0.19999999 )))))
((((( 0.6 0.39999998 )
( 0.47 0.53 ))
(( 0.4 0.6 )
( 0.84 0.16000003 )))
((( 0.354 0.646 )
( 0.2 0.8 ))
(( 0.82 0.18 )
( 0.63 0.37 ))))
(((( 0.6 0.39999998 )
( 0.214 0.786 ))
(( 0.66 0.33999997 )
( 0.57 0.43 )))
((( 0.1 0.9 )
( 0.48 0.52 ))
(( 0.54 0.45999998 )
( 0.8 0.19999999 )))))))
((((((( 0.52 0.48000002 )
( 0.4 0.6 ))
(( 0.5 0.5 )
( 0.69 0.31 )))
((( 0.6 0.39999998 )
( 0.8 0.19999999 ))
(( 0.32 0.68 )
( 0.8 0.19999999 ))))
(((( 0.48 0.52 )
( 0.287 0.713 ))
(( 0.5 0.5 )
( 0.854 0.14600003 )))
((( 0.4 0.6 )
( 0.185 0.815 ))
(( 0.48 0.52 )
( 0.247 0.753 )))))
((((( 0.57 0.43 )
( 0.34 0.65999997 ))
(( 0.84 0.16000003 )
( 0.713 0.287 )))
((( 0.8 0.19999999 )
( 0.18 0.82 ))
(( 0.287 0.713 )
( 0.32 0.68 ))))
(((( 0.528 0.472 )
( 0.24 0.76 ))
(( 0.53 0.47000003 )
( 0.48 0.52 )))
((( 0.565 0.435 )
( 0.4 0.6 ))
(( 0.55 0.45 )
( 0.36 0.64 )))))
((((( 0.28 0.72 )
( 0.37 0.63 ))
(( 0.48 0.52 )
( 0.66 0.33999997 )))
((( 0.38 0.62 )
( 0.48 0.52 ))
(( 0.71 0.29000002 )
( 0.44 0.56 ))))
(((( 0.53 0.47000003 )
( 0.35 0.65 ))
(( 0.34 0.65999997 )
( 0.35 0.65 )))
((( 0.1 0.9 )
( 0.56 0.44 ))
(( 0.874 0.12599999 )
( 0.48 0.52 ))))))
(((((( 0.4 0.6 )
( 0.63 0.37 ))
(( 0.67 0.32999998 )
( 0.6 0.39999998 )))
((( 0.84 0.16000003 )
( 0.48 0.52 ))
(( 0.8 0.19999999 )
( 0.6 0.39999998 ))))
(((( 0.58 0.42000002 )
( 0.634 0.366 ))
(( 0.43 0.57 )
( 0.14 0.86 )))
((( 0.37 0.63 )
( 0.91 0.089999974 ))
(( 0.58 0.42000002 )
( 0.44 0.56 )))))
((((( 0.2 0.8 )
( 0.354 0.646 ))
(( 0.47 0.53 )
( 0.74 0.26 )))
((( 0.67 0.32999998 )
( 0.52 0.48000002 ))
(( 0.84 0.16000003 )
( 0.57 0.43 ))))
(((( 0.77 0.23000002 )
( 0.67 0.32999998 ))
(( 0.523 0.477 )
( 0.354 0.646 )))
((( 0.3 0.7 )
( 0.48 0.52 ))
(( 0.6 0.39999998 )
( 0.458 0.542 )))))
((((( 0.8 0.19999999 )
( 0.18 0.82 ))
(( 0.94 0.060000002 )
( 1.0 0.0 )))
((( 1.0 0.0 )
( 0.47 0.53 ))
(( 0.69 0.31 )
( 0.3 0.7 ))))
(((( 0.53 0.47000003 )
( 0.48 0.52 ))
(( 0.67 0.32999998 )
( 0.38 0.62 )))
((( 0.8 0.19999999 )
( 0.8 0.19999999 ))
(( 0.185 0.815 )
( 0.5 0.5 )))))))));
}

potential (OriginKnown)
{
 data = ( 0.5 0.5 );
}

potential (RestfulPrivilegeElevation | Persistent Automated OriginKnown Duration Aggresive Advanced Targeted Stealthy)
{
 data = ((((((((( 0.34 0.65999997 )
( 0.3 0.7 ))
(( 0.8 0.19999999 )
( 0.478 0.522 )))
((( 0.48 0.52 )
( 0.86 0.13999999 ))
(( 0.4 0.6 )
( 0.385 0.615 ))))
(((( 0.48 0.52 )
( 0.5 0.5 ))
(( 0.4 0.6 )
( 0.58 0.42000002 )))
((( 0.7 0.3 )
( 0.47 0.53 ))
(( 0.8 0.19999999 )
( 0.24 0.76 )))))
((((( 0.36 0.64 )
( 0.58 0.42000002 ))
(( 0.3 0.7 )
( 0.47 0.53 )))
((( 0.67 0.32999998 )
( 0.64 0.36 ))
(( 0.63 0.37 )
( 0.235 0.765 ))))
(((( 0.25 0.75 )
( 0.486 0.514 ))
(( 0.4 0.6 )
( 0.48 0.52 )))
((( 0.8 0.19999999 )
( 0.468 0.532 ))
(( 0.574 0.426 )
( 0.554 0.44599998 )))))
((((( 0.48 0.52 )
( 0.32 0.68 ))
(( 0.64 0.36 )
( 0.674 0.32599998 )))
((( 0.84 0.16000003 )
( 0.485 0.515 ))
(( 0.81 0.19 )
( 0.61 0.39 ))))
(((( 0.28 0.72 )
( 0.84 0.16000003 ))
(( 0.39 0.61 )
( 0.67 0.32999998 )))
((( 0.62 0.38 )
( 0.18 0.82 ))
(( 0.67 0.32999998 )
( 0.62 0.38 ))))))
(((((( 0.45 0.55 )
( 0.48 0.52 ))
(( 0.62 0.38 )
( 0.61 0.39 )))
((( 0.67 0.32999998 )
( 1.0 0.0 ))
(( 0.24 0.76 )
( 0.58 0.42000002 ))))
(((( 0.345 0.655 )
( 0.27 0.73 ))
(( 0.984 0.015999973 )
( 0.67 0.32999998 )))
((( 0.67 0.32999998 )
( 0.68 0.32 ))
(( 0.3 0.7 )
( 0.33 0.66999996 )))))
((((( 0.28 0.72 )
( 0.34 0.65999997 ))
(( 0.67 0.32999998 )
( 0.49 0.51 )))
((( 0.67 0.32999998 )
( 0.71 0.29000002 ))
(( 0.325 0.675 )
( 0.58 0.42000002 ))))
(((( 0.17 0.83 )
( 0.78 0.22000003 ))
(( 0.528 0.472 )
( 0.874 0.12599999 )))
((( 0.65 0.35000002 )
( 0.58 0.42000002 ))
(( 0.6 0.39999998 )
( 0.374 0.626 )))))
((((( 0.57 0.43 )
( 0.33 0.66999996 ))
(( 0.48 0.52 )
( 0.99 0.00999999 )))
((( 0.58 0.42000002 )
( 0.54 0.45999998 ))
(( 0.63 0.37 )
( 0.8 0.19999999 ))))
(((( 0.574 0.426 )
( 0.57 0.43 ))
(( 0.58 0.42000002 )
( 0.661 0.339 )))
((( 0.85 0.14999998 )
( 0.16 0.84000003 ))
(( 0.66 0.33999997 )
( 0.34 0.65999997 )))))))
((((((( 0.48 0.52 )
( 0.69 0.31 ))
(( 0.58 0.42000002 )
( 0.699 0.301 )))
((( 0.38 0.62 )
( 0.58 0.42000002 ))
(( 0.31 0.69 )
( 0.81 0.19 ))))
(((( 0.52 0.48000002 )
( 0.85 0.14999998 ))
(( 0.81 0.19 )
( 0.54 0.45999998 )))
((( 0.47 0.53 )
( 0.41 0.59000003 ))
(( 0.366 0.634 )
( 0.64 0.36 )))))
((((( 0.694 0.306 )
( 0.385 0.615 ))
(( 0.58 0.42000002 )
( 0.48 0.52 )))
((( 0.85 0.14999998 )
( 0.48 0.52 ))
(( 0.66 0.33999997 )
( 0.85 0.14999998 ))))
(((( 0.15 0.85 )
( 0.65 0.35000002 ))
(( 0.851 0.14899999 )
( 0.18 0.82 )))
((( 0.67 0.32999998 )
( 0.64 0.36 ))
(( 0.88 0.120000005 )
( 0.34 0.65999997 )))))
((((( 0.324 0.676 )
( 0.48 0.52 ))
(( 0.91 0.089999974 )
( 0.49 0.51 )))
((( 0.635 0.365 )
( 0.6587 0.3413 ))
(( 0.64 0.36 )
( 0.165 0.835 ))))
(((( 0.55 0.45 )
( 0.54 0.45999998 ))
(( 0.48 0.52 )
( 0.67 0.32999998 )))
((( 0.37 0.63 )
( 0.61 0.39 ))
(( 0.5278 0.47219998 )
( 0.47 0.53 ))))))
(((((( 0.8 0.19999999 )
( 0.674 0.32599998 ))
(( 0.7 0.3 )
( 0.34 0.65999997 )))
((( 0.34 0.65999997 )
( 0.16 0.84000003 ))
(( 0.0874 0.9126 )
( 0.48 0.52 ))))
(((( 0.46 0.53999996 )
( 0.18 0.82 ))
(( 547.0 -546.0 )
( 0.88 0.120000005 )))
((( 0.49 0.51 )
( 0.487 0.513 ))
(( 0.156 0.844 )
( 0.34 0.65999997 )))))
((((( 0.47 0.53 )
( 0.6 0.39999998 ))
(( 0.685 0.315 )
( 0.51 0.49 )))
((( 0.55 0.45 )
( 0.5 0.5 ))
(( 0.185 0.815 )
( 0.88 0.120000005 ))))
(((( 0.64 0.36 )
( 0.58 0.42000002 ))
(( 0.3 0.7 )
( 0.35 0.65 )))
((( 0.23 0.77 )
( 0.18 0.82 ))
(( 0.48 0.52 )
( 0.15 0.85 )))))
((((( 0.524 0.476 )
( 0.8 0.19999999 ))
(( 0.24 0.76 )
( 0.27 0.73 )))
((( 0.35 0.65 )
( 0.5 0.5 ))
(( 0.5687 0.43129998 )
( 0.24 0.76 ))))
(((( 0.18 0.82 )
( 0.58 0.42000002 ))
(( 0.11 0.89 )
( 0.57 0.43 )))
((( 0.37 0.63 )
( 0.567 0.43300003 ))
(( 0.23 0.77 )
( 0.487 0.513 ))))))))
(((((((( 0.64 0.36 )
( 0.341 0.65900004 ))
(( 0.11 0.89 )
( 0.43 0.57 )))
((( 0.27 0.73 )
( 0.74 0.26 ))
(( 0.411 0.589 )
( 0.674 0.32599998 ))))
(((( 0.11 0.89 )
( 0.9 0.100000024 ))
(( 0.81 0.19 )
( 0.57 0.43 )))
((( 0.3485 0.6515 )
( 0.63 0.37 ))
(( 0.3 0.7 )
( 0.87 0.13 )))))
((((( 0.48 0.52 )
( 0.8 0.19999999 ))
(( 0.48 0.52 )
( 0.38 0.62 )))
((( 0.65 0.35000002 )
( 0.48 0.52 ))
(( 0.578 0.422 )
( 0.851 0.14899999 ))))
(((( 0.35 0.65 )
( 0.22 0.78 ))
(( 0.41 0.59000003 )
( 0.24 0.76 )))
((( 0.14 0.86 )
( 0.254 0.746 ))
(( 0.53 0.47000003 )
( 0.186 0.814 )))))
((((( 0.66 0.33999997 )
( 0.64 0.36 ))
(( 0.64 0.36 )
( 0.57 0.43 )))
((( 0.69 0.31 )
( 0.91 0.089999974 ))
(( 0.48 0.52 )
( 0.48 0.52 ))))
(((( 0.89 0.110000014 )
( 0.4 0.6 ))
(( 0.8 0.19999999 )
( 0.3 0.7 )))
((( 0.4 0.6 )
( 0.9 0.100000024 ))
(( 0.5 0.5 )
( 0.48 0.52 ))))))
(((((( 0.64 0.36 )
( 0.48 0.52 ))
(( 0.93 0.06999999 )
( 0.47 0.53 )))
((( 0.585 0.41500002 )
( 0.61 0.39 ))
(( 0.137 0.86300004 )
( 0.48 0.52 ))))
(((( 0.548 0.45200002 )
( 0.813 0.18699998 ))
(( 0.57 0.43 )
( 0.65 0.35000002 )))
((( 0.85 0.14999998 )
( 0.5 0.5 ))
(( 0.345 0.655 )
( 0.3 0.7 )))))
((((( 0.5 0.5 )
( 0.487 0.513 ))
(( 0.47 0.53 )
( 0.55 0.45 )))
((( 0.44 0.56 )
( 0.4 0.6 ))
(( 0.258 0.742 )
( 0.48 0.52 ))))
(((( 0.648 0.352 )
( 0.234 0.76600003 ))
(( 0.2 0.8 )
( 0.4 0.6 )))
((( 0.22 0.78 )
( 0.85 0.14999998 ))
(( 0.8 0.19999999 )
( 0.8 0.19999999 )))))
((((( 0.63 0.37 )
( 0.47 0.53 ))
(( 0.4 0.6 )
( 0.85 0.14999998 )))
((( 0.354 0.646 )
( 0.2 0.8 ))
(( 0.48 0.52 )
( 0.46 0.53999996 ))))
(((( 0.6 0.39999998 )
( 0.2 0.8 ))
(( 0.66 0.33999997 )
( 0.57 0.43 )))
((( 0.15 0.85 )
( 0.48 0.52 ))
(( 0.54 0.45999998 )
( 0.32 0.68 )))))))
((((((( 0.52 0.48000002 )
( 0.4 0.6 ))
(( 0.58 0.42000002 )
( 0.69 0.31 )))
((( 0.6 0.39999998 )
( 0.64 0.36 ))
(( 0.5 0.5 )
( 0.8 0.19999999 ))))
(((( 0.48 0.52 )
( 0.65 0.35000002 ))
(( 0.5 0.5 )
( 0.854 0.14600003 )))
((( 0.58 0.42000002 )
( 0.671 0.329 ))
(( 0.48 0.52 )
( 0.685 0.315 )))))
((((( 0.57 0.43 )
( 0.64 0.36 ))
(( 0.84 0.16000003 )
( 0.713 0.287 )))
((( 0.8 0.19999999 )
( 0.235 0.765 ))
(( 0.287 0.713 )
( 0.25 0.75 ))))
(((( 0.528 0.472 )
( 0.58 0.42000002 ))
(( 0.14 0.86 )
( 0.48 0.52 )))
((( 0.486 0.514 )
( 0.4 0.6 ))
(( 0.654 0.34600002 )
( 0.36 0.64 )))))
((((( 0.28 0.72 )
( 0.58 0.42000002 ))
(( 0.48 0.52 )
( 0.66 0.33999997 )))
((( 0.34 0.65999997 )
( 0.28 0.72 ))
(( 0.71 0.29000002 )
( 0.8 0.19999999 ))))
(((( 0.48 0.52 )
( 0.35 0.65 ))
(( 0.46 0.53999996 )
( 0.25 0.75 )))
((( 0.1 0.9 )
( 0.56 0.44 ))
(( 0.648 0.352 )
( 0.48 0.52 ))))))
(((((( 1.0 0.0 )
( 0.63 0.37 ))
(( 0.523 0.477 )
( 0.6 0.39999998 )))
((( 0.84 0.16000003 )
( 0.65 0.35000002 ))
(( 0.7 0.3 )
( 0.6 0.39999998 ))))
(((( 0.6 0.39999998 )
( 0.634 0.366 ))
(( 0.69 0.31 )
( 0.14 0.86 )))
((( 0.37 0.63 )
( 0.969 0.031000018 ))
(( 0.58 0.42000002 )
( 0.634 0.366 )))))
((((( 0.48 0.52 )
( 0.354 0.646 ))
(( 0.47 0.53 )
( 0.05 0.95 )))
((( 0.67 0.32999998 )
( 0.52 0.48000002 ))
(( 0.5 0.5 )
( 0.57 0.43 ))))
(((( 0.77 0.23000002 )
( 0.634 0.366 ))
(( 0.64 0.36 )
( 0.354 0.646 )))
((( 0.44 0.56 )
( 0.48 0.52 ))
(( 0.9 0.100000024 )
( 0.5 0.5 )))))
((((( 0.8 0.19999999 )
( 0.18 0.82 ))
(( 0.94 0.060000002 )
( 0.05 0.95 )))
((( 1.0 0.0 )
( 0.47 0.53 ))
(( 0.45 0.55 )
( 0.3 0.7 ))))
(((( 0.15 0.85 )
( 0.5 0.5 ))
(( 0.67 0.32999998 )
( 0.38 0.62 )))
((( 0.23 0.77 )
( 0.8 0.19999999 ))
(( 0.54 0.45999998 )
( 0.85 0.14999998 )))))))));
}

potential (ModifySharedFiles | Duration Stealthy OriginKnown Targeted Automated Advanced Aggresive Persistent)
{
 data = ((((((((( 0.34 0.65999997 )
( 0.3 0.7 ))
(( 0.58 0.42000002 )
( 0.478 0.522 )))
((( 0.18 0.82 )
( 0.86 0.13999999 ))
(( 0.568 0.43199998 )
( 0.9 0.100000024 ))))
(((( 0.58 0.42000002 )
( 0.4 0.6 ))
(( 0.4 0.6 )
( 0.64 0.36 )))
((( 0.7 0.3 )
( 0.658 0.342 ))
(( 0.1 0.9 )
( 0.858 0.14200002 )))))
((((( 0.36 0.64 )
( 0.48 0.52 ))
(( 0.3 0.7 )
( 0.68 0.32 )))
((( 0.7 0.3 )
( 0.69 0.31 ))
(( 0.63 0.37 )
( 0.848 0.15200001 ))))
(((( 0.68 0.32 )
( 0.486 0.514 ))
(( 0.89 0.110000014 )
( 0.48 0.52 )))
((( 0.687 0.31300002 )
( 0.468 0.532 ))
(( 0.85 0.14999998 )
( 0.4 0.6 ))))))
(((((( 0.48 0.52 )
( 0.32 0.68 ))
(( 0.58 0.42000002 )
( 0.674 0.32599998 )))
((( 0.68 0.32 )
( 0.48 0.52 ))
(( 0.84 0.16000003 )
( 0.61 0.39 ))))
(((( 0.185 0.815 )
( 0.84 0.16000003 ))
(( 0.634 0.366 )
( 0.8 0.19999999 )))
((( 0.48 0.52 )
( 0.57 0.43 ))
(( 0.58 0.42000002 )
( 0.62 0.38 )))))
((((( 0.88 0.120000005 )
( 0.67 0.32999998 ))
(( 0.62 0.38 )
( 0.61 0.39 )))
((( 0.858 0.14200002 )
( 1.0 0.0 ))
(( 0.5748 0.4252 )
( 0.637 0.36299998 ))))
(((( 0.654 0.34600002 )
( 0.27 0.73 ))
(( 0.3325 0.6675 )
( 0.4 0.6 )))
((( 0.58 0.42000002 )
( 0.24 0.76 ))
(( 1.0 0.0 )
( 0.33 0.66999996 )))))))
((((((( 0.48 0.52 )
( 0.48 0.52 ))
(( 0.67 0.32999998 )
( 0.58 0.42000002 )))
((( 0.67 0.32999998 )
( 0.634 0.366 ))
(( 0.687 0.31300002 )
( 0.18 0.82 ))))
(((( 0.17 0.83 )
( 0.88 0.120000005 ))
(( 0.65 0.35000002 )
( 0.518 0.482 )))
((( 0.65 0.35000002 )
( 0.48 0.52 ))
(( 0.84 0.16000003 )
( 0.4865 0.5135 )))))
((((( 0.84 0.16000003 )
( 0.33 0.66999996 ))
(( 0.5 0.5 )
( 0.99 0.00999999 )))
((( 0.67 0.32999998 )
( 0.54 0.45999998 ))
(( 0.64 0.36 )
( 0.8 0.19999999 ))))
(((( 0.574 0.426 )
( 0.48 0.52 ))
(( 0.4 0.6 )
( 0.661 0.339 )))
((( 0.43 0.57 )
( 0.16 0.84000003 ))
(( 0.25 0.75 )
( 0.45 0.55 ))))))
(((((( 0.48 0.52 )
( 0.55 0.45 ))
(( 0.185 0.815 )
( 0.88 0.120000005 )))
((( 0.38 0.62 )
( 0.33 0.66999996 ))
(( 0.31 0.69 )
( 0.185 0.815 ))))
(((( 0.52 0.48000002 )
( 0.584 0.416 ))
(( 0.81 0.19 )
( 0.4 0.6 )))
((( 0.47 0.53 )
( 0.25 0.75 ))
(( 0.67 0.32999998 )
( 0.46 0.53999996 )))))
((((( 0.385 0.615 )
( 0.34 0.65999997 ))
(( 0.22 0.78 )
( 0.6 0.39999998 )))
((( 0.858 0.14200002 )
( 0.8787 0.12129998 ))
(( 0.66 0.33999997 )
( 0.67 0.32999998 ))))
(((( 0.18 0.82 )
( 0.63 0.37 ))
(( 0.851 0.14899999 )
( 0.4 0.6 )))
((( 0.67 0.32999998 )
( 0.97 0.029999971 ))
(( 0.88 0.120000005 )
( 0.48 0.52 ))))))))
(((((((( 0.46 0.53999996 )
( 0.58 0.42000002 ))
(( 0.67 0.32999998 )
( 0.58 0.42000002 )))
((( 0.635 0.365 )
( 0.174 0.826 ))
(( 0.64 0.36 )
( 0.165 0.835 ))))
(((( 0.374 0.626 )
( 0.54 0.45999998 ))
(( 0.148 0.852 )
( 0.67 0.32999998 )))
((( 0.148 0.852 )
( 0.61 0.39 ))
(( 0.67 0.32999998 )
( 0.47 0.53 )))))
((((( 0.46 0.53999996 )
( 0.1749 0.8251 ))
(( 0.7 0.3 )
( 0.18 0.82 )))
((( 0.34 0.65999997 )
( 0.81 0.19 ))
(( 0.0874 0.9126 )
( 0.48 0.52 ))))
(((( 0.46 0.53999996 )
( 0.64 0.36 ))
(( 0.637 0.36299998 )
( 0.88 0.120000005 )))
((( 0.48 0.52 )
( 0.87 0.13 ))
(( 0.25 0.75 )
( 0.34 0.65999997 ))))))
(((((( 0.47 0.53 )
( 0.64 0.36 ))
(( 0.685 0.315 )
( 0.51 0.49 )))
((( 0.64 0.36 )
( 0.5 0.5 ))
(( 0.5 0.5 )
( 0.8 0.19999999 ))))
(((( 0.81 0.19 )
( 0.58 0.42000002 ))
(( 0.18 0.82 )
( 0.81 0.19 )))
((( 0.55 0.45 )
( 0.298 0.702 ))
(( 0.65 0.35000002 )
( 0.15 0.85 )))))
((((( 0.624 0.376 )
( 0.61 0.39 ))
(( 0.24 0.76 )
( 0.6 0.39999998 )))
((( 0.35 0.65 )
( 0.5 0.5 ))
(( 0.5 0.5 )
( 0.24 0.76 ))))
(((( 0.18 0.82 )
( 0.5 0.5 ))
(( 0.11 0.89 )
( 0.57 0.43 )))
((( 0.37 0.63 )
( 0.588 0.412 ))
(( 0.23 0.77 )
( 0.487 0.513 )))))))
((((((( 0.641 0.35900003 )
( 0.341 0.65900004 ))
(( 0.11 0.89 )
( 0.34 0.65999997 )))
((( 0.27 0.73 )
( 0.58 0.42000002 ))
(( 0.75 0.25 )
( 0.674 0.32599998 ))))
(((( 0.185 0.815 )
( 0.9 0.100000024 ))
(( 0.48 0.52 )
( 0.5 0.5 )))
((( 0.664 0.33600003 )
( 0.63 0.37 ))
(( 0.34 0.65999997 )
( 0.87 0.13 )))))
((((( 0.4 0.6 )
( 0.548 0.45200002 ))
(( 0.48 0.52 )
( 0.77 0.23000002 )))
((( 0.65 0.35000002 )
( 0.88 0.120000005 ))
(( 0.578 0.422 )
( 0.851 0.14899999 ))))
(((( 0.61 0.39 )
( 0.22 0.78 ))
(( 0.54 0.45999998 )
( 0.91 0.089999974 )))
((( 0.8 0.19999999 )
( 0.254 0.746 ))
(( 0.588 0.412 )
( 0.54 0.45999998 ))))))
(((((( 0.66 0.33999997 )
( 0.64 0.36 ))
(( 0.48 0.52 )
( 0.57 0.43 )))
((( 0.69 0.31 )
( 0.34 0.65999997 ))
(( 0.48 0.52 )
( 0.58 0.42000002 ))))
(((( 0.5 0.5 )
( 0.4 0.6 ))
(( 0.34 0.65999997 )
( 0.34 0.65999997 )))
((( 0.4 0.6 )
( 0.9 0.100000024 ))
(( 0.18 0.82 )
( 0.48 0.52 )))))
((((( 0.9841 0.015900016 )
( 0.64 0.36 ))
(( 0.93 0.06999999 )
( 0.64 0.36 )))
((( 0.324 0.676 )
( 0.61 0.39 ))
(( 0.137 0.86300004 )
( 0.58 0.42000002 ))))
(((( 0.248 0.752 )
( 0.813 0.18699998 ))
(( 0.57 0.43 )
( 0.6 0.39999998 )))
((( 0.64 0.36 )
( 0.64 0.36 ))
(( 0.345 0.655 )
( 0.58 0.42000002 ))))))))
(((((((( 0.525 0.47500002 )
( 0.487 0.513 ))
(( 0.47 0.53 )
( 0.55 0.45 )))
((( 0.2 0.8 )
( 0.64 0.36 ))
(( 0.258 0.742 )
( 0.18 0.82 ))))
(((( 0.648 0.352 )
( 0.234 0.76600003 ))
(( 0.34 0.65999997 )
( 0.4 0.6 )))
((( 0.32 0.68 )
( 0.31 0.69 ))
(( 0.588 0.412 )
( 0.8 0.19999999 )))))
((((( 0.99 0.00999999 )
( 0.69 0.31 ))
(( 0.4 0.6 )
( 0.55 0.45 )))
((( 0.58 0.42000002 )
( 0.2 0.8 ))
(( 0.82 0.18 )
( 0.46 0.53999996 ))))
(((( 0.858 0.14200002 )
( 0.214 0.786 ))
(( 0.66 0.33999997 )
( 0.13 0.87 )))
((( 0.7 0.3 )
( 0.48 0.52 ))
(( 0.54 0.45999998 )
( 0.58 0.42000002 ))))))
(((((( 0.52 0.48000002 )
( 0.4 0.6 ))
(( 0.5 0.5 )
( 0.64 0.36 )))
((( 0.6 0.39999998 )
( 0.8 0.19999999 ))
(( 0.48 0.52 )
( 0.8 0.19999999 ))))
(((( 0.48 0.52 )
( 0.25 0.75 ))
(( 0.5 0.5 )
( 0.854 0.14600003 )))
((( 0.34 0.65999997 )
( 0.671 0.329 ))
(( 0.48 0.52 )
( 0.895 0.10500002 )))))
((((( 0.57 0.43 )
( 0.58 0.42000002 ))
(( 0.84 0.16000003 )
( 0.713 0.287 )))
((( 0.64 0.36 )
( 0.18 0.82 ))
(( 0.287 0.713 )
( 0.58 0.42000002 ))))
(((( 0.528 0.472 )
( 0.24 0.76 ))
(( 0.7 0.3 )
( 0.48 0.52 )))
((( 0.565 0.435 )
( 0.64 0.36 ))
(( 0.87 0.13 )
( 0.36 0.64 )))))))
((((((( 0.28 0.72 )
( 0.37 0.63 ))
(( 0.528 0.472 )
( 0.66 0.33999997 )))
((( 0.38 0.62 )
( 0.28 0.72 ))
(( 0.15 0.85 )
( 0.44 0.56 ))))
(((( 0.48 0.52 )
( 0.634 0.366 ))
(( 0.34 0.65999997 )
( 0.25 0.75 )))
((( 0.8 0.19999999 )
( 0.56 0.44 ))
(( 0.874 0.12599999 )
( 0.48 0.52 )))))
((((( 0.547 0.453 )
( 0.63 0.37 ))
(( 0.67 0.32999998 )
( 0.6 0.39999998 )))
((( 0.18 0.82 )
( 0.48 0.52 ))
(( 0.7 0.3 )
( 0.6574 0.3426 ))))
(((( 0.58 0.42000002 )
( 0.634 0.366 ))
(( 0.89 0.110000014 )
( 0.8 0.19999999 )))
((( 0.37 0.63 )
( 0.91 0.089999974 ))
(( 0.48 0.52 )
( 0.44 0.56 ))))))
(((((( 0.48 0.52 )
( 0.57 0.43 ))
(( 0.47 0.53 )
( 0.85 0.14999998 )))
((( 0.34 0.65999997 )
( 0.52 0.48000002 ))
(( 0.84 0.16000003 )
( 0.57 0.43 ))))
(((( 0.528 0.472 )
( 0.67 0.32999998 ))
(( 0.64 0.36 )
( 0.354 0.646 )))
((( 0.654 0.34600002 )
( 0.48 0.52 ))
(( 1.0 0.0 )
( 1.0 0.0 )))))
((((( 0.58 0.42000002 )
( 0.18 0.82 ))
(( 0.94 0.060000002 )
( 0.84 0.16000003 )))
((( 1.0 0.0 )
( 0.47 0.53 ))
(( 0.48 0.52 )
( 0.3 0.7 ))))
(((( 0.15 0.85 )
( 0.587 0.413 ))
(( 0.67 0.32999998 )
( 0.38 0.62 )))
((( 0.48 0.52 )
( 0.8 0.19999999 ))
(( 0.54 0.45999998 )
( 0.5 0.5 )))))))));
}

potential (AddMaliciousFileToSharedWebroot | Duration Stealthy OriginKnown Targeted Automated Advanced Persistent Aggresive)
{
 data = ((((((((( 0.0166 0.9834 )
( 0.3 0.7 ))
(( 0.984 0.015999973 )
( 0.478 0.522 )))
((( 0.8874 0.11260003 )
( 0.86 0.13999999 ))
(( 0.5648 0.43519998 )
( 0.184 0.816 ))))
(((( 0.48 0.52 )
( 0.4 0.6 ))
(( 0.485 0.515 )
( 0.48 0.52 )))
((( 0.6 0.39999998 )
( 0.8 0.19999999 ))
(( 0.1 0.9 )
( 0.24 0.76 )))))
((((( 0.88 0.120000005 )
( 0.47 0.53 ))
(( 0.64 0.36 )
( 0.47 0.53 )))
((( 0.7 0.3 )
( 0.8 0.19999999 ))
(( 0.63 0.37 )
( 0.34 0.65999997 ))))
(((( 0.25 0.75 )
( 0.486 0.514 ))
(( 0.48 0.52 )
( 0.48 0.52 )))
((( 0.25 0.75 )
( 0.6385 0.36150002 ))
(( 0.574 0.426 )
( 0.4 0.6 ))))))
(((((( 0.8 0.19999999 )
( 0.32 0.68 ))
(( 0.64 0.36 )
( 0.674 0.32599998 )))
((( 0.285 0.71500003 )
( 0.48 0.52 ))
(( 0.18 0.82 )
( 0.61 0.39 ))))
(((( 0.7 0.3 )
( 0.634 0.366 ))
(( 0.35 0.65 )
( 0.67 0.32999998 )))
((( 0.58 0.42 )
( 0.57 0.43 ))
(( 0.67 0.33 )
( 0.62 0.38 )))))
((((( 0.45 0.55 )
( 0.58 0.42 ))
(( 0.62 0.38 )
( 0.61 0.39 )))
((( 0.18 0.82 )
( 1.0 0.0 ))
(( 0.24 0.76 )
( 0.64 0.36 ))))
(((( 0.345 0.655 )
( 0.27 0.73 ))
(( 0.634 0.366 )
( 0.4 0.6 )))
((( 0.67 0.33 )
( 0.8 0.2 ))
(( 0.3 0.7 )
( 0.33 0.67 )))))))
((((((( 0.48 0.52 )
( 0.34 0.66 ))
(( 0.67 0.33 )
( 0.25 0.75 )))
((( 0.67 0.33 )
( 0.71 0.29 ))
(( 0.1 0.9 )
( 0.505 0.495 ))))
(((( 0.17 0.83 )
( 0.78 0.22 ))
(( 0.74 0.26 )
( 0.874 0.126 )))
((( 0.4 0.6 )
( 0.6 0.4 ))
(( 0.88 0.12 )
( 0.4865 0.5135 )))))
((((( 0.57 0.43 )
( 0.33 0.67 ))
(( 0.325 0.675 )
( 0.99 0.01 )))
((( 0.67 0.33 )
( 0.84 0.16 ))
(( 0.63 0.37 )
( 0.42 0.58000004 ))))
(((( 0.574 0.426 )
( 0.57 0.43 ))
(( 0.58 0.42000002 )
( 0.661 0.339 )))
((( 0.34 0.65999997 )
( 0.64 0.36 ))
(( 0.66 0.33999997 )
( 0.45 0.55 ))))))
(((((( 0.34 0.65999997 )
( 0.23 0.77 ))
(( 0.28 0.72 )
( 0.88 0.120000005 )))
((( 0.22 0.78 )
( 0.058 0.94200003 ))
(( 0.31 0.69 )
( 0.654 0.34600002 ))))
(((( 0.52 0.48000002 )
( 0.452 0.548 ))
(( 0.81 0.19 )
( 0.585 0.41500002 )))
((( 0.47 0.53 )
( 0.233 0.767 ))
(( 0.67 0.32999998 )
( 0.64 0.36 )))))
((((( 0.48 0.52 )
( 0.385 0.615 ))
(( 0.91 0.089999974 )
( 0.48 0.52 )))
((( 0.85 0.14999998 )
( 0.91 0.089999974 ))
(( 0.66 0.33999997 )
( 0.254 0.746 ))))
(((( 0.15 0.85 )
( 0.64 0.36 ))
(( 0.851 0.14899999 )
( 0.53 0.47000003 )))
((( 0.54 0.45999998 )
( 0.324 0.676 ))
(( 0.48 0.52 )
( 0.48 0.52 ))))))))
(((((((( 0.324 0.676 )
( 0.8 0.19999999 ))
(( 0.91 0.089999974 )
( 0.58 0.42000002 )))
((( 0.7 0.3 )
( 0.174 0.826 ))
(( 0.66 0.33999997 )
( 0.4185 0.5815 ))))
(((( 0.485 0.515 )
( 0.54 0.45999998 ))
(( 0.84 0.16000003 )
( 0.67 0.32999998 )))
((( 0.88 0.120000005 )
( 0.61 0.39 ))
(( 1.0 0.0 )
( 0.47 0.53 )))))
((((( 0.8 0.19999999 )
( 0.91 0.089999974 ))
(( 0.7 0.3 )
( 0.64 0.36 )))
((( 0.34 0.65999997 )
( 0.4 0.6 ))
(( 0.0874 0.9126 )
( 0.554 0.44599998 ))))
(((( 0.4 0.6 )
( 0.18 0.82 ))
(( 0.65 0.35000002 )
( 0.88 0.120000005 )))
((( 0.64 0.36 )
( 0.87 0.13 ))
(( 0.156 0.844 )
( 0.34 0.65999997 ))))))
(((((( 0.47 0.53 )
( 0.6 0.39999998 ))
(( 0.52 0.48000002 )
( 0.51 0.49 )))
((( 0.25 0.75 )
( 0.5 0.5 ))
(( 0.5 0.5 )
( 0.88 0.120000005 ))))
(((( 0.81 0.19 )
( 0.58 0.42000002 ))
(( 0.8 0.19999999 )
( 0.81 0.19 )))
((( 0.23 0.77 )
( 0.752 0.24800003 ))
(( 0.48 0.52 )
( 0.57 0.43 )))))
((((( 0.624 0.376 )
( 0.75 0.25 ))
(( 0.24 0.76 )
( 0.4 0.6 )))
((( 0.35 0.65 )
( 0.5 0.5 ))
(( 0.54 0.45999998 )
( 0.24 0.76 ))))
(((( 0.18 0.82 )
( 0.654 0.34600002 ))
(( 0.11 0.89 )
( 0.57 0.43 )))
((( 0.54 0.45999998 )
( 0.85 0.14999998 ))
(( 0.23 0.77 )
( 0.487 0.513 )))))))
((((((( 0.84 0.16000003 )
( 0.341 0.65900004 ))
(( 0.11 0.89 )
( 0.8 0.19999999 )))
((( 0.27 0.73 )
( 0.74 0.26 ))
(( 0.554 0.44599998 )
( 0.674 0.32599998 ))))
(((( 0.84 0.16000003 )
( 0.654 0.34600002 ))
(( 0.48 0.52 )
( 0.57 0.43 )))
((( 0.456 0.544 )
( 0.63 0.37 ))
(( 0.3 0.7 )
( 0.63 0.37 )))))
((((( 0.4 0.6 )
( 0.8 0.19999999 ))
(( 0.18 0.82 )
( 0.77 0.23000002 )))
((( 0.65 0.35000002 )
( 0.48 0.52 ))
(( 0.578 0.422 )
( 0.7 0.3 ))))
(((( 0.84 0.16000003 )
( 0.22 0.78 ))
(( 0.54 0.45999998 )
( 0.24 0.76 )))
((( 0.8 0.19999999 )
( 0.254 0.746 ))
(( 0.53 0.47000003 )
( 0.19 0.81 ))))))
(((((( 0.66 0.33999997 )
( 0.64 0.36 ))
(( 0.54 0.45999998 )
( 0.57 0.43 )))
((( 0.67 0.32999998 )
( 0.34 0.65999997 ))
(( 0.48 0.52 )
( 0.67 0.32999998 ))))
(((( 0.5 0.5 )
( 0.4 0.6 ))
(( 0.185 0.815 )
( 0.34 0.65999997 )))
((( 0.4 0.6 )
( 0.5 0.5 ))
(( 0.4 0.6 )
( 0.48 0.52 )))))
((((( 0.9841 0.015900016 )
( 0.64 0.36 ))
(( 0.93 0.06999999 )
( 0.48 0.52 )))
((( 0.324 0.676 )
( 0.61 0.39 ))
(( 0.3245 0.67550004 )
( 0.48 0.52 ))))
(((( 0.248 0.752 )
( 0.48 0.52 ))
(( 0.57 0.43 )
( 0.6 0.39999998 )))
((( 0.72 0.27999997 )
( 0.64 0.36 ))
(( 0.92 0.07999998 )
( 0.58 0.42000002 ))))))))
(((((((( 0.84 0.16000003 )
( 0.55 0.45 ))
(( 0.9 0.100000024 )
( 0.55 0.45 )))
((( 0.44 0.56 )
( 0.07 0.93 ))
(( 0.258 0.742 )
( 0.48 0.52 ))))
(((( 0.648 0.352 )
( 0.75 0.25 ))
(( 0.36 0.64 )
( 0.65 0.35000002 )))
((( 0.32 0.68 )
( 0.31 0.69 ))
(( 0.55 0.45 )
( 0.633 0.36699998 )))))
((((( 0.99 0.00999999 )
( 0.4 0.6 ))
(( 0.4 0.6 )
( 0.55 0.45 )))
((( 0.3 0.7 )
( 0.2 0.8 ))
(( 0.82 0.18 )
( 0.58 0.42000002 ))))
(((( 0.6 0.39999998 )
( 0.214 0.786 ))
(( 0.58 0.42000002 )
( 0.57 0.43 )))
((( 0.7 0.3 )
( 0.541 0.459 ))
(( 0.54 0.45999998 )
( 0.55 0.45 ))))))
(((((( 0.52 0.48000002 )
( 0.4 0.6 ))
(( 0.5 0.5 )
( 0.69 0.31 )))
((( 0.6 0.39999998 )
( 0.6 0.39999998 ))
(( 0.5 0.5 )
( 0.2 0.8 ))))
(((( 0.48 0.52 )
( 0.287 0.713 ))
(( 0.5 0.5 )
( 0.854 0.14600003 )))
((( 0.4 0.6 )
( 0.671 0.329 ))
(( 0.48 0.52 )
( 0.35 0.65 )))))
((((( 0.57 0.43 )
( 0.3 0.7 ))
(( 0.84 0.16000003 )
( 0.885 0.11500001 )))
((( 0.8 0.19999999 )
( 0.18 0.82 ))
(( 0.287 0.713 )
( 0.25 0.75 ))))
(((( 0.528 0.472 )
( 0.254 0.746 ))
(( 0.14 0.86 )
( 0.48 0.52 )))
((( 0.45 0.55 )
( 0.4 0.6 ))
(( 0.87 0.13 )
( 0.36 0.64 )))))))
((((((( 0.28 0.72 )
( 0.37 0.63 ))
(( 0.64 0.36 )
( 0.66 0.33999997 )))
((( 0.38 0.62 )
( 0.28 0.72 ))
(( 0.666 0.334 )
( 0.96 0.04000002 ))))
(((( 0.48 0.52 )
( 0.35 0.65 ))
(( 0.58 0.42000002 )
( 0.25 0.75 )))
((( 0.1 0.9 )
( 0.5 0.5 ))
(( 0.874 0.12599999 )
( 0.48 0.52 )))))
((((( 0.574 0.426 )
( 0.63 0.37 ))
(( 0.64 0.36 )
( 0.6 0.39999998 )))
((( 0.84 0.16000003 )
( 0.635 0.365 ))
(( 0.7 0.3 )
( 0.6 0.39999998 ))))
(((( 0.854 0.14600003 )
( 0.634 0.366 ))
(( 0.89 0.110000014 )
( 0.14 0.86 )))
((( 0.37 0.63 )
( 0.48 0.52 ))
(( 0.58 0.42000002 )
( 0.44 0.56 ))))))
(((((( 0.48 0.52 )
( 0.364 0.63600004 ))
(( 0.47 0.53 )
( 0.85 0.14999998 )))
((( 0.67 0.32999998 )
( 0.8 0.19999999 ))
(( 0.84 0.16000003 )
( 0.57 0.43 ))))
(((( 0.6 0.39999998 )
( 0.961 0.038999975 ))
(( 0.64 0.36 )
( 0.354 0.646 )))
((( 0.058 0.94200003 )
( 0.48 0.52 ))
(( 1.0 0.0 )
( 0.44 0.56 )))))
((((( 0.8 0.19999999 )
( 0.18 0.82 ))
(( 0.78 0.22000003 )
( 0.66 0.33999997 )))
((( 1.0 0.0 )
( 0.952 0.047999978 ))
(( 0.69 0.31 )
( 0.3 0.7 ))))
(((( 0.4 0.6 )
( 0.48 0.52 ))
(( 0.67 0.32999998 )
( 0.38 0.62 )))
((( 0.54 0.45999998 )
( 0.8 0.19999999 ))
(( 0.54 0.45999998 )
( 0.5 0.5 )))))))));
}

potential (CrossZoneScripting | Duration Stealthy OriginKnown Targeted Automated Advanced Persistent Aggresive)
{
 data = ((((((((( 0.6 0.39999998 )
( 0.7 0.3 ))
(( 0.5 0.5 )
( 0.4 0.6 )))
((( 0.55 0.45 )
( 0.3 0.7 ))
(( 0.5 0.5 )
( 0.7 0.3 ))))
(((( 0.6 0.39999998 )
( 0.5 0.5 ))
(( 0.33 0.66999996 )
( 0.4 0.6 )))
((( 0.56 0.44 )
( 0.45 0.55 ))
(( 0.5 0.5 )
( 0.33 0.66999996 )))))
((((( 0.56 0.44 )
( 0.23 0.77 ))
(( 0.8 0.19999999 )
( 0.9 0.100000024 )))
((( 0.3 0.7 )
( 0.7 0.3 ))
(( 0.6 0.39999998 )
( 0.7 0.3 ))))
(((( 0.5 0.5 )
( 0.5 0.5 ))
(( 0.7 0.3 )
( 0.6 0.39999998 )))
((( 0.8 0.19999999 )
( 0.6 0.39999998 ))
(( 0.56 0.44 )
( 0.76 0.24000001 ))))))
(((((( 0.45 0.55 )
( 0.3 0.7 ))
(( 0.2 0.8 )
( 0.4 0.6 )))
((( 0.6 0.39999998 )
( 0.6 0.39999998 ))
(( 0.4 0.6 )
( 0.4321 0.5679 ))))
(((( 0.7 0.3 )
( 0.6 0.39999998 ))
(( 0.67 0.32999998 )
( 0.76 0.24000001 )))
((( 0.56 0.44 )
( 0.65 0.35000002 ))
(( 0.45 0.55 )
( 0.54 0.45999998 )))))
((((( 0.78 0.22000003 )
( 0.87 0.13 ))
(( 0.43 0.57 )
( 0.34 0.65999997 )))
((( 0.65 0.35000002 )
( 0.56 0.44 ))
(( 0.75 0.25 )
( 0.57 0.43 ))))
(((( 0.7 0.3 )
( 0.7 0.3 ))
(( 0.6 0.39999998 )
( 0.6 0.39999998 )))
((( 0.5 0.5 )
( 0.5 0.5 ))
(( 0.4 0.6 )
( 0.5 0.5 )))))))
((((((( 0.7 0.3 )
( 0.8 0.19999999 ))
(( 0.7 0.3 )
( 0.6 0.39999998 )))
((( 0.7 0.3 )
( 0.67 0.32999998 ))
(( 0.78 0.22000003 )
( 0.86 0.13999999 ))))
(((( 0.876 0.12400001 )
( 0.6 0.39999998 ))
(( 0.87 0.13 )
( 0.65 0.35000002 )))
((( 0.89 0.110000014 )
( 0.4 0.6 ))
(( 0.56 0.44 )
( 0.6 0.39999998 )))))
((((( 0.7 0.3 )
( 0.5 0.5 ))
(( 0.4 0.6 )
( 0.55 0.45 )))
((( 0.3 0.7 )
( 0.5 0.5 ))
(( 0.7 0.3 )
( 0.6 0.39999998 ))))
(((( 0.56 0.44 )
( 0.78 0.22000003 ))
(( 0.456 0.544 )
( 0.45 0.55 )))
((( 0.7 0.3 )
( 0.7 0.3 ))
(( 0.789 0.21100003 )
( 0.67 0.32999998 ))))))
(((((( 0.7 0.3 )
( 0.5 0.5 ))
(( 0.4 0.6 )
( 0.55 0.45 )))
((( 0.3 0.7 )
( 0.5 0.5 ))
(( 0.7 0.3 )
( 0.6 0.39999998 ))))
(((( 0.56 0.44 )
( 0.78 0.22000003 ))
(( 0.456 0.544 )
( 0.45 0.55 )))
((( 0.56 0.44 )
( 0.76 0.24000001 ))
(( 0.45 0.55 )
( 0.3 0.7 )))))
((((( 0.2 0.8 )
( 0.4 0.6 ))
(( 0.6 0.39999998 )
( 0.6 0.39999998 )))
((( 0.4 0.6 )
( 0.5 0.5 ))
(( 0.5 0.5 )
( 0.55 0.45 ))))
(((( 0.56 0.44 )
( 0.57 0.43 ))
(( 0.777 0.22299999 )
( 0.6 0.39999998 )))
((( 0.7 0.3 )
( 0.5 0.5 ))
(( 0.4 0.6 )
( 0.55 0.45 ))))))))
(((((((( 0.3 0.7 )
( 0.5 0.5 ))
(( 0.7 0.3 )
( 0.6 0.39999998 )))
((( 0.5 0.5 )
( 0.33 0.66999996 ))
(( 0.4 0.6 )
( 0.56 0.44 ))))
(((( 0.45 0.55 )
( 0.5 0.5 ))
(( 0.33 0.66999996 )
( 0.56 0.44 )))
((( 0.23 0.77 )
( 0.8 0.19999999 ))
(( 0.9 0.100000024 )
( 0.3 0.7 )))))
((((( 0.7 0.3 )
( 0.6 0.39999998 ))
(( 0.7 0.3 )
( 0.5 0.5 )))
((( 0.5 0.5 )
( 0.7 0.3 ))
(( 0.6 0.39999998 )
( 0.8 0.19999999 ))))
(((( 0.6 0.39999998 )
( 0.56 0.44 ))
(( 0.76 0.24000001 )
( 0.45 0.55 )))
((( 0.3 0.7 )
( 0.2 0.8 ))
(( 0.4 0.6 )
( 0.6 0.39999998 ))))))
(((((( 0.6 0.39999998 )
( 0.4 0.6 ))
(( 0.4321 0.5679 )
( 0.7 0.3 )))
((( 0.6 0.39999998 )
( 0.67 0.32999998 ))
(( 0.76 0.24000001 )
( 0.56 0.44 ))))
(((( 0.65 0.35000002 )
( 0.45 0.55 ))
(( 0.54 0.45999998 )
( 0.78 0.22000003 )))
((( 0.87 0.13 )
( 0.43 0.57 ))
(( 0.34 0.65999997 )
( 0.6 0.39999998 )))))
((((( 0.4 0.6 )
( 0.6 0.39999998 ))
(( 0.6 0.39999998 )
( 0.4 0.6 )))
((( 0.5 0.5 )
( 0.5 0.5 ))
(( 0.55 0.45 )
( 0.56 0.44 ))))
(((( 0.57 0.43 )
( 0.777 0.22299999 ))
(( 0.456 0.544 )
( 0.76 0.24000001 )))
((( 0.8 0.19999999 )
( 0.7 0.3 ))
(( 0.5 0.5 )
( 0.4 0.6 )))))))
((((((( 0.43 0.57 )
( 0.67 0.32999998 ))
(( 0.65 0.35000002 )
( 0.75 0.25 )))
((( 0.78 0.22000003 )
( 0.454 0.546 ))
(( 0.64 0.36 )
( 0.7 0.3 ))))
(((( 0.5 0.5 )
( 0.4 0.6 ))
(( 0.3 0.7 )
( 0.2 0.8 )))
((( 0.4 0.6 )
( 0.5 0.5 ))
(( 0.7 0.3 )
( 0.7 0.3 )))))
((((( 0.7 0.3 )
( 0.5 0.5 ))
(( 0.878 0.12199998 )
( 0.9 0.100000024 )))
((( 0.876 0.12400001 )
( 0.84 0.16000003 ))
(( 0.588 0.412 )
( 0.654 0.34600002 ))))
(((( 0.885 0.11500001 )
( 0.54 0.45999998 ))
(( 0.46 0.53999996 )
( 0.742 0.25800002 )))
((( 0.65 0.35000002 )
( 0.67 0.32999998 ))
(( 0.786 0.21399999 )
( 0.654 0.34600002 ))))))
(((((( 0.6 0.39999998 )
( 0.7 0.3 ))
(( 0.8 0.19999999 )
( 0.5 0.5 )))
((( 0.76 0.24000001 )
( 0.87 0.13 ))
(( 0.65 0.35000002 )
( 0.87 0.13 ))))
(((( 0.98 0.01999998 )
( 0.76 0.24000001 ))
(( 0.76 0.24000001 )
( 0.567 0.43300003 )))
((( 0.665 0.33499998 )
( 0.55 0.45 ))
(( 0.675 0.325 )
( 0.75 0.25 )))))
((((( 0.65 0.35000002 )
( 0.654 0.34600002 ))
(( 0.75 0.25 )
( 0.78 0.22000003 )))
((( 0.454 0.546 )
( 0.64 0.36 ))
(( 0.7 0.3 )
( 0.5 0.5 ))))
(((( 0.4 0.6 )
( 0.3 0.7 ))
(( 0.2 0.8 )
( 0.4 0.6 )))
((( 0.5 0.5 )
( 0.7 0.3 ))
(( 0.7 0.3 )
( 0.7 0.3 ))))))))
(((((((( 0.5 0.5 )
( 0.878 0.12199998 ))
(( 0.9 0.100000024 )
( 0.876 0.12400001 )))
((( 0.84 0.16000003 )
( 0.588 0.412 ))
(( 0.654 0.34600002 )
( 0.885 0.11500001 ))))
(((( 0.54 0.45999998 )
( 0.46 0.53999996 ))
(( 0.742 0.25800002 )
( 0.65 0.35000002 )))
((( 0.67 0.32999998 )
( 0.786 0.21399999 ))
(( 0.654 0.34600002 )
( 0.6 0.39999998 )))))
((((( 0.7 0.3 )
( 0.8 0.19999999 ))
(( 0.5 0.5 )
( 0.76 0.24000001 )))
((( 0.87 0.13 )
( 0.65 0.35000002 ))
(( 0.87 0.13 )
( 0.98 0.01999998 ))))
(((( 0.76 0.24000001 )
( 0.76 0.24000001 ))
(( 0.567 0.43300003 )
( 0.45 0.55 )))
((( 0.45 0.55 )
( 0.45 0.55 ))
(( 0.45555 0.54445004 )
( 0.54 0.45999998 ))))))
(((((( 0.54 0.45999998 )
( 0.555 0.445 ))
(( 0.65 0.35000002 )
( 0.56 0.44 )))
((( 0.67 0.32999998 )
( 0.76 0.24000001 ))
(( 0.565 0.435 )
( 0.76 0.24000001 ))))
(((( 0.654 0.34600002 )
( 0.787 0.213 ))
(( 0.654 0.34600002 )
( 0.776 0.22399998 )))
((( 0.7 0.3 )
( 0.7 0.3 ))
(( 0.8 0.19999999 )
( 0.9 0.100000024 )))))
((((( 0.456 0.544 )
( 0.65 0.35000002 ))
(( 0.55555 0.44445002 )
( 0.4444 0.5556 )))
((( 0.55555 0.44445002 )
( 0.66777 0.33222997 ))
(( 0.777777 0.22222298 )
( 0.42 0.58000004 ))))
(((( 0.45 0.55 )
( 0.34 0.65999997 ))
(( 0.7 0.3 )
( 0.8 0.19999999 )))
((( 0.5 0.5 )
( 0.5 0.5 ))
(( 0.5 0.5 )
( 0.5 0.5 )))))))
((((((( 0.75 0.25 )
( 0.57 0.43 ))
(( 0.7 0.3 )
( 0.7 0.3 )))
((( 0.6 0.39999998 )
( 0.6 0.39999998 ))
(( 0.5 0.5 )
( 0.5 0.5 ))))
(((( 0.4 0.6 )
( 0.5 0.5 ))
(( 0.7 0.3 )
( 0.8 0.19999999 )))
((( 0.7 0.3 )
( 0.75 0.25 ))
(( 0.57 0.43 )
( 0.7 0.3 )))))
((((( 0.7 0.3 )
( 0.6 0.39999998 ))
(( 0.6 0.39999998 )
( 0.5 0.5 )))
((( 0.5 0.5 )
( 0.4 0.6 ))
(( 0.5 0.5 )
( 0.7 0.3 ))))
(((( 0.8 0.19999999 )
( 0.7 0.3 ))
(( 0.767 0.23299998 )
( 0.8 0.19999999 )))
((( 0.6 0.39999998 )
( 0.7 0.3 ))
(( 0.5 0.5 )
( 0.4 0.6 ))))))
(((((( 0.3 0.7 )
( 0.2 0.8 ))
(( 0.6 0.39999998 )
( 0.5 0.5 )))
((( 0.7 0.3 )
( 0.8 0.19999999 ))
(( 0.9 0.100000024 )
( 0.55 0.45 ))))
(((( 0.67 0.32999998 )
( 0.7 0.3 ))
(( 0.6 0.39999998 )
( 0.65 0.35000002 )))
((( 0.56 0.44 )
( 0.46 0.53999996 ))
(( 0.64 0.36 )
( 0.55 0.45 )))))
((((( 0.44 0.56 )
( 0.66 0.33999997 ))
(( 0.77 0.23000002 )
( 0.55 0.45 )))
((( 0.54 0.45999998 )
( 0.543 0.45700002 ))
(( 0.6 0.39999998 )
( 0.7 0.3 ))))
(((( 0.5 0.5 )
( 0.4 0.6 ))
(( 0.55 0.45 )
( 0.6 0.39999998 )))
((( 0.6 0.4 )
( 0.8 0.2 ))
(( 0.7 0.3 )
( 0.5 0.5 )))))))));
}

potential (HijackingAPrivilegedProcess | Duration Stealthy OriginKnown Targeted Advanced Automated Persistent Aggresive)
{
 data = ((((((((( 0.6 0.39999998 )
( 0.65 0.35000002 ))
(( 0.56 0.44 )
( 0.46 0.53999996 )))
((( 0.64 0.36 )
( 0.55 0.45 ))
(( 0.44 0.56 )
( 0.66 0.33999997 ))))
(((( 0.77 0.23000002 )
( 0.55 0.45 ))
(( 0.54 0.45999998 )
( 0.543 0.45700002 )))
((( 0.6 0.39999998 )
( 0.7 0.3 ))
(( 0.5 0.5 )
( 0.4 0.6 )))))
((((( 0.55 0.45 )
( 0.6 0.39999998 ))
(( 0.6 0.39999998 )
( 0.8 0.19999999 )))
((( 0.7 0.3 )
( 0.5 0.5 ))
(( 0.7 0.3 )
( 0.5 0.5 ))))
(((( 0.4 0.6 )
( 0.55 0.45 ))
(( 0.3 0.7 )
( 0.5 0.5 )))
((( 0.7 0.3 )
( 0.6 0.39999998 ))
(( 0.56 0.44 )
( 0.78 0.22000003 ))))))
(((((( 0.456 0.544 )
( 0.45 0.55 ))
(( 0.56 0.44 )
( 0.76 0.24000001 )))
((( 0.45 0.55 )
( 0.3 0.7 ))
(( 0.2 0.8 )
( 0.4 0.6 ))))
(((( 0.6 0.39999998 )
( 0.6 0.39999998 ))
(( 0.4 0.6 )
( 0.5 0.5 )))
((( 0.9 0.100000024 )
( 0.58 0.42000002 ))
(( 0.4 0.6 )
( 0.4 0.6 )))))
((((( 0.64 0.36 )
( 0.7 0.3 ))
(( 0.658 0.342 )
( 0.1 0.9 )))
((( 0.858 0.14200002 )
( 0.36 0.64 ))
(( 0.48 0.52 )
( 0.3 0.7 ))))
(((( 0.68 0.32 )
( 0.7 0.3 ))
(( 0.69 0.31 )
( 0.63 0.37 )))
((( 0.848 0.15200001 )
( 0.68 0.32 ))
(( 0.486 0.514 )
( 0.89 0.110000014 )))))))
((((((( 0.48 0.52 )
( 0.687 0.31300002 ))
(( 0.468 0.532 )
( 0.85 0.14999998 )))
((( 0.4 0.6 )
( 0.48 0.52 ))
(( 0.32 0.68 )
( 0.58 0.42000002 ))))
(((( 0.674 0.32599998 )
( 0.68 0.32 ))
(( 0.48 0.52 )
( 0.84 0.16000003 )))
((( 0.61 0.39 )
( 0.185 0.815 ))
(( 0.84 0.16000003 )
( 0.634 0.366 )))))
((((( 0.8 0.19999999 )
( 0.48 0.52 ))
(( 0.57 0.43 )
( 0.58 0.42000002 )))
((( 0.62 0.38 )
( 0.88 0.120000005 ))
(( 0.67 0.32999998 )
( 0.62 0.38 ))))
(((( 0.61 0.39 )
( 0.858 0.14200002 ))
(( 0.5 0.5 )
( 0.5748 0.4252 )))
((( 0.637 0.36299998 )
( 0.654 0.34600002 ))
(( 0.27 0.73 )
( 0.3325 0.6675 ))))))
(((((( 0.4 0.6 )
( 0.58 0.42000002 ))
(( 0.24 0.76 )
( 0.58 0.42000002 )))
((( 0.22 0.78 )
( 0.5241 0.4759 ))
(( 0.24 0.76 )
( 0.8 0.19999999 ))))
(((( 0.15 0.85 )
( 0.53 0.47000003 ))
(( 0.54 0.45999998 )
( 0.66 0.33999997 )))
((( 0.64 0.36 )
( 0.287 0.713 ))
(( 0.57 0.43 )
( 0.5 0.5 )))))
((((( 0.34 0.65999997 )
( 0.48 0.52 ))
(( 0.185 0.815 )
( 0.5 0.5 )))
((( 0.8 0.19999999 )
( 0.674 0.32599998 ))
(( 0.84 0.16000003 )
( 0.48 0.52 ))))
(((( 0.81 0.19 )
( 0.61 0.39 ))
(( 0.7 0.3 )
( 0.84 0.16000003 )))
((( 0.35 0.65 )
( 0.67 0.32999998 ))
(( 0.62 0.38 )
( 0.57 0.43 ))))))))
(((((((( 0.67 0.32999998 )
( 0.62 0.38 ))
(( 0.45 0.55 )
( 0.67 0.32999998 )))
((( 0.62 0.38 )
( 0.61 0.39 ))
(( 0.48 0.52 )
( 1.0 0.0 ))))
(((( 0.24 0.76 )
( 0.88 0.120000005 ))
(( 0.71 0.29000002 )
( 0.58 0.42000002 )))
((( 0.3 0.7 )
( 0.81 0.19 ))
(( 0.23 0.77 )
( 0.298 0.702 )))))
((((( 0.1 0.9 )
( 0.15 0.85 ))
(( 0.624 0.376 )
( 0.8 0.19999999 )))
((( 0.24 0.76 )
( 0.4 0.6 ))
(( 0.35 0.65 )
( 0.5 0.5 ))))
(((( 0.3 0.7 )
( 0.34 0.65999997 ))
(( 0.18 0.82 )
( 0.4 0.6 )))
((( 0.53 0.47000003 )
( 0.548 0.45200002 ))
(( 0.66 0.33999997 )
( 0.47 0.53 ))))))
(((((( 0.287 0.713 )
( 0.57 0.43 ))
(( 0.64 0.36 )
( 0.34 0.65999997 )))
((( 0.528 0.472 )
( 0.48 0.52 ))
(( 0.5 0.5 )
( 0.4 0.6 ))))
(((( 0.4 0.6 )
( 0.34 0.65999997 ))
(( 0.548 0.45200002 )
( 0.9 0.100000024 )))
((( 0.47 0.53 )
( 0.48 0.52 ))
(( 0.9841 0.015900016 )
( 0.6348 0.36519998 )))))
((((( 0.93 0.06999999 )
( 0.47 0.53 ))
(( 0.5 0.5 )
( 0.4 0.6 )))
((( 0.4 0.6 )
( 0.34 0.65999997 ))
(( 0.548 0.45200002 )
( 0.9 0.100000024 ))))
(((( 0.47 0.53 )
( 0.48 0.52 ))
(( 0.9841 0.015900016 )
( 0.6348 0.36519998 )))
((( 0.93 0.06999999 )
( 0.47 0.53 ))
(( 0.1 0.9 )
( 0.15 0.85 )))))))
((((((( 0.624 0.376 )
( 0.8 0.19999999 ))
(( 0.24 0.76 )
( 0.4 0.6 )))
((( 0.35 0.65 )
( 0.5 0.5 ))
(( 0.3 0.7 )
( 0.24 0.76 ))))
(((( 0.18 0.82 )
( 0.58 0.42000002 ))
(( 0.11 0.89 )
( 0.57 0.43 )))
((( 0.37 0.63 )
( 0.567 0.43300003 ))
(( 0.23 0.77 )
( 0.487 0.513 )))))
((((( 0.64 0.36 )
( 0.341 0.65900004 ))
(( 0.11 0.89 )
( 0.43 0.57 )))
((( 0.27 0.73 )
( 0.74 0.26 ))
(( 0.411 0.589 )
( 0.674 0.32599998 ))))
(((( 0.11 0.89 )
( 0.9 0.100000024 ))
(( 0.81 0.19 )
( 0.57 0.43 )))
((( 0.3485 0.6515 )
( 0.63 0.37 ))
(( 0.3 0.7 )
( 0.87 0.13 ))))))
(((((( 0.48 0.52 )
( 0.8 0.19999999 ))
(( 0.48 0.52 )
( 0.38 0.62 )))
((( 0.65 0.35000002 )
( 0.48 0.52 ))
(( 0.578 0.422 )
( 0.851 0.14899999 ))))
(((( 0.35 0.65 )
( 0.4 0.6 ))
(( 0.4 0.6 )
( 0.8 0.19999999 )))
((( 1.0 0.0 )
( 0.74 0.26 ))
(( 0.86 0.13999999 )
( 0.4 0.6 )))))
((((( 0.9 0.100000024 )
( 0.6 0.39999998 ))
(( 0.4 0.6 )
( 0.4 0.6 )))
((( 0.54 0.45999998 )
( 0.7 0.3 ))
(( 0.6 0.39999998 )
( 0.1 0.9 ))))
(((( 0.24 0.76 )
( 0.374 0.626 ))
(( 0.47 0.53 )
( 0.85 0.14999998 )))
((( 0.47 0.53 )
( 0.7 0.3 ))
(( 0.64 0.36 )
( 0.47 0.53 ))))))))
(((((((( 0.338 0.662 )
( 0.54 0.45999998 ))
(( 0.486 0.514 )
( 0.95 0.050000012 )))
((( 0.48 0.52 )
( 0.78 0.22000003 ))
(( 0.468 0.532 )
( 0.574 0.426 ))))
(((( 0.654 0.34600002 )
( 0.48 0.52 ))
(( 0.4 0.6 )
( 0.42 0.58000004 )))
((( 0.674 0.32599998 )
( 0.84 0.16000003 ))
(( 0.61 0.39 )
( 0.81 0.19 )))))
((((( 0.61 0.39 )
( 0.81 0.19 ))
(( 0.84 0.16000003 )
( 0.64 0.36 )))
((( 0.67 0.32999998 )
( 0.62 0.38 ))
(( 0.57 0.43 )
( 0.67 0.32999998 ))))
(((( 0.62 0.38 )
( 0.6374 0.36260003 ))
(( 0.67 0.32999998 )
( 0.62 0.38 )))
((( 0.74 0.26 )
( 0.48 0.52 ))
(( 1.0 0.0 )
( 0.17 0.83 ))))))
(((((( 0.637 0.36299998 )
( 0.345 0.655 ))
(( 0.27 0.73 )
( 0.984 0.015999973 )))
((( 0.57 0.43 )
( 0.67 0.32999998 ))
(( 0.24 0.76 )
( 0.67 0.32999998 ))))
(((( 0.33 0.66999996 )
( 0.48 0.52 ))
(( 0.34 0.65999997 )
( 0.67 0.32999998 )))
((( 0.321 0.679 )
( 0.67 0.32999998 ))
(( 0.71 0.29000002 )
( 0.687 0.31300002 )))))
((((( 0.58 0.42000002 )
( 0.17 0.83 ))
(( 0.81 0.19 )
( 0.65 0.35000002 )))
((( 0.874 0.12599999 )
( 0.65 0.35000002 ))
(( 0.47 0.53 )
( 0.647 0.353 ))))
(((( 0.4865 0.5135 )
( 0.57 0.43 ))
(( 0.987 0.013000011 )
( 0.5 0.5 )))
((( 0.99 0.00999999 )
( 0.67 0.32999998 ))
(( 0.54 0.45999998 )
( 0.63 0.37 )))))))
((((((( 0.6574 0.3426 )
( 0.574 0.426 ))
(( 0.57 0.43 )
( 0.52 0.48000002 )))
((( 0.661 0.339 )
( 0.34 0.65999997 ))
(( 0.52 0.48000002 )
( 0.66 0.33999997 ))))
(((( 0.45 0.55 )
( 0.48 0.52 ))
(( 0.55 0.45 )
( 0.58 0.42000002 )))
((( 0.88 0.120000005 )
( 0.52 0.48000002 ))
(( 0.33 0.66999996 )
( 0.31 0.69 )))))
((((( 0.52 0.48000002 )
( 0.52 0.48000002 ))
(( 0.34 0.65999997 )
( 0.55 0.45 )))
((( 0.556 0.444 )
( 0.65 0.35000002 ))
(( 0.7 0.3 )
( 0.87 0.13 ))))
(((( 0.7 0.3 )
( 0.67 0.32999998 ))
(( 0.55 0.45 )
( 0.654 0.34600002 )))
((( 0.675 0.325 )
( 0.65 0.35000002 ))
(( 0.456 0.544 )
( 0.55 0.45 ))))))
(((((( 0.5 0.5 )
( 0.6 0.39999998 ))
(( 0.7 0.3 )
( 0.8 0.19999999 )))
((( 0.9 0.100000024 )
( 0.56 0.44 ))
(( 0.76 0.24000001 )
( 0.76 0.24000001 ))))
(((( 0.654 0.34600002 )
( 0.76 0.24000001 ))
(( 0.76 0.24000001 )
( 0.457 0.543 )))
((( 0.776 0.22399998 )
( 0.787 0.213 ))
(( 0.887 0.112999976 )
( 0.7766 0.2234 )))))
((((( 0.7856 0.2144 )
( 0.765 0.23500001 ))
(( 0.67 0.32999998 )
( 0.56 0.44 )))
((( 0.76 0.24000001 )
( 0.78 0.22000003 ))
(( 0.76 0.24000001 )
( 0.87 0.13 ))))
(((( 0.87 0.13 )
( 0.87 0.13 ))
(( 0.76 0.24000001 )
( 0.876 0.12400001 )))
((( 0.655 0.34500003 )
( 0.6 0.39999998 ))
(( 0.5 0.5 )
( 0.55 0.45 )))))))));
}

potential (TargetProgramsWithElevatedPrivileges | Duration Stealthy OriginKnown Targeted Automated Advanced Aggresive Persistent)
{
 data = ((((((((( 0.5 0.5 )
( 0.55 0.45 ))
(( 0.55 0.45 )
( 0.45 0.55 )))
((( 0.54 0.45999998 )
( 0.55 0.45 ))
(( 0.44 0.56 )
( 0.55 0.45 ))))
(((( 0.44 0.56 )
( 0.55 0.45 ))
(( 0.54 0.45999998 )
( 0.543 0.45700002 )))
((( 0.5 0.5 )
( 0.4 0.6 ))
(( 0.5 0.5 )
( 0.4 0.6 )))))
((((( 0.55 0.45 )
( 0.5 0.5 ))
(( 0.5 0.5 )
( 0.8 0.19999999 )))
((( 0.4 0.6 )
( 0.5 0.5 ))
(( 0.4 0.6 )
( 0.5 0.5 ))))
(((( 0.4 0.6 )
( 0.55 0.45 ))
(( 0.3 0.7 )
( 0.5 0.5 )))
((( 0.4 0.6 )
( 0.5 0.5 ))
(( 0.55 0.45 )
( 0.48 0.52 ))))))
(((((( 0.455 0.54499996 )
( 0.45 0.55 ))
(( 0.55 0.45 )
( 0.45 0.55 )))
((( 0.45 0.55 )
( 0.3 0.7 ))
(( 0.2 0.8 )
( 0.4 0.6 ))))
(((( 0.5 0.5 )
( 0.5 0.5 ))
(( 0.4 0.6 )
( 0.5 0.5 )))
((( 0.9 0.100000024 )
( 0.58 0.42000002 ))
(( 0.4 0.6 )
( 0.4 0.6 )))))
((((( 0.54 0.45999998 )
( 0.4 0.6 ))
(( 0.558 0.44199997 )
( 0.1 0.9 )))
((( 0.858 0.14200002 )
( 0.35 0.65 ))
(( 0.48 0.52 )
( 0.3 0.7 ))))
(((( 0.58 0.42000002 )
( 0.4 0.6 ))
(( 0.59 0.41000003 )
( 0.53 0.47000003 )))
((( 0.848 0.15200001 )
( 0.58 0.42000002 ))
(( 0.485 0.515 )
( 0.89 0.110000014 )))))))
((((((( 0.48 0.52 )
( 0.584 0.416 ))
(( 0.458 0.542 )
( 0.85 0.14999998 )))
((( 0.4 0.6 )
( 0.48 0.52 ))
(( 0.32 0.68 )
( 0.58 0.42000002 ))))
(((( 0.544 0.45599997 )
( 0.58 0.42000002 ))
(( 0.48 0.52 )
( 0.84 0.16000003 )))
((( 0.51 0.49 )
( 0.185 0.815 ))
(( 0.84 0.16000003 )
( 0.534 0.46600002 )))))
((((( 0.8 0.19999999 )
( 0.48 0.52 ))
(( 0.54 0.45999998 )
( 0.58 0.42000002 )))
((( 0.52 0.48000002 )
( 0.88 0.120000005 ))
(( 0.54 0.45999998 )
( 0.52 0.48000002 ))))
(((( 0.51 0.49 )
( 0.858 0.14200002 ))
(( 0.5 0.5 )
( 0.5448 0.45520002 )))
((( 0.534 0.46600002 )
( 0.554 0.44599998 ))
(( 0.33 0.66999996 )
( 0.4 0.6 ))))))
(((((( 0.56 0.44 )
( 0.45 0.55 ))
(( 0.5 0.5 )
( 0.33 0.66999996 )))
((( 0.56 0.44 )
( 0.23 0.77 ))
(( 0.8 0.19999999 )
( 0.9 0.100000024 ))))
(((( 0.3 0.7 )
( 0.7 0.3 ))
(( 0.6 0.39999998 )
( 0.7 0.3 )))
((( 0.5 0.5 )
( 0.5 0.5 ))
(( 0.7 0.3 )
( 0.6 0.39999998 )))))
((((( 0.8 0.19999999 )
( 0.6 0.39999998 ))
(( 0.56 0.44 )
( 0.76 0.24000001 )))
((( 0.45 0.55 )
( 0.851 0.14899999 ))
(( 0.61 0.39 )
( 0.22 0.78 ))))
